booster[0]:
0:[f107<0.47678259] yes=1,no=2,missing=2,gain=7.86299324,cover=82.7637558
	1:[f83<0.234022155] yes=3,no=4,missing=4,gain=1.88346052,cover=50.2656212
		3:[f127<0.000547543284] yes=7,no=8,missing=8,gain=2.88827944,cover=39.8831711
			7:[f87<0.0160856079] yes=15,no=16,missing=16,gain=2.14724398,cover=36.6480865
				15:[f35<0.216216221] yes=31,no=32,missing=32,gain=1.31099415,cover=30.3889961
					31:[f132<0.6506024] yes=57,no=58,missing=58,gain=0.636860847,cover=28.0407887
						57:leaf=-0.0307834931,cover=27.2835217
						58:leaf=0.00757777272,cover=0.757267475
					32:[f35<0.270270258] yes=59,no=60,missing=60,gain=0.690082669,cover=2.34820676
						59:leaf=0.022136135,cover=1.55071139
						60:leaf=-0.0187294986,cover=0.797495306
				16:[f57<0.0909089968] yes=33,no=34,missing=34,gain=0.568896651,cover=6.25908947
					33:[f25<0.229166672] yes=61,no=62,missing=62,gain=0.0210511088,cover=1.01225865
						61:leaf=-0.0206600651,cover=0.836945236
						62:leaf=-0.00035515023,cover=0.175313383
					34:[f115<0.979229808] yes=63,no=64,missing=64,gain=0.236449242,cover=5.24683094
						63:leaf=0.0155756744,cover=4.54836035
						64:leaf=-0.00778233726,cover=0.698470771
			8:[f13<0.181818187] yes=17,no=18,missing=18,gain=0.224878788,cover=3.23508573
				17:[f110<0.754059732] yes=35,no=36,missing=36,gain=0.0160652958,cover=0.331937373
					35:leaf=-0.00753718382,cover=0.177500814
					36:leaf=0.00206386647,cover=0.154436558
				18:[f10<0.194858149] yes=37,no=38,missing=38,gain=0.189832807,cover=2.90314841
					37:[f58<0.5] yes=65,no=66,missing=66,gain=0.00256276131,cover=2.78031731
						65:leaf=0.0299806595,cover=2.6112566
						66:leaf=0.00212665484,cover=0.169060826
					38:leaf=-0.00546969799,cover=0.122830912
		4:[f132<0.0200803205] yes=9,no=10,missing=10,gain=1.42222071,cover=10.382452
			9:[f35<0.102102101] yes=19,no=20,missing=20,gain=1.21962881,cover=4.17354965
				19:[f52<0.0526320003] yes=39,no=40,missing=40,gain=0.13841331,cover=2.85224032
					39:leaf=-0.0343091451,cover=2.18656898
					40:[f45<0.0432429984] yes=67,no=68,missing=68,gain=0.029154934,cover=0.665671229
						67:leaf=-0.00738616055,cover=0.369232535
						68:leaf=0.00355470343,cover=0.296438664
				20:[f3<0.75] yes=41,no=42,missing=42,gain=0.184873909,cover=1.32130969
					41:leaf=0.0226167981,cover=1.1533128
					42:leaf=-0.00719166407,cover=0.167996809
			10:[f71<0.0935938358] yes=21,no=22,missing=22,gain=0.986400485,cover=6.20890236
				21:[f60<0.0581399985] yes=43,no=44,missing=44,gain=0.273569107,cover=5.22219706
					43:[f13<0.13636364] yes=69,no=70,missing=70,gain=0.222786903,cover=4.67360497
						69:leaf=-0.00545238657,cover=0.122394584
						70:leaf=0.033231061,cover=4.5512104
					44:[f12<0.00133582682] yes=71,no=72,missing=72,gain=0.0141452719,cover=0.548591971
						71:leaf=-0.00505256513,cover=0.298144281
						72:leaf=0.00267048553,cover=0.25044769
				22:[f25<0.166666672] yes=45,no=46,missing=46,gain=0.0576384813,cover=0.986705184
					45:leaf=-0.019201735,cover=0.623468101
					46:[f20<0.0660660639] yes=73,no=74,missing=74,gain=0.000477879279,cover=0.363237083
						73:leaf=-0.00035515023,cover=0.175313383
						74:leaf=0.00127356686,cover=0.1879237
	2:[f75<0.0077660582] yes=5,no=6,missing=6,gain=1.62717295,cover=32.4981308
		5:[f89<0.0366529152] yes=11,no=12,missing=12,gain=1.04879344,cover=6.71144533
			11:[f130<0.152500987] yes=23,no=24,missing=24,gain=0.724282503,cover=2.94105053
				23:leaf=-0.0171285365,cover=0.521076143
				24:leaf=0.0268009044,cover=2.41997457
			12:[f107<0.503624618] yes=25,no=26,missing=26,gain=0.485012949,cover=3.7703948
				25:[f3<0.25] yes=47,no=48,missing=48,gain=0.0915807039,cover=0.632593632
					47:leaf=0.0157058891,cover=0.502588391
					48:leaf=-0.00575241726,cover=0.130005226
				26:[f106<0.484869927] yes=49,no=50,missing=50,gain=0.419924855,cover=3.13780117
					49:leaf=-0.0308556389,cover=2.75454974
					50:leaf=0.0084335953,cover=0.383251369
		6:[f90<2.63265392e-05] yes=13,no=14,missing=14,gain=1.33762407,cover=25.7866859
			13:[f128<0.0661156997] yes=27,no=28,missing=28,gain=0.249474376,cover=4.95589256
				27:[f132<0.0200803205] yes=51,no=52,missing=52,gain=0.418735743,cover=4.24846029
					51:[f125<0.375] yes=75,no=76,missing=76,gain=0.0878659487,cover=2.07453227
						75:leaf=-0.0199780948,cover=1.82408452
						76:leaf=0.00267048553,cover=0.25044769
					52:[f132<0.0441767052] yes=77,no=78,missing=78,gain=0.287294686,cover=2.17392778
						77:leaf=0.019284714,cover=1.26258588
						78:leaf=-0.00811648276,cover=0.911341906
				28:leaf=0.0172553193,cover=0.707432449
			14:[f66<0.111109331] yes=29,no=30,missing=30,gain=0.706259251,cover=20.8307934
				29:[f131<0.00431034481] yes=53,no=54,missing=54,gain=0.511414528,cover=20.0972614
					53:[f132<0.0120481923] yes=79,no=80,missing=80,gain=0.438301742,cover=4.02140284
						79:leaf=0.0186991803,cover=3.26517558
						80:leaf=-0.0124449627,cover=0.756227374
					54:[f10<0.295212775] yes=81,no=82,missing=82,gain=0.276191711,cover=16.0758591
						81:leaf=0.03613998,cover=15.9419708
						82:leaf=-0.00590397185,cover=0.133888975
				30:[f35<0.0780780837] yes=55,no=56,missing=56,gain=0.0837121382,cover=0.733531117
					55:leaf=-0.0149676176,cover=0.427250892
					56:leaf=0.0045396192,cover=0.306280226
booster[1]:
0:[f50<0.00148400001] yes=1,no=2,missing=2,gain=6.46655798,cover=129.47702
	1:[f62<0.0454550013] yes=3,no=4,missing=4,gain=2.68980074,cover=30.6559467
		3:[f20<0.480480492] yes=7,no=8,missing=8,gain=1.08564568,cover=18.5212631
			7:[f127<0.00107614987] yes=15,no=16,missing=16,gain=0.765593529,cover=16.7927647
				15:[f82<0.0125626354] yes=31,no=32,missing=32,gain=0.266088486,cover=14.2809067
					31:[f12<0.00427464582] yes=57,no=58,missing=58,gain=0.341885567,cover=13.6614141
						57:leaf=-0.0429659151,cover=12.4322033
						58:leaf=-0.00759747205,cover=1.22921157
					32:[f1<0.333333343] yes=59,no=60,missing=60,gain=0.0120809395,cover=0.619492471
						59:leaf=0.00158019201,cover=0.487765223
						60:leaf=-0.00571349077,cover=0.131727234
				16:[f10<0.00797872338] yes=33,no=34,missing=34,gain=0.371764302,cover=2.51185775
					33:leaf=0.0123318061,cover=0.876330614
					34:[f1<0.666666687] yes=61,no=62,missing=62,gain=0.315425217,cover=1.63552713
						61:leaf=-0.0263909344,cover=1.14453268
						62:leaf=0.00741327694,cover=0.490994364
			8:[f13<0.181818187] yes=17,no=18,missing=18,gain=0.16269204,cover=1.7284987
				17:leaf=-0.0113433851,cover=0.29932642
				18:[f0<0.571428597] yes=35,no=36,missing=36,gain=0.00611219555,cover=1.42917228
					35:leaf=0.00158019201,cover=0.487765223
					36:leaf=0.0124837924,cover=0.941406965
		4:[f127<6.2220829e-06] yes=9,no=10,missing=10,gain=2.15401888,cover=12.1346836
			9:[f44<0.0107215028] yes=19,no=20,missing=20,gain=0.693559706,cover=7.49116135
				19:[f83<0.265854567] yes=37,no=38,missing=38,gain=0.355904818,cover=5.70724487
					37:[f7<0.75] yes=63,no=64,missing=64,gain=0.365254283,cover=4.11032104
						63:leaf=-0.0373904742,cover=3.1544013
						64:leaf=-0.00147968065,cover=0.955919623
					38:[f30<0.11210762] yes=65,no=66,missing=66,gain=0.0363691784,cover=1.59692371
						65:leaf=0.0020036886,cover=1.37422276
						66:leaf=-0.00883646496,cover=0.222700953
				20:[f10<0.0755319148] yes=39,no=40,missing=40,gain=0.255649745,cover=1.78391683
					39:leaf=0.015362001,cover=1.43315291
					40:leaf=-0.0125879897,cover=0.350763947
			10:[f129<0.0496033281] yes=21,no=22,missing=22,gain=0.530375481,cover=4.64352179
				21:[f11<0.0315789469] yes=41,no=42,missing=42,gain=0.218220949,cover=1.21688616
					41:leaf=-0.0164801106,cover=0.506559432
					42:leaf=0.00983208604,cover=0.710326791
				22:[f45<0.089087002] yes=43,no=44,missing=44,gain=0.00948214531,cover=3.42663574
					43:leaf=0.0330904201,cover=2.85720181
					44:leaf=0.00616679015,cover=0.569433987
	2:[f104<0.845230997] yes=5,no=6,missing=6,gain=4.67567635,cover=98.8210678
		5:[f72<0.0193879027] yes=11,no=12,missing=12,gain=2.50515532,cover=13.0299091
			11:[f50<0.0113639999] yes=23,no=24,missing=24,gain=1.27687645,cover=10.5798912
				23:[f20<0.0150150154] yes=45,no=46,missing=46,gain=0.548642159,cover=8.74723339
					45:leaf=0.00873399619,cover=0.267336667
					46:[f127<0.000105324536] yes=67,no=68,missing=68,gain=0.463140011,cover=8.47989655
						67:leaf=-0.0428658836,cover=7.98068428
						68:leaf=0.00231670425,cover=0.499212861
				24:[f127<9.01751136e-08] yes=47,no=48,missing=48,gain=0.199014813,cover=1.83265746
					47:[f10<0.0845744684] yes=69,no=70,missing=70,gain=0.0144237243,cover=0.972092032
						69:leaf=-0.00988084357,cover=0.523579717
						70:leaf=0.00010063548,cover=0.448512256
					48:leaf=0.0156605281,cover=0.860565424
			12:[f0<0.571428597] yes=25,no=26,missing=26,gain=0.0848623514,cover=2.45001841
				25:leaf=0.00227049016,cover=0.830575287
				26:leaf=0.0238307584,cover=1.61944318
		6:[f109<0.426958233] yes=13,no=14,missing=14,gain=2.71303177,cover=85.7911606
			13:[f12<0.00187015766] yes=27,no=28,missing=28,gain=1.7911495,cover=49.7450485
				27:[f50<0.0444439985] yes=49,no=50,missing=50,gain=0.864922523,cover=28.9533443
					49:[f104<0.962598979] yes=71,no=72,missing=72,gain=1.1512723,cover=25.4072952
						71:leaf=-0.00963054504,cover=3.76655459
						72:leaf=0.0182693042,cover=21.6407413
					50:[f10<0.0191489365] yes=73,no=74,missing=74,gain=0.288487434,cover=3.54604959
						73:leaf=0.00588052673,cover=1.30506742
						74:leaf=-0.018610213,cover=2.24098206
				28:[f47<0.272727013] yes=51,no=52,missing=52,gain=1.26950634,cover=20.7917023
					51:[f115<0.754447639] yes=75,no=76,missing=76,gain=1.40633726,cover=11.7429686
						75:leaf=0.026107097,cover=3.35389662
						76:leaf=-0.0083082905,cover=8.38907242
					52:[f30<0.0448430479] yes=77,no=78,missing=78,gain=0.877300739,cover=9.04873371
						77:leaf=-0.0277592596,cover=7.46752596
						78:leaf=0.00850996654,cover=1.58120811
			14:[f120<0.852037072] yes=29,no=30,missing=30,gain=2.35488701,cover=36.0461082
				29:[f104<0.926038027] yes=53,no=54,missing=54,gain=1.6380167,cover=23.6096478
					53:[f55<0.0398939997] yes=79,no=80,missing=80,gain=2.03824615,cover=7.02668095
						79:leaf=-0.0157606918,cover=3.70795846
						80:leaf=0.0320677161,cover=3.31872249
					54:[f90<0.0216606911] yes=81,no=82,missing=82,gain=0.792076111,cover=16.5829678
						81:leaf=0.0410634838,cover=15.2020264
						82:leaf=0.000928264693,cover=1.38094056
				30:[f105<0.49159047] yes=55,no=56,missing=56,gain=2.96670556,cover=12.4364624
					55:[f130<0.894955277] yes=83,no=84,missing=84,gain=0.604791164,cover=4.47813797
						83:leaf=-0.0335758589,cover=3.65860057
						84:leaf=0.00649638986,cover=0.819537222
					56:[f75<0.0833333284] yes=85,no=86,missing=86,gain=2.41229582,cover=7.95832443
						85:leaf=0.0359399393,cover=5.70948458
						86:leaf=-0.0181442313,cover=2.24883986
booster[2]:
0:[f107<0.553248763] yes=1,no=2,missing=2,gain=4.12760448,cover=122.649162
	1:[f60<0.0239809994] yes=3,no=4,missing=4,gain=2.07991886,cover=85.4906921
		3:[f127<0.000292528071] yes=7,no=8,missing=8,gain=1.90943313,cover=55.1375847
			7:[f73<0.233728886] yes=15,no=16,missing=16,gain=1.62878084,cover=48.2190132
				15:[f20<0.438438445] yes=29,no=30,missing=30,gain=1.18328619,cover=44.0898438
					29:[f30<0.0627802685] yes=49,no=50,missing=50,gain=1.82004786,cover=41.6600189
						49:leaf=-0.0136034954,cover=32.0740471
						50:leaf=-0.038433861,cover=9.58596992
					30:[f125<0.25] yes=51,no=52,missing=52,gain=0.429353058,cover=2.42982316
						51:leaf=-0.0144230872,cover=0.425411761
						52:leaf=0.0205998421,cover=2.00441122
				16:[f45<0.0370370001] yes=31,no=32,missing=32,gain=0.952622592,cover=4.12917328
					31:[f10<0.0898936167] yes=53,no=54,missing=54,gain=0.0206434727,cover=2.38958621
						53:leaf=0.031098485,cover=1.8927958
						54:leaf=0.00474849623,cover=0.49679032
					32:[f48<0.346153855] yes=55,no=56,missing=56,gain=0.338353246,cover=1.73958707
						55:leaf=0.00891894475,cover=0.670105517
						56:leaf=-0.0231884029,cover=1.06948149
			8:[f126<0.150000006] yes=17,no=18,missing=18,gain=0.913103819,cover=6.91857147
				17:[f12<0.00106866146] yes=33,no=34,missing=34,gain=0.0422978699,cover=1.08882868
					33:leaf=-0.00014105071,cover=0.263586909
					34:leaf=-0.0221126918,cover=0.825241804
				18:[f100<0.74408102] yes=35,no=36,missing=36,gain=0.688978076,cover=5.82974243
					35:[f129<0.0313823186] yes=57,no=58,missing=58,gain=0.28713432,cover=2.55629826
						57:leaf=0.0143037662,cover=0.880663693
						58:leaf=-0.0112012466,cover=1.6756345
					36:leaf=0.0316245519,cover=3.27344441
		4:[f72<0.0173292328] yes=9,no=10,missing=10,gain=1.13445187,cover=30.3531094
			9:[f127<6.31225817e-07] yes=19,no=20,missing=20,gain=1.2914443,cover=23.6701469
				19:[f132<0.0281124506] yes=37,no=38,missing=38,gain=0.832906783,cover=9.9773283
					37:[f59<0.115522668] yes=59,no=60,missing=60,gain=0.904759586,cover=5.89572525
						59:leaf=0.0166205894,cover=2.82186913
						60:leaf=-0.0172538906,cover=3.07385635
					38:[f12<0.00374031533] yes=61,no=62,missing=62,gain=0.137543321,cover=4.08160305
						61:leaf=-0.0303358287,cover=3.93498445
						62:leaf=0.00302952458,cover=0.146618739
				20:[f100<0.842700005] yes=39,no=40,missing=40,gain=1.30793548,cover=13.6928177
					39:[f127<5.04980653e-06] yes=63,no=64,missing=64,gain=0.785665035,cover=4.39495277
						63:leaf=0.00573610049,cover=2.61313844
						64:leaf=-0.0306885522,cover=1.78181446
					40:[f79<0.265306115] yes=65,no=66,missing=66,gain=0.96282196,cover=9.29786491
						65:leaf=0.0247216877,cover=8.09717655
						66:leaf=-0.014508239,cover=1.200688
			10:[f107<0.503624618] yes=21,no=22,missing=22,gain=0.64482975,cover=6.68296289
				21:[f47<0.230768993] yes=41,no=42,missing=42,gain=0.388938785,cover=5.35766888
					41:[f0<0.571428597] yes=67,no=68,missing=68,gain=0.0206870213,cover=0.675876558
						67:leaf=0.00203407416,cover=0.48976779
						68:leaf=-0.00743283285,cover=0.186108798
					42:[f127<9.01751136e-08] yes=69,no=70,missing=70,gain=0.0143735409,cover=4.68179274
						69:leaf=0.00888506044,cover=0.91542393
						70:leaf=0.0347740874,cover=3.76636863
				22:[f1<1] yes=43,no=44,missing=44,gain=0.0103834085,cover=1.32529378
					43:[f84<0.0633757561] yes=71,no=72,missing=72,gain=0.000126373023,cover=0.970421076
						71:leaf=-0.000965392392,cover=0.290139318
						72:leaf=-0.00853852089,cover=0.680281758
					44:leaf=0.00038758025,cover=0.354872704
	2:[f64<0.067002669] yes=5,no=6,missing=6,gain=2.27532601,cover=37.1584625
		5:[f10<0.0453900695] yes=11,no=12,missing=12,gain=1.4351238,cover=23.2218323
			11:[f29<0.0408163257] yes=23,no=24,missing=24,gain=0.157273829,cover=3.40880895
				23:leaf=0.000125970328,cover=0.650668144
				24:leaf=-0.0263069756,cover=2.7581408
			12:[f14<0.0455195718] yes=25,no=26,missing=26,gain=1.03902245,cover=19.8130245
				25:leaf=0.03120468,cover=3.24408102
				26:[f126<0.421428561] yes=45,no=46,missing=46,gain=0.86245209,cover=16.568943
					45:[f75<0.0151545964] yes=73,no=74,missing=74,gain=0.47327438,cover=12.7822371
						73:leaf=-0.0103264404,cover=7.96682167
						74:leaf=0.0080668265,cover=4.81541538
					46:[f130<0.142811358] yes=75,no=76,missing=76,gain=0.259271145,cover=3.78670645
						75:leaf=-0.00823280029,cover=0.208775878
						76:leaf=0.0245251637,cover=3.57793045
		6:[f124<0.96755749] yes=13,no=14,missing=14,gain=0.461616039,cover=13.9366302
			13:[f109<0.330464244] yes=27,no=28,missing=28,gain=0.353300571,cover=13.6300611
				27:leaf=-0.00820482802,cover=0.200466052
				28:[f87<0.0125950305] yes=47,no=48,missing=48,gain=0.179048538,cover=13.429595
					47:[f1<0.333333343] yes=77,no=78,missing=78,gain=0.00467904843,cover=0.673904717
						77:leaf=-0.000814130995,cover=0.379707396
						78:leaf=0.00397351524,cover=0.294197291
					48:[f13<1] yes=79,no=80,missing=80,gain=0.0393996239,cover=12.7556906
						79:leaf=0.0331366025,cover=12.5473318
						80:leaf=0.00164585595,cover=0.208358616
			14:leaf=-0.00978581514,cover=0.306569278
booster[3]:
0:[f47<0.307691991] yes=1,no=2,missing=2,gain=3.43529248,cover=120.064842
	1:[f105<0.363442242] yes=3,no=4,missing=4,gain=2.70955396,cover=68.7936859
		3:[f12<0.00293881912] yes=7,no=8,missing=8,gain=2.42851543,cover=23.3499527
			7:[f127<0.000158076975] yes=15,no=16,missing=16,gain=1.15837383,cover=17.0369701
				15:[f128<0.272727281] yes=31,no=32,missing=32,gain=0.500675678,cover=14.1753454
					31:[f55<0.26087001] yes=63,no=64,missing=64,gain=0.510713577,cover=13.8855801
						63:leaf=-0.0392040387,cover=13.0898304
						64:leaf=0.000884620124,cover=0.795749545
					32:leaf=0.00833673775,cover=0.289764911
				16:[f129<0.0966233015] yes=33,no=34,missing=34,gain=0.481416374,cover=2.86162472
					33:[f107<0.31862554] yes=65,no=66,missing=66,gain=0.29822284,cover=2.04478574
						65:leaf=0.0188898724,cover=1.7133292
						66:leaf=-0.0119100623,cover=0.331456542
					34:leaf=-0.0209019836,cover=0.81683892
			8:[f117<0.601005554] yes=17,no=18,missing=18,gain=1.72954845,cover=6.31298208
				17:[f14<0.00676290784] yes=35,no=36,missing=36,gain=0.413339734,cover=2.323596
					35:leaf=0.00811526179,cover=0.427885115
					36:leaf=-0.0308962371,cover=1.89571083
				18:[f130<0.104022339] yes=37,no=38,missing=38,gain=0.293100476,cover=3.98938632
					37:[f115<0.958839715] yes=67,no=68,missing=68,gain=0.0207902864,cover=0.400970817
						67:leaf=-0.00893074833,cover=0.231012866
						68:leaf=0.00213407562,cover=0.169957951
					38:[f10<0.0898936167] yes=69,no=70,missing=70,gain=0.115525603,cover=3.58841538
						69:leaf=0.0296861883,cover=3.16138387
						70:leaf=0.000689210196,cover=0.427031606
		4:[f11<0.042105265] yes=9,no=10,missing=10,gain=1.72974777,cover=45.4437294
			9:[f104<0.786606014] yes=19,no=20,missing=20,gain=1.31386936,cover=40.1453896
				19:[f130<0.490142524] yes=39,no=40,missing=40,gain=1.27643251,cover=5.6967597
					39:leaf=-0.0349668078,cover=2.98428869
					40:[f118<0.0575858653] yes=71,no=72,missing=72,gain=0.320542574,cover=2.71247077
						71:leaf=-0.0143275363,cover=0.447996378
						72:leaf=0.0146706244,cover=2.26447439
				20:[f132<0.184738949] yes=41,no=42,missing=42,gain=1.87781715,cover=34.4486275
					41:[f129<0.00663415808] yes=73,no=74,missing=74,gain=1.2839005,cover=28.6662617
						73:leaf=-0.013070479,cover=8.92436028
						74:leaf=0.00880708825,cover=19.7418995
					42:[f15<0.300624907] yes=75,no=76,missing=76,gain=0.579092026,cover=5.78236818
						75:leaf=0.00024857081,cover=1.25467145
						76:leaf=0.0380749367,cover=4.52769709
			10:[f86<0.0660922751] yes=21,no=22,missing=22,gain=0.777835965,cover=5.29834223
				21:[f57<0.222222] yes=43,no=44,missing=44,gain=0.17560029,cover=3.74227285
					43:leaf=-0.0370183326,cover=3.45722508
					44:leaf=0.000796990294,cover=0.28504765
				22:[f67<0.00999599975] yes=45,no=46,missing=46,gain=0.125204429,cover=1.55606961
					45:leaf=-0.00957077835,cover=0.325545192
					46:leaf=0.0101698963,cover=1.2305243
	2:[f80<0.0358744413] yes=5,no=6,missing=6,gain=1.08769321,cover=51.2711601
		5:[f109<0.41199559] yes=11,no=12,missing=12,gain=1.52318716,cover=27.0959377
			11:[f118<0.571335733] yes=23,no=24,missing=24,gain=0.910209894,cover=20.0736961
				23:[f48<0.160715416] yes=47,no=48,missing=48,gain=0.701663852,cover=18.3955002
					47:[f65<0.00142146414] yes=77,no=78,missing=78,gain=0.650915504,cover=14.8065748
						77:leaf=0.0107028261,cover=13.5116882
						78:leaf=-0.0183755159,cover=1.29488623
					48:leaf=0.0303648617,cover=3.58892632
				24:[f11<0.0105263162] yes=49,no=50,missing=50,gain=0.323009431,cover=1.67819536
					49:leaf=-0.0258381702,cover=1.42113209
					50:leaf=0.00997809228,cover=0.25706324
			12:[f130<0.484923869] yes=25,no=26,missing=26,gain=0.785696745,cover=7.02224064
				25:[f130<0.279152811] yes=51,no=52,missing=52,gain=0.830873549,cover=3.69798923
					51:leaf=-0.0243602898,cover=1.10469878
					52:[f20<0.0540540554] yes=79,no=80,missing=80,gain=0.136882573,cover=2.59329057
						79:leaf=0.0195760373,cover=2.02532196
						80:leaf=-0.00292870007,cover=0.567968607
				26:[f25<0.125] yes=53,no=54,missing=54,gain=0.413020968,cover=3.32425165
					53:leaf=-0.0360636003,cover=2.85677361
					54:leaf=0.00494267885,cover=0.467478037
		6:[f64<0.0461093336] yes=13,no=14,missing=14,gain=1.1471796,cover=24.1752243
			13:[f110<0.440781504] yes=27,no=28,missing=28,gain=0.963074446,cover=3.88684702
				27:[f11<0.0105263162] yes=55,no=56,missing=56,gain=0.120481342,cover=1.64408731
					55:leaf=-0.00529609947,cover=0.125873655
					56:leaf=0.0204911921,cover=1.51821363
				28:[f12<0.00374031533] yes=57,no=58,missing=58,gain=0.296067238,cover=2.2427597
					57:leaf=-0.0298848506,cover=1.82066
					58:leaf=0.0052754553,cover=0.42209962
			14:[f100<0.749170005] yes=29,no=30,missing=30,gain=0.558197021,cover=20.2883778
				29:[f7<0.714286029] yes=59,no=60,missing=60,gain=0.0308697522,cover=0.742443204
					59:leaf=-0.013642869,cover=0.432993114
					60:leaf=0.00100322324,cover=0.30945009
				30:[f52<0.5] yes=61,no=62,missing=62,gain=0.597304344,cover=19.5459347
					61:[f12<0.00400748057] yes=81,no=82,missing=82,gain=0.323213577,cover=18.5703735
						81:leaf=0.0270181149,cover=17.466917
						82:leaf=-0.000443639903,cover=1.10345602
					62:[f10<0.0670212731] yes=83,no=84,missing=84,gain=0.0919241756,cover=0.975560427
						83:leaf=-0.013031316,cover=0.815400481
						84:leaf=0.00661684945,cover=0.160159945
booster[4]:
0:[f25<0.0625] yes=1,no=2,missing=2,gain=2.95920467,cover=117.971016
	1:[f128<0.00826446246] yes=3,no=4,missing=4,gain=1.92078602,cover=59.7713661
		3:[f108<0.604697406] yes=7,no=8,missing=8,gain=2.59158111,cover=26.0191689
			7:[f47<0.294117987] yes=15,no=16,missing=16,gain=1.53347635,cover=21.9385586
				15:[f127<7.11481625e-05] yes=31,no=32,missing=32,gain=0.896913052,cover=14.649148
					31:[f20<0.480480492] yes=57,no=58,missing=58,gain=0.430608273,cover=13.2678366
						57:leaf=-0.0389476269,cover=12.5626469
						58:leaf=0.000470029277,cover=0.705189884
					32:[f129<0.0313823186] yes=59,no=60,missing=60,gain=0.15849717,cover=1.38131094
						59:leaf=0.0121865198,cover=0.8412624
						60:leaf=-0.00973822549,cover=0.54004854
				16:[f47<0.428570986] yes=33,no=34,missing=34,gain=0.655428767,cover=7.28941107
					33:[f126<0.264285713] yes=61,no=62,missing=62,gain=0.430142432,cover=4.97803736
						61:leaf=-0.0105758188,cover=1.77321887
						62:leaf=0.0151212486,cover=3.20481873
					34:[f107<0.763854384] yes=63,no=64,missing=64,gain=0.117275715,cover=2.31137371
						63:leaf=-0.0264078528,cover=1.75334346
						64:leaf=-0.00044651638,cover=0.558030367
			8:[f62<0.0649349988] yes=17,no=18,missing=18,gain=0.822313726,cover=4.08060884
				17:[f2<0.600000024] yes=35,no=36,missing=36,gain=0.0456234217,cover=3.43516612
					35:leaf=0.0264502559,cover=3.16673064
					36:leaf=0.00100396329,cover=0.268435419
				18:leaf=-0.0183505397,cover=0.645442724
		4:[f12<0.00187015766] yes=9,no=10,missing=10,gain=1.87531614,cover=33.7521973
			9:[f10<0.121099293] yes=19,no=20,missing=20,gain=1.49330413,cover=15.1659126
				19:[f44<0.000275953236] yes=37,no=38,missing=38,gain=0.803718805,cover=11.7902508
					37:[f39<0.0104529588] yes=65,no=66,missing=66,gain=0.341607571,cover=8.27480125
						65:leaf=-0.00803336781,cover=0.224841028
						66:leaf=0.0303666722,cover=8.04996014
					38:[f70<0.132255003] yes=67,no=68,missing=68,gain=0.7314834,cover=3.51545
						67:leaf=-0.0198377408,cover=1.47911632
						68:leaf=0.016768394,cover=2.03633356
				20:[f126<0.321428567] yes=39,no=40,missing=40,gain=0.496810436,cover=3.37566137
					39:leaf=-0.0281770732,cover=1.53576601
					40:[f3<0.25] yes=69,no=70,missing=70,gain=0.0179526191,cover=1.83989537
						69:leaf=0.00591627648,cover=1.45752335
						70:leaf=-0.0021260113,cover=0.382371962
			10:[f12<0.00293881912] yes=21,no=22,missing=22,gain=1.63172317,cover=18.5862846
				21:[f127<3.38156678e-05] yes=41,no=42,missing=42,gain=0.817728519,cover=10.9377298
					41:[f128<0.272727281] yes=71,no=72,missing=72,gain=0.638812542,cover=8.10220909
						71:leaf=-0.0337749906,cover=7.13908672
						72:leaf=0.0048745973,cover=0.963122547
					42:[f104<0.775137007] yes=73,no=74,missing=74,gain=0.21330367,cover=2.83552003
						73:leaf=-0.00861003157,cover=1.64749837
						74:leaf=0.0125105968,cover=1.18802166
				22:[f57<0.0740740001] yes=43,no=44,missing=44,gain=0.828030765,cover=7.64855576
					43:leaf=-0.0228858534,cover=0.974816203
					44:[f115<0.40265885] yes=75,no=76,missing=76,gain=0.62606281,cover=6.67373943
						75:leaf=-0.0114397276,cover=1.28330469
						76:leaf=0.0206634309,cover=5.39043474
	2:[f47<0.133332998] yes=5,no=6,missing=6,gain=1.62370503,cover=58.1996498
		5:[f131<0.043103449] yes=11,no=12,missing=12,gain=1.55718648,cover=8.96402168
			11:[f12<0.000267165364] yes=23,no=24,missing=24,gain=0.605230808,cover=5.30535889
				23:leaf=0.00861066952,cover=0.66739738
				24:[f10<0.0356382988] yes=45,no=46,missing=46,gain=0.11361146,cover=4.63796139
					45:[f126<0.107142858] yes=77,no=78,missing=78,gain=0.0335008353,cover=0.324878335
						77:leaf=0.00576768629,cover=0.128859058
						78:leaf=-0.00626373617,cover=0.196019262
					46:[f46<0.375] yes=79,no=80,missing=80,gain=0.108632803,cover=4.31308317
						79:leaf=-0.035508208,cover=3.9693222
						80:leaf=-0.00152524642,cover=0.343761086
			12:[f12<0.0016029923] yes=25,no=26,missing=26,gain=0.491889328,cover=3.65866303
				25:leaf=-0.0154252546,cover=0.510124385
				26:[f130<0.0169072542] yes=47,no=48,missing=48,gain=0.451510489,cover=3.14853859
					47:leaf=-0.0100412853,cover=0.519733071
					48:[f80<0.0670187026] yes=81,no=82,missing=82,gain=0.351748109,cover=2.62880564
						81:leaf=0.0314858072,cover=2.39095473
						82:leaf=-0.00827996712,cover=0.237850785
		6:[f105<0.49159047] yes=13,no=14,missing=14,gain=1.17791605,cover=49.23563
			13:[f85<0.209717855] yes=27,no=28,missing=28,gain=1.01635671,cover=38.3224754
				27:[f55<0.0249109995] yes=49,no=50,missing=50,gain=0.677050233,cover=34.7510414
					49:[f109<0.392059535] yes=83,no=84,missing=84,gain=1.07375634,cover=14.5996895
						83:leaf=0.0101601165,cover=10.1389227
						84:leaf=-0.016914336,cover=4.46076679
					50:[f45<0.0943949968] yes=85,no=86,missing=86,gain=1.18588614,cover=20.1513538
						85:leaf=0.0213137027,cover=16.0351238
						86:leaf=-0.00716963131,cover=4.11622906
				28:[f74<0.255288482] yes=51,no=52,missing=52,gain=0.323165148,cover=3.57143092
					51:leaf=-0.0254193675,cover=1.95440066
					52:[f3<0.25] yes=87,no=88,missing=88,gain=0.054328315,cover=1.61703014
						87:leaf=0.00633275975,cover=1.1006521
						88:leaf=-0.00616150303,cover=0.516378164
			14:[f129<0.000305721565] yes=29,no=30,missing=30,gain=0.6375916,cover=10.9131556
				29:[f2<0.400000006] yes=53,no=54,missing=54,gain=0.0914048553,cover=1.05404818
					53:leaf=0.00423369557,cover=0.621547103
					54:leaf=-0.0141549408,cover=0.432501137
				30:[f102<0.432581007] yes=55,no=56,missing=56,gain=0.482133389,cover=9.85910702
					55:leaf=-0.0105132721,cover=0.28082037
					56:[f82<0.00572914165] yes=89,no=90,missing=90,gain=0.296898365,cover=9.57828712
						89:leaf=-0.00689502899,cover=0.172138229
						90:leaf=0.0323904864,cover=9.40614796
booster[5]:
0:[f107<0.541820884] yes=1,no=2,missing=2,gain=3.36497879,cover=116.107864
	1:[f12<0.00293881912] yes=3,no=4,missing=4,gain=1.66815758,cover=79.8984222
		3:[f45<0.0174599998] yes=7,no=8,missing=8,gain=1.58278894,cover=58.5775528
			7:[f13<0.409090906] yes=15,no=16,missing=16,gain=0.456868887,cover=8.80679321
				15:[f127<0.000292528071] yes=31,no=32,missing=32,gain=0.48871541,cover=7.86427069
					31:[f110<0.951700985] yes=57,no=58,missing=58,gain=0.108286858,cover=6.51139402
						57:leaf=-0.0378045291,cover=6.39521122
						58:leaf=0.00127215614,cover=0.116182745
					32:[f110<0.672994375] yes=59,no=60,missing=60,gain=0.115307741,cover=1.35287702
						59:leaf=-0.0113492077,cover=0.624086618
						60:leaf=0.00733871991,cover=0.728790343
				16:[f15<0.417960286] yes=33,no=34,missing=34,gain=0.12928158,cover=0.942522585
					33:leaf=-0.0103326999,cover=0.298269004
					34:leaf=0.0108894138,cover=0.644253612
			8:[f12<0.00187015766] yes=17,no=18,missing=18,gain=1.77008247,cover=49.7707596
				17:[f129<0.00244577252] yes=35,no=36,missing=36,gain=1.83248591,cover=27.3485622
					35:[f12<0.000267165364] yes=61,no=62,missing=62,gain=0.696565986,cover=4.61075449
						61:leaf=0.00938978326,cover=0.849402666
						62:leaf=-0.0313458443,cover=3.76135159
					36:[f12<0.00080149615] yes=63,no=64,missing=64,gain=0.763100743,cover=22.7378082
						63:leaf=-0.0200845059,cover=1.27978301
						64:leaf=0.0107956231,cover=21.458025
				18:[f108<0.604697406] yes=37,no=38,missing=38,gain=1.17566466,cover=22.4221954
					37:[f91<0.0431441665] yes=65,no=66,missing=66,gain=0.890006781,cover=20.2775669
						65:leaf=-0.0241685398,cover=17.3967247
						66:leaf=0.00437385496,cover=2.88084269
					38:[f35<0.0923423395] yes=67,no=68,missing=68,gain=0.283675134,cover=2.14462948
						67:leaf=-0.0106208799,cover=0.300911397
						68:leaf=0.0204033758,cover=1.84371805
		4:[f57<0.0769229978] yes=9,no=10,missing=10,gain=1.4813143,cover=21.3208675
			9:[f39<0.0104529588] yes=19,no=20,missing=20,gain=0.690791845,cover=4.50739717
				19:[f14<0.00780335534] yes=39,no=40,missing=40,gain=0.057429783,cover=1.43717909
					39:leaf=0.0130387666,cover=0.75599581
					40:[f15<0.200118184] yes=69,no=70,missing=70,gain=0.0344249718,cover=0.681183338
						69:leaf=0.00402558176,cover=0.475691795
						70:leaf=-0.00750426576,cover=0.205491528
				20:[f50<0.0372340009] yes=41,no=42,missing=42,gain=0.114244699,cover=3.07021809
					41:leaf=-0.0300613325,cover=2.80535841
					42:leaf=0.000860665168,cover=0.264859647
			10:[f10<0.0898936167] yes=21,no=22,missing=22,gain=1.03581715,cover=16.8134689
				21:[f117<0.0810597092] yes=43,no=44,missing=44,gain=0.695640802,cover=10.0942049
					43:leaf=-0.0152325556,cover=0.51184541
					44:[f129<0.483238816] yes=71,no=72,missing=72,gain=0.504356146,cover=9.58235931
						71:leaf=0.0278368928,cover=9.25034142
						72:leaf=-0.0118195796,cover=0.332017899
				22:[f10<0.316666663] yes=45,no=46,missing=46,gain=0.241396368,cover=6.71926451
					45:[f13<0.409090906] yes=73,no=74,missing=74,gain=0.198471799,cover=6.0051775
						73:leaf=0.00657108892,cover=4.87162161
						74:leaf=-0.0113020819,cover=1.13355637
					46:leaf=-0.0189518128,cover=0.714086831
	2:[f50<0.00303000002] yes=5,no=6,missing=6,gain=1.32090068,cover=36.209446
		5:[f11<0.0210526325] yes=11,no=12,missing=12,gain=0.590589285,cover=7.06063938
			11:[f58<0.636363626] yes=23,no=24,missing=24,gain=0.219106495,cover=2.83659983
				23:[f13<0.5] yes=47,no=48,missing=48,gain=0.094201088,cover=2.1659739
					47:leaf=-0.0292834789,cover=1.81021571
					48:leaf=-0.000503458257,cover=0.355758071
				24:leaf=0.00225361693,cover=0.670625925
			12:[f118<0.0496813729] yes=25,no=26,missing=26,gain=0.442911476,cover=4.22403955
				25:leaf=0.0212535094,cover=1.46778846
				26:[f10<0.153723404] yes=49,no=50,missing=50,gain=0.132915244,cover=2.7562511
					49:leaf=-0.0160972197,cover=0.821264625
					50:[f129<0.00151332177] yes=75,no=76,missing=76,gain=0.00714161526,cover=1.93498647
						75:leaf=0.00391299417,cover=0.791614413
						76:leaf=-0.000674302864,cover=1.14337206
		6:[f105<0.45718503] yes=13,no=14,missing=14,gain=0.687646866,cover=29.1488094
			13:[f125<0.5] yes=27,no=28,missing=28,gain=0.491334975,cover=18.331068
				27:[f80<0.0118347667] yes=51,no=52,missing=52,gain=0.45307827,cover=17.5500546
					51:[f69<5.37778978e-05] yes=77,no=78,missing=78,gain=0.269829601,cover=2.52665353
						77:leaf=-0.0171442963,cover=1.20148015
						78:leaf=0.00772006018,cover=1.32517338
					52:[f39<0.0530487821] yes=79,no=80,missing=80,gain=0.482006431,cover=15.0234003
						79:leaf=0.0218255911,cover=9.3613987
						80:leaf=0.00306051597,cover=5.66200161
				28:leaf=-0.0163607467,cover=0.781013668
			14:[f130<0.00230414746] yes=29,no=30,missing=30,gain=0.311280251,cover=10.8177414
				29:[f10<0.0102836881] yes=53,no=54,missing=54,gain=0.00426209345,cover=1.72036922
					53:leaf=0.000896753103,cover=1.11178207
					54:leaf=0.00600815145,cover=0.608587146
				30:[f50<0.0283020008] yes=55,no=56,missing=56,gain=0.092184782,cover=9.09737206
					55:[f128<0.00826446246] yes=81,no=82,missing=82,gain=0.121353626,cover=7.49275923
						81:leaf=0.00781588722,cover=1.11886203
						82:leaf=0.0355711691,cover=6.37389708
					56:[f29<0.224489793] yes=83,no=84,missing=84,gain=0.00926834345,cover=1.60461235
						83:leaf=0.00118126941,cover=0.530007362
						84:leaf=0.0114367986,cover=1.07460499
booster[6]:
0:[f107<0.541820884] yes=1,no=2,missing=2,gain=3.0699954,cover=115.16275
	1:[f60<0.0039619999] yes=3,no=4,missing=4,gain=1.57649481,cover=79.7546005
		3:[f127<0.000158076975] yes=7,no=8,missing=8,gain=0.653185368,cover=7.31902075
			7:[f12<0.00400748057] yes=15,no=16,missing=16,gain=0.13038373,cover=5.42848158
				15:leaf=-0.0358774178,cover=4.90452862
				16:[f0<0.142857149] yes=29,no=30,missing=30,gain=0.0468046144,cover=0.523953199
					29:leaf=0.00510985078,cover=0.267375827
					30:leaf=-0.00882646162,cover=0.256577373
			8:[f129<0.0313823186] yes=17,no=18,missing=18,gain=0.242543608,cover=1.89053941
				17:[f0<0.142857149] yes=31,no=32,missing=32,gain=0.00547402352,cover=0.88356328
					31:leaf=0.0139066651,cover=0.65477103
					32:leaf=0.000849136268,cover=0.228792235
				18:[f45<0.00639000023] yes=33,no=34,missing=34,gain=0.105110832,cover=1.00697613
					33:leaf=-0.0179998241,cover=0.665568888
					34:leaf=0.00408152351,cover=0.341407239
		4:[f60<0.00483100023] yes=9,no=10,missing=10,gain=1.48063934,cover=72.4355774
			9:[f12<0.0016029923] yes=19,no=20,missing=20,gain=0.186627984,cover=3.53076267
				19:leaf=-0.00562046422,cover=0.145079985
				20:[f42<2.29961024e-05] yes=35,no=36,missing=36,gain=0.032075882,cover=3.38568282
					35:leaf=0.0282339789,cover=3.11707807
					36:leaf=0.0018420713,cover=0.268604577
			10:[f123<0.732524753] yes=21,no=22,missing=22,gain=1.23055696,cover=68.9048157
				21:[f127<3.56191704e-05] yes=37,no=38,missing=38,gain=1.62847269,cover=47.7140656
					37:[f112<0.835231006] yes=51,no=52,missing=52,gain=1.33212399,cover=40.1268539
						51:leaf=-0.0163922217,cover=35.6086082
						52:leaf=0.0106220338,cover=4.5182457
					38:[f110<0.741445661] yes=53,no=54,missing=54,gain=0.747365475,cover=7.58721256
						53:leaf=0.018076092,cover=6.22527361
						54:leaf=-0.015250924,cover=1.36193895
				22:[f53<0.388888896] yes=39,no=40,missing=40,gain=1.29577816,cover=21.1907463
					39:[f115<0.974581122] yes=55,no=56,missing=56,gain=1.00179839,cover=18.1326427
						55:leaf=0.0166972652,cover=13.7388515
						56:leaf=-0.00899173785,cover=4.39379072
					40:[f127<0.000414805516] yes=57,no=58,missing=58,gain=0.312511802,cover=3.05810428
						57:leaf=-0.0253189653,cover=2.81158185
						58:leaf=0.00938993879,cover=0.246522263
	2:[f64<0.0664586648] yes=5,no=6,missing=6,gain=1.45363927,cover=35.4081535
		5:[f55<0.0198020004] yes=11,no=12,missing=12,gain=0.99718982,cover=20.9458179
			11:[f54<0.0165226664] yes=23,no=24,missing=24,gain=1.00430918,cover=15.5653324
				23:[f13<0.272727281] yes=41,no=42,missing=42,gain=0.564206302,cover=6.887146
					41:[f128<0.0743801668] yes=59,no=60,missing=60,gain=0.180609912,cover=5.19551659
						59:leaf=-0.017161347,cover=3.66368198
						60:leaf=0.00164882874,cover=1.53183484
					42:[f11<0.0105263162] yes=61,no=62,missing=62,gain=0.284431636,cover=1.69162941
						61:leaf=-0.0068962127,cover=0.559514642
						62:leaf=0.0244073104,cover=1.13211477
				24:[f75<0.00620852225] yes=43,no=44,missing=44,gain=0.614465356,cover=8.67818642
					43:[f59<0.0337200016] yes=63,no=64,missing=64,gain=0.0372685194,cover=1.43429887
						63:leaf=0.00307574798,cover=0.309685528
						64:leaf=-0.00918995775,cover=1.1246134
					44:[f126<0.157142863] yes=65,no=66,missing=66,gain=0.384213924,cover=7.2438879
						65:leaf=-0.00207386236,cover=0.972710371
						66:leaf=0.0294058621,cover=6.27117729
			12:[f129<0.164019629] yes=25,no=26,missing=26,gain=0.64284718,cover=5.38048553
				25:[f47<0.454544991] yes=45,no=46,missing=46,gain=0.222282171,cover=3.54668331
					45:leaf=0.00528463535,cover=0.270619601
					46:[f1<0.666666687] yes=67,no=68,missing=68,gain=0.0602138042,cover=3.27606368
						67:leaf=-0.0285738539,cover=3.04048419
						68:leaf=-0.000470716826,cover=0.23557955
				26:[f40<0.000429260574] yes=47,no=48,missing=48,gain=0.234024495,cover=1.83380246
					47:leaf=-0.00703167496,cover=0.921429813
					48:leaf=0.0186040979,cover=0.912372589
		6:[f109<0.330464244] yes=13,no=14,missing=14,gain=0.437134981,cover=14.4623346
			13:leaf=-0.0115069766,cover=0.30818063
			14:[f124<0.96755749] yes=27,no=28,missing=28,gain=0.445804119,cover=14.1541548
				27:[f68<0.119999997] yes=49,no=50,missing=50,gain=0.22163105,cover=13.8086891
					49:[f13<0.636363626] yes=69,no=70,missing=70,gain=0.167620182,cover=12.9238224
						69:leaf=0.0296285246,cover=12.1355419
						70:leaf=0.0024304681,cover=0.788280129
					50:[f25<0.125] yes=71,no=72,missing=72,gain=0.0344371982,cover=0.884866714
						71:leaf=-0.00508969463,cover=0.357050836
						72:leaf=0.00590759236,cover=0.527815819
				28:leaf=-0.0105070202,cover=0.345465481
booster[7]:
0:[f107<0.469099581] yes=1,no=2,missing=2,gain=2.89237452,cover=114.345329
	1:[f10<0.121808514] yes=3,no=4,missing=4,gain=1.746732,cover=64.8648682
		3:[f34<0.0127551025] yes=7,no=8,missing=8,gain=1.45055914,cover=46.2018776
			7:[f131<0.0172413792] yes=15,no=16,missing=16,gain=0.870708704,cover=11.982892
				15:[f110<0.241107956] yes=31,no=32,missing=32,gain=0.417891502,cover=5.09002399
					31:leaf=0.00530740386,cover=0.49947542
					32:[f48<0.5] yes=59,no=60,missing=60,gain=0.118241787,cover=4.59054852
						59:leaf=-0.0353335477,cover=4.32070541
						60:leaf=-0.00029398824,cover=0.269843012
				16:[f128<0.00826446246] yes=33,no=34,missing=34,gain=1.17244589,cover=6.89286804
					33:[f127<0.00145921367] yes=61,no=62,missing=62,gain=0.267519116,cover=3.6752727
						61:leaf=-0.0242740642,cover=3.23521161
						62:leaf=0.00623887964,cover=0.440061092
					34:[f39<0.0146341464] yes=63,no=64,missing=64,gain=0.365931273,cover=3.21759534
						63:leaf=-0.0114018759,cover=0.374663323
						64:leaf=0.0220173579,cover=2.84293199
			8:[f45<0.0321290009] yes=17,no=18,missing=18,gain=1.69499266,cover=34.2189865
				17:[f44<0.000175208406] yes=35,no=36,missing=36,gain=1.30632555,cover=7.91250849
					35:[f6<0.428570986] yes=65,no=66,missing=66,gain=0.446680069,cover=7.07279491
						65:leaf=0.0321215391,cover=6.81350994
						66:leaf=-0.00968211796,cover=0.259285271
					36:leaf=-0.0202841088,cover=0.839713275
				18:[f85<0.0606541596] yes=37,no=38,missing=38,gain=1.52869463,cover=26.3064785
					37:[f116<0.59125334] yes=67,no=68,missing=68,gain=0.711587667,cover=5.9206357
						67:leaf=-0.0314460546,cover=4.4134078
						68:leaf=0.00468630623,cover=1.5072279
					38:[f115<0.974581122] yes=69,no=70,missing=70,gain=0.897957146,cover=20.3858433
						69:leaf=0.00840752013,cover=17.7372532
						70:leaf=-0.0188045092,cover=2.64859009
		4:[f20<0.438438445] yes=9,no=10,missing=10,gain=2.31582713,cover=18.6629925
			9:[f31<0.285714298] yes=19,no=20,missing=20,gain=1.08796263,cover=14.4770584
				19:[f92<3.47712921e-05] yes=39,no=40,missing=40,gain=0.334917068,cover=13.0198927
					39:leaf=-0.0378437154,cover=9.52362823
					40:[f44<0.000109018576] yes=71,no=72,missing=72,gain=0.432537794,cover=3.49626446
						71:leaf=0.0112638399,cover=0.694390476
						72:leaf=-0.0211868435,cover=2.80187416
				20:[f6<0.333332986] yes=41,no=42,missing=42,gain=0.0697811171,cover=1.45716512
					41:leaf=0.0131196333,cover=0.850832403
					42:[f0<0.571428597] yes=73,no=74,missing=74,gain=0.00245678565,cover=0.60633266
						73:leaf=8.97401242e-06,cover=0.50185138
						74:leaf=-0.00419218,cover=0.104481295
			10:[f100<0.795212984] yes=21,no=22,missing=22,gain=0.512408495,cover=4.18593407
				21:[f105<0.560027421] yes=43,no=44,missing=44,gain=0.13482292,cover=2.24654341
					43:[f0<0.571428597] yes=75,no=76,missing=76,gain=0.0215419009,cover=1.70634902
						75:leaf=-0.00175810384,cover=0.824672818
						76:leaf=0.00639848132,cover=0.881676197
					44:leaf=-0.0157343261,cover=0.540194333
				22:leaf=0.0252622496,cover=1.93939066
	2:[f87<0.0129342899] yes=5,no=6,missing=6,gain=0.698931217,cover=49.4804573
		5:[f129<0.16203244] yes=11,no=12,missing=12,gain=0.889954031,cover=10.07372
			11:[f85<0.132404462] yes=23,no=24,missing=24,gain=0.570332229,cover=6.41306305
				23:[f65<0.000913798343] yes=45,no=46,missing=46,gain=0.251677752,cover=4.45659542
					45:[f15<0.200118184] yes=77,no=78,missing=78,gain=0.00766517874,cover=1.09844816
						77:leaf=-0.0030100341,cover=0.301661432
						78:leaf=0.00203000056,cover=0.796786785
					46:[f71<0.200844675] yes=79,no=80,missing=80,gain=0.154163361,cover=3.35814714
						79:leaf=-0.030431008,cover=2.85370135
						80:leaf=-0.000343072257,cover=0.504445791
				24:[f10<0.174999997] yes=47,no=48,missing=48,gain=0.283044755,cover=1.95646775
					47:[f0<0.714285731] yes=81,no=82,missing=82,gain=0.00128406286,cover=1.55415368
						81:leaf=0.0169542525,cover=1.08893681
						82:leaf=0.00272685848,cover=0.465216875
					48:leaf=-0.0132508902,cover=0.402314067
			12:[f73<0.32913959] yes=25,no=26,missing=26,gain=0.48868826,cover=3.66065645
				25:[f11<0.0526315793] yes=49,no=50,missing=50,gain=0.167788148,cover=3.1942606
					49:[f10<0.0216312055] yes=83,no=84,missing=84,gain=0.108616054,cover=3.04783297
						83:leaf=-0.0014385297,cover=0.281355083
						84:leaf=0.0262084585,cover=2.76647782
					50:leaf=-0.00585378194,cover=0.146427542
				26:leaf=-0.0144280521,cover=0.466396004
		6:[f105<0.45718503] yes=13,no=14,missing=14,gain=0.772659063,cover=39.4067383
			13:[f7<0.714286029] yes=27,no=28,missing=28,gain=0.76409322,cover=27.7926826
				27:[f105<0.405136138] yes=51,no=52,missing=52,gain=0.167895705,cover=1.49186814
					51:leaf=0.0046063005,cover=0.260605067
					52:leaf=-0.0250320118,cover=1.23126316
				28:[f54<0.101010665] yes=53,no=54,missing=54,gain=0.412718594,cover=26.3008137
					53:[f125<0.5] yes=85,no=86,missing=86,gain=0.495677352,cover=21.2182903
						85:leaf=0.0138334474,cover=20.4612942
						86:leaf=-0.0153216897,cover=0.756997585
					54:[f47<0.400000006] yes=87,no=88,missing=88,gain=0.463632643,cover=5.08252287
						87:leaf=0.00690316921,cover=3.54895449
						88:leaf=-0.0198816117,cover=1.53356826
			14:[f54<0.0301306657] yes=29,no=30,missing=30,gain=0.656171083,cover=11.6140575
				29:[f131<0.0775862038] yes=55,no=56,missing=56,gain=0.230592564,cover=2.57834864
					55:leaf=-0.0158963501,cover=0.533770204
					56:[f3<0.5] yes=89,no=90,missing=90,gain=0.045239903,cover=2.04457855
						89:leaf=0.00978970435,cover=1.9372642
						90:leaf=-0.0043077576,cover=0.107314363
				30:[f50<0.0321290009] yes=57,no=58,missing=58,gain=0.105683088,cover=9.03570843
					57:[f43<0.0750000179] yes=91,no=92,missing=92,gain=0.0268466473,cover=7.61380434
						91:leaf=0.0317808799,cover=6.98674726
						92:leaf=0.00590384193,cover=0.627056777
					58:[f10<0.0368794315] yes=93,no=94,missing=94,gain=0.0258436091,cover=1.42190433
						93:leaf=-0.00172130507,cover=0.285210192
						94:leaf=0.00984546449,cover=1.13669407
booster[8]:
0:[f107<0.541820884] yes=1,no=2,missing=2,gain=2.37586379,cover=113.586029
	1:[f12<0.00293881912] yes=3,no=4,missing=4,gain=1.32207656,cover=79.7873764
		3:[f104<0.694052994] yes=7,no=8,missing=8,gain=1.42926002,cover=58.8429527
			7:[f90<0.0683040097] yes=15,no=16,missing=16,gain=0.642065763,cover=9.1920681
				15:[f127<0.000547543284] yes=27,no=28,missing=28,gain=0.294831991,cover=6.67823362
					27:leaf=-0.0360720865,cover=5.92198086
					28:[f129<0.0313823186] yes=51,no=52,missing=52,gain=0.0996922925,cover=0.756252408
						51:leaf=0.00828335807,cover=0.436727703
						52:leaf=-0.0107954359,cover=0.319524735
				16:[f40<0.117456429] yes=29,no=30,missing=30,gain=0.500207782,cover=2.51383495
					29:leaf=0.0125121837,cover=1.56607962
					30:leaf=-0.0211640522,cover=0.947755218
			8:[f94<0.00823207945] yes=17,no=18,missing=18,gain=1.50755095,cover=49.6508827
				17:[f94<0.000135126917] yes=31,no=32,missing=32,gain=1.44332123,cover=42.8944321
					31:[f84<0.0102040814] yes=53,no=54,missing=54,gain=1.17013931,cover=22.9367485
						53:leaf=-0.0191787258,cover=4.91678429
						54:leaf=0.00628168881,cover=18.0199642
					32:[f128<0.0165289249] yes=55,no=56,missing=56,gain=0.826848507,cover=19.9576836
						55:leaf=-0.0251043439,cover=12.7530012
						56:leaf=-0.00361730694,cover=7.20468187
				18:[f127<4.2382303e-06] yes=33,no=34,missing=34,gain=0.848838329,cover=6.75645208
					33:[f129<0.00773475599] yes=57,no=58,missing=58,gain=0.826959074,cover=3.05988455
						57:leaf=0.0152845448,cover=1.78631306
						58:leaf=-0.0254635755,cover=1.27357149
					34:[f89<0.131279409] yes=59,no=60,missing=60,gain=0.149308085,cover=3.69656754
						59:leaf=-0.00403019181,cover=0.10217794
						60:leaf=0.0306027513,cover=3.59438968
		4:[f57<0.0769229978] yes=9,no=10,missing=10,gain=1.2119875,cover=20.9444275
			9:[f10<0.00797872338] yes=19,no=20,missing=20,gain=0.467578292,cover=4.195364
				19:[f0<0.142857149] yes=35,no=36,missing=36,gain=0.0498833507,cover=1.29846406
					35:leaf=0.0108662536,cover=0.710668862
					36:[f3<0.5] yes=61,no=62,missing=62,gain=0.00128590362,cover=0.587795198
						61:leaf=-0.00334699056,cover=0.322582424
						62:leaf=0.000104498082,cover=0.265212774
				20:[f12<0.0032059846] yes=37,no=38,missing=38,gain=0.140678465,cover=2.8968997
					37:leaf=0.00284263538,cover=0.237767041
					38:[f12<0.00667913444] yes=63,no=64,missing=64,gain=0.0281025171,cover=2.65913272
						63:leaf=-0.0296229515,cover=2.13027573
						64:leaf=-0.00444367342,cover=0.528856933
			10:[f10<0.0820921957] yes=21,no=22,missing=22,gain=0.753840566,cover=16.7490635
				21:[f107<0.23285085] yes=39,no=40,missing=40,gain=0.52225554,cover=7.70067453
					39:[f1<0.333333343] yes=65,no=66,missing=66,gain=0.150332943,cover=1.13346827
						65:leaf=-0.015172136,cover=0.514938414
						66:leaf=0.00728346128,cover=0.618529797
					40:[f131<0.00431034481] yes=67,no=68,missing=68,gain=0.573304653,cover=6.56720638
						67:leaf=-0.0120480042,cover=0.349888802
						68:leaf=0.0308037642,cover=6.21731758
				22:[f35<0.0643500611] yes=41,no=42,missing=42,gain=0.391459525,cover=9.04838848
					41:[f0<0.428571433] yes=69,no=70,missing=70,gain=0.0843472779,cover=2.60112143
						69:leaf=-0.00446606008,cover=0.116074719
						70:leaf=0.0169281587,cover=2.48504663
					42:[f130<0.315820783] yes=71,no=72,missing=72,gain=0.386835665,cover=6.44726706
						71:leaf=-0.0216416642,cover=1.40869212
						72:leaf=0.00233732862,cover=5.0385747
	2:[f64<0.0704613328] yes=5,no=6,missing=6,gain=0.991019368,cover=33.7986488
		5:[f79<0.0402233116] yes=11,no=12,missing=12,gain=0.833413124,cover=21.934866
			11:[f129<0.0404316783] yes=23,no=24,missing=24,gain=0.518540263,cover=18.9727345
				23:[f128<0.0743801668] yes=43,no=44,missing=44,gain=0.514544129,cover=10.7075815
					43:[f132<0.184738949] yes=73,no=74,missing=74,gain=0.339583755,cover=8.50445461
						73:leaf=-0.017672807,cover=6.3371582
						74:leaf=0.00348081859,cover=2.16729617
					44:[f128<0.140495867] yes=75,no=76,missing=76,gain=0.0318600535,cover=2.20312715
						75:leaf=0.0130671253,cover=1.77696157
						76:leaf=-0.000506334763,cover=0.426165521
				24:[f126<0.278571427] yes=45,no=46,missing=46,gain=0.417388678,cover=8.26515293
					45:[f130<0.309686571] yes=77,no=78,missing=78,gain=0.321838886,cover=6.24530602
						77:leaf=0.0152599355,cover=1.68222356
						78:leaf=-0.00584133295,cover=4.5630827
					46:[f0<1] yes=79,no=80,missing=80,gain=0.0309455395,cover=2.01984715
						79:leaf=0.026854882,cover=1.4929018
						80:leaf=0.00363868079,cover=0.526945293
			12:leaf=0.0250998866,cover=2.96213198
		6:[f109<0.330464244] yes=13,no=14,missing=14,gain=0.540306568,cover=11.8637819
			13:leaf=-0.0137098087,cover=0.391405821
			14:[f54<0.101010665] yes=25,no=26,missing=26,gain=0.473021984,cover=11.4723759
				25:[f43<0.0375000089] yes=47,no=48,missing=48,gain=0.268991709,cover=9.6375103
					47:[f66<0.145125329] yes=81,no=82,missing=82,gain=0.101175308,cover=8.40510464
						81:leaf=0.0320496075,cover=8.14005089
						82:leaf=0.000148094623,cover=0.26505363
					48:[f10<0.0361702144] yes=83,no=84,missing=84,gain=0.0130678872,cover=1.23240519
						83:leaf=-0.00104437885,cover=0.713676095
						84:leaf=0.00601762673,cover=0.518728971
				26:[f15<0.144315422] yes=49,no=50,missing=50,gain=0.224827021,cover=1.83486581
					49:leaf=-0.014990068,cover=0.470894575
					50:[f10<0.0258865245] yes=85,no=86,missing=86,gain=0.00986422598,cover=1.36397123
						85:leaf=2.59401168e-05,cover=0.232757062
						86:leaf=0.0109788757,cover=1.13121414
booster[9]:
0:[f107<0.556221128] yes=1,no=2,missing=2,gain=2.65301156,cover=113.025391
	1:[f49<0.0429374501] yes=3,no=4,missing=4,gain=1.28209698,cover=81.5876312
		3:[f127<0.000292528071] yes=7,no=8,missing=8,gain=0.660311818,cover=9.49394894
			7:[f132<0.204819277] yes=15,no=16,missing=16,gain=0.425908089,cover=7.61920691
				15:[f12<0.00347314985] yes=29,no=30,missing=30,gain=0.0913460255,cover=5.80456972
					29:leaf=-0.0345553756,cover=5.29850721
					30:[f0<0.142857149] yes=51,no=52,missing=52,gain=0.0385262705,cover=0.506062269
						51:leaf=0.00428423984,cover=0.253238112
						52:leaf=-0.00860417541,cover=0.252824187
				16:[f131<0.081896551] yes=31,no=32,missing=32,gain=0.189699322,cover=1.81463754
					31:[f10<0.112234041] yes=53,no=54,missing=54,gain=0.0182063468,cover=1.21493351
						53:leaf=0.00909543689,cover=0.863150358
						54:leaf=-0.000991927576,cover=0.351783156
					32:leaf=-0.0157537963,cover=0.599704027
			8:[f129<0.0391935073] yes=17,no=18,missing=18,gain=0.2439228,cover=1.87474167
				17:[f10<0.16365248] yes=33,no=34,missing=34,gain=0.0871713161,cover=1.42846763
					33:[f3<0.25] yes=55,no=56,missing=56,gain=0.00295034051,cover=1.30103028
						55:leaf=0.0167748798,cover=1.07299054
						56:leaf=0.0013885278,cover=0.228039756
					34:leaf=-0.00507810479,cover=0.127437383
				18:leaf=-0.0135122864,cover=0.446274042
		4:[f127<1.80350227e-07] yes=9,no=10,missing=10,gain=1.16658926,cover=72.0936813
			9:[f24<0.0195121951] yes=19,no=20,missing=20,gain=1.50657761,cover=21.2718868
				19:[f10<0.0234042555] yes=35,no=36,missing=36,gain=0.672795057,cover=5.58347082
					35:[f128<0.00826446246] yes=57,no=58,missing=58,gain=0.324763596,cover=2.33353996
						57:leaf=-0.0169411954,cover=1.92109942
						58:leaf=0.0134013221,cover=0.412440598
					36:[f0<0.285714298] yes=59,no=60,missing=60,gain=0.108820915,cover=3.24993086
						59:leaf=0.023132639,cover=3.14263368
						60:leaf=-0.00405731285,cover=0.107297339
				20:[f72<0.0175358504] yes=37,no=38,missing=38,gain=0.929144621,cover=15.6884155
					37:[f105<0.822712481] yes=61,no=62,missing=62,gain=0.767022133,cover=13.0273237
						61:leaf=-0.027475372,cover=12.4439468
						62:leaf=0.0144275203,cover=0.583376646
					38:[f12<0.0032059846] yes=63,no=64,missing=64,gain=0.130074516,cover=2.66109157
						63:leaf=-0.00823033787,cover=0.482449472
						64:leaf=0.0103927879,cover=2.17864203
			10:[f104<0.755900979] yes=21,no=22,missing=22,gain=1.40988696,cover=50.8217964
				21:[f120<0.736429036] yes=39,no=40,missing=40,gain=0.964445531,cover=10.7726192
					39:[f124<0.724138439] yes=65,no=66,missing=66,gain=0.723708928,cover=7.50937557
						65:leaf=-0.0127790673,cover=4.96397352
						66:leaf=0.0157859512,cover=2.54540229
					40:leaf=-0.0325122289,cover=3.2632432
				22:[f47<0.277778] yes=41,no=42,missing=42,gain=1.02765703,cover=40.0491753
					41:[f65<0.0775205567] yes=67,no=68,missing=68,gain=1.17071092,cover=26.5180149
						67:leaf=0.0143234162,cover=25.2886105
						68:leaf=-0.0242591053,cover=1.229406
					42:[f39<0.0658536553] yes=69,no=70,missing=70,gain=0.804278016,cover=13.5311604
						69:leaf=-0.0157735236,cover=6.89631128
						70:leaf=0.00710948044,cover=6.63484955
	2:[f66<0.0725599974] yes=5,no=6,missing=6,gain=0.830287337,cover=31.4377594
		5:[f80<0.0234889369] yes=11,no=12,missing=12,gain=0.90972662,cover=29.7853909
			11:[f65<0.00025383287] yes=23,no=24,missing=24,gain=0.524754107,cover=7.80109358
				23:[f65<0.000101533151] yes=43,no=44,missing=44,gain=0.631385207,cover=4.74976778
					43:[f127<6.31225817e-07] yes=71,no=72,missing=72,gain=0.212327778,cover=2.38386703
						71:leaf=-0.0150200548,cover=1.70301938
						72:leaf=0.00857614074,cover=0.680847645
					44:[f10<0.0439716317] yes=73,no=74,missing=74,gain=0.0543131232,cover=2.36590099
						73:leaf=0.000166385304,cover=0.244707704
						74:leaf=0.0253208224,cover=2.12119317
				24:[f45<0.0402680002] yes=45,no=46,missing=46,gain=0.0808451474,cover=3.05132556
					45:[f131<0.0172413792] yes=75,no=76,missing=76,gain=0.0701586306,cover=2.07793856
						75:leaf=-0.00064545864,cover=0.540313482
						76:leaf=-0.0217499714,cover=1.53762507
					46:[f12<0.00213732291] yes=77,no=78,missing=78,gain=0.000316708582,cover=0.973387003
						77:leaf=-0.00108850817,cover=0.742762685
						78:leaf=0.000222922448,cover=0.230624318
			12:[f100<0.781771004] yes=25,no=26,missing=26,gain=0.412802935,cover=21.9842968
				25:[f1<0.666666687] yes=47,no=48,missing=48,gain=0.154082954,cover=1.00017178
					47:leaf=-0.0157930795,cover=0.569995582
					48:leaf=0.00779085606,cover=0.430176169
				26:[f84<0.0228669532] yes=49,no=50,missing=50,gain=0.427175045,cover=20.9841251
					49:leaf=-0.0122798895,cover=0.353887826
					50:[f122<0.913767874] yes=79,no=80,missing=80,gain=0.284437656,cover=20.6302376
						79:leaf=0.0277838316,cover=10.5963669
						80:leaf=0.0134399477,cover=10.0338707
		6:[f45<0.0529799983] yes=13,no=14,missing=14,gain=0.0826015472,cover=1.65236866
			13:leaf=-0.0215377789,cover=0.905458272
			14:[f1<0.666666687] yes=27,no=28,missing=28,gain=0.00140776031,cover=0.746910393
				27:leaf=-0.00180805044,cover=0.25211975
				28:leaf=0.000589780393,cover=0.494790673
booster[10]:
0:[f102<0.866333008] yes=1,no=2,missing=2,gain=2.28062773,cover=112.648544
	1:[f130<0.156163216] yes=3,no=4,missing=4,gain=2.07360983,cover=53.790844
		3:[f133<0.000279642059] yes=7,no=8,missing=8,gain=0.993736506,cover=12.9719257
			7:[f102<0.740090013] yes=15,no=16,missing=16,gain=0.744689465,cover=11.859086
				15:[f130<6.10370189e-05] yes=31,no=32,missing=32,gain=0.494351864,cover=9.16279125
					31:leaf=0.00667627621,cover=0.401744038
					32:[f12<0.00561047299] yes=59,no=60,missing=60,gain=0.159166813,cover=8.76104736
						59:leaf=-0.0380576663,cover=8.3772068
						60:leaf=-0.00136764324,cover=0.383840442
				16:[f127<2.70525334e-07] yes=33,no=34,missing=34,gain=0.216764271,cover=2.69629407
					33:leaf=-0.0173482653,cover=0.659858942
					34:[f2<0.600000024] yes=61,no=62,missing=62,gain=0.0297456756,cover=2.03643537
						61:leaf=0.00888621155,cover=1.00895452
						62:leaf=-0.00084732793,cover=1.02748072
			8:[f10<0.0395390056] yes=17,no=18,missing=18,gain=0.0430665761,cover=1.11283946
				17:leaf=0.0168083943,cover=0.577885866
				18:leaf=0.000135225564,cover=0.534953594
		4:[f109<0.433025718] yes=9,no=10,missing=10,gain=1.67937064,cover=40.8189201
			9:[f122<0.652125955] yes=19,no=20,missing=20,gain=1.24997735,cover=17.891901
				19:[f127<0.00116398034] yes=35,no=36,missing=36,gain=0.709775686,cover=8.27573872
					35:[f12<0.00427464582] yes=63,no=64,missing=64,gain=0.147589207,cover=6.92323828
						63:leaf=-0.0330711529,cover=6.578475
						64:leaf=9.75796211e-05,cover=0.344763249
					36:[f129<0.0313823186] yes=65,no=66,missing=66,gain=0.181620032,cover=1.35250044
						65:leaf=0.0143191712,cover=0.782079458
						66:leaf=-0.00937880483,cover=0.570420861
				20:[f45<0.0291830003] yes=37,no=38,missing=38,gain=1.32848346,cover=9.6161623
					37:[f55<0.00421900023] yes=67,no=68,missing=68,gain=0.265250444,cover=4.94781637
						67:leaf=-0.00633250922,cover=0.642696381
						68:leaf=0.0203600656,cover=4.30511999
					38:[f55<0.26087001] yes=69,no=70,missing=70,gain=0.907075167,cover=4.66834593
						69:leaf=-0.0287820902,cover=3.39912915
						70:leaf=0.0122916959,cover=1.26921678
			10:[f75<0.00581096672] yes=21,no=22,missing=22,gain=0.738373756,cover=22.9270191
				21:[f63<0.111111112] yes=39,no=40,missing=40,gain=0.569846332,cover=6.60701513
					39:[f132<0.0401606411] yes=71,no=72,missing=72,gain=0.484379113,cover=4.0688591
						71:leaf=-0.028749967,cover=2.09955382
						72:leaf=0.00201711059,cover=1.9693054
					40:[f0<1] yes=73,no=74,missing=74,gain=0.29643625,cover=2.53815627
						73:leaf=0.0168504957,cover=2.13255262
						74:leaf=-0.0122217601,cover=0.405603468
				22:[f117<0.576604068] yes=41,no=42,missing=42,gain=0.765047908,cover=16.3200035
					41:[f129<0.00244577252] yes=75,no=76,missing=76,gain=0.797285199,cover=14.8846083
						75:leaf=-0.0126407174,cover=1.46654153
						76:leaf=0.0199619308,cover=13.418067
					42:[f20<0.075075075] yes=77,no=78,missing=78,gain=0.0891537964,cover=1.43539476
						77:leaf=-0.0203329455,cover=0.881622493
						78:leaf=0.000932219438,cover=0.55377233
	2:[f34<0.0127551025] yes=5,no=6,missing=6,gain=1.68510687,cover=58.8577003
		5:[f10<0.050886523] yes=11,no=12,missing=12,gain=0.973137617,cover=7.50441885
			11:[f50<0.0372340009] yes=23,no=24,missing=24,gain=0.410187721,cover=4.92111588
				23:[f127<1.26245163e-06] yes=43,no=44,missing=44,gain=0.115949512,cover=3.87850428
					43:leaf=-0.0335982181,cover=3.57837558
					44:leaf=-0.000343863241,cover=0.300128728
				24:[f14<0.00273117446] yes=45,no=46,missing=46,gain=0.0996655971,cover=1.04261172
					45:leaf=-0.00966354739,cover=0.274359524
					46:[f3<0.25] yes=79,no=80,missing=80,gain=0.0181177184,cover=0.768252254
						79:leaf=0.0109603312,cover=0.494839817
						80:leaf=-0.000734633533,cover=0.273412406
			12:[f128<0.0165289249] yes=25,no=26,missing=26,gain=0.399763823,cover=2.58330297
				25:[f10<0.0544326231] yes=47,no=48,missing=48,gain=0.0112642571,cover=0.713345408
					47:leaf=-0.000467456237,cover=0.233472168
					48:leaf=-0.0145266224,cover=0.47987327
				26:[f132<0.0200803205] yes=49,no=50,missing=50,gain=0.14326185,cover=1.86995745
					49:leaf=0.0219146814,cover=1.72055018
					50:leaf=-0.00561979739,cover=0.149407238
		6:[f117<0.642276227] yes=13,no=14,missing=14,gain=1.49509764,cover=51.3532791
			13:[f10<0.0368794315] yes=27,no=28,missing=28,gain=0.908683777,cover=10.5848694
				27:[f12<0.00240448839] yes=51,no=52,missing=52,gain=0.0354035646,cover=0.957788706
					51:leaf=-0.0140567226,cover=0.730944574
					52:leaf=0.00156607234,cover=0.226844162
				28:[f131<0.00431034481] yes=53,no=54,missing=54,gain=0.300954342,cover=9.62708092
					53:[f10<0.0430851057] yes=81,no=82,missing=82,gain=0.144269809,cover=0.909046531
						81:leaf=-0.011341407,cover=0.322884887
						82:leaf=0.0110557405,cover=0.586161613
					54:[f41<0.0400000699] yes=83,no=84,missing=84,gain=0.087908268,cover=8.71803474
						83:leaf=0.0336830616,cover=8.49017811
						84:leaf=0.000406782579,cover=0.227856189
			14:[f34<0.0178571437] yes=29,no=30,missing=30,gain=1.7224834,cover=40.7684097
				29:[f125<0.25] yes=55,no=56,missing=56,gain=0.823254108,cover=12.6407938
					55:[f10<0.0609929077] yes=85,no=86,missing=86,gain=0.267034769,cover=8.68337631
						85:leaf=0.0297336113,cover=8.20047092
						86:leaf=-0.00299217366,cover=0.482905805
					56:[f74<0.0324800014] yes=87,no=88,missing=88,gain=0.307483554,cover=3.95741773
						87:leaf=0.00814840384,cover=3.09295368
						88:leaf=-0.0163531061,cover=0.864464045
				30:[f44<0.000415633287] yes=57,no=58,missing=58,gain=0.947233498,cover=28.1276169
					57:[f60<0.0280169994] yes=89,no=90,missing=90,gain=0.676370263,cover=19.0697308
						89:leaf=-0.0176940542,cover=8.37080956
						90:leaf=0.000646192697,cover=10.6989222
					58:[f44<0.000572986202] yes=91,no=92,missing=92,gain=0.461936742,cover=9.05788422
						91:leaf=0.0218793564,cover=3.91868496
						92:leaf=0.000369927497,cover=5.13919926
booster[11]:
0:[f107<0.469099581] yes=1,no=2,missing=2,gain=2.24944663,cover=112.158531
	1:[f127<1.80350227e-07] yes=3,no=4,missing=4,gain=1.39820337,cover=63.4160728
		3:[f10<0.112234041] yes=7,no=8,missing=8,gain=0.705688953,cover=17.0357933
			7:[f10<0.0274822693] yes=15,no=16,missing=16,gain=0.483323455,cover=12.7628632
				15:[f78<0.304957449] yes=29,no=30,missing=30,gain=0.18132937,cover=3.10447216
					29:[f12<0.00427464582] yes=57,no=58,missing=58,gain=0.0651675463,cover=2.9627037
						57:leaf=-0.0298722386,cover=2.53354836
						58:leaf=-0.00241530733,cover=0.42915535
					30:leaf=0.00537453918,cover=0.141768247
				16:[f20<0.0210210215] yes=31,no=32,missing=32,gain=0.626384318,cover=9.658391
					31:[f131<0.0129310349] yes=59,no=60,missing=60,gain=0.187774077,cover=3.3786726
						59:leaf=-0.00548681198,cover=0.77515018
						60:leaf=0.0164856222,cover=2.6035223
					32:[f30<0.0582959652] yes=61,no=62,missing=62,gain=0.478925824,cover=6.27971888
						61:leaf=-0.0224923324,cover=3.61797667
						62:leaf=0.00311442907,cover=2.66174221
			8:leaf=-0.0338898562,cover=4.27292967
		4:[f104<0.76730299] yes=9,no=10,missing=10,gain=1.15408003,cover=46.3802795
			9:[f12<0.00293881912] yes=17,no=18,missing=18,gain=0.705604196,cover=13.0978365
				17:[f90<0.0683040097] yes=33,no=34,missing=34,gain=0.579960704,cover=8.98686504
					33:[f127<0.00145921367] yes=63,no=64,missing=64,gain=0.749609232,cover=6.71861553
						63:leaf=-0.0328309126,cover=5.92702293
						64:leaf=0.00935686473,cover=0.791592479
					34:[f40<0.117456429] yes=65,no=66,missing=66,gain=0.416293412,cover=2.26824999
						65:leaf=0.0139032556,cover=1.50343204
						66:leaf=-0.0178176593,cover=0.764817953
				18:[f102<0.50208199] yes=35,no=36,missing=36,gain=0.306258351,cover=4.1109705
					35:[f0<0.714285731] yes=67,no=68,missing=68,gain=0.0575046688,cover=3.47368765
						67:leaf=0.0109283468,cover=3.35174561
						68:leaf=-0.00466581201,cover=0.121941984
					36:leaf=-0.0159520656,cover=0.637283087
			10:[f34<0.0127551025] yes=19,no=20,missing=20,gain=1.37803698,cover=33.282444
				19:[f128<0.272727281] yes=37,no=38,missing=38,gain=0.744015157,cover=6.59294939
					37:[f10<0.0280141849] yes=69,no=70,missing=70,gain=0.590246439,cover=5.87551165
						69:leaf=-0.00128184562,cover=2.45046592
						70:leaf=-0.0324172638,cover=3.42504549
					38:leaf=0.0173402186,cover=0.717437685
				20:[f34<0.0178571437] yes=39,no=40,missing=40,gain=0.947513759,cover=26.6894932
					39:[f83<0.296424836] yes=71,no=72,missing=72,gain=0.789065719,cover=6.64627361
						71:leaf=0.0286600236,cover=6.10797691
						72:leaf=-0.0154659478,cover=0.538296342
					40:[f68<0.0987519994] yes=73,no=74,missing=74,gain=1.38774848,cover=20.0432205
						73:leaf=-0.00563406153,cover=14.4658384
						74:leaf=0.0218118317,cover=5.57738113
	2:[f54<0.0265066661] yes=5,no=6,missing=6,gain=0.676659107,cover=48.7424545
		5:[f13<0.318181813] yes=11,no=12,missing=12,gain=0.682960093,cover=18.8160877
			11:[f120<0.812555015] yes=21,no=22,missing=22,gain=0.568699419,cover=13.3256083
				21:[f132<0.0522088371] yes=41,no=42,missing=42,gain=0.531816006,cover=10.9344769
					41:[f127<5.32033164e-06] yes=75,no=76,missing=76,gain=0.382367074,cover=5.11173964
						75:leaf=-0.0184520837,cover=3.53573966
						76:leaf=0.00689930236,cover=1.57600009
					42:[f1<0.333333343] yes=77,no=78,missing=78,gain=0.398710012,cover=5.82273722
						77:leaf=0.0141048273,cover=5.28525496
						78:leaf=-0.0154065136,cover=0.537482023
				22:[f10<0.0400709212] yes=43,no=44,missing=44,gain=0.126535773,cover=2.3911314
					43:[f10<0.0216312055] yes=79,no=80,missing=80,gain=0.00364396581,cover=0.634135187
						79:leaf=0.00124568294,cover=0.270053506
						80:leaf=-0.00267302198,cover=0.364081681
					44:leaf=-0.028186297,cover=1.75699627
			12:[f100<0.794881999] yes=23,no=24,missing=24,gain=0.506501138,cover=5.49047995
				23:[f46<0.285714] yes=45,no=46,missing=46,gain=0.199563295,cover=1.2006526
					45:leaf=-0.0183993764,cover=0.76290971
					46:leaf=0.00818294287,cover=0.437742919
				24:[f62<0.0625] yes=47,no=48,missing=48,gain=0.141596198,cover=4.28982735
					47:[f1<0.333333343] yes=81,no=82,missing=82,gain=0.00967969652,cover=0.586719036
						81:leaf=-0.00407423079,cover=0.107028
						82:leaf=0.00216091028,cover=0.479691029
					48:[f128<0.0165289249] yes=83,no=84,missing=84,gain=0.13914299,cover=3.70310831
						83:leaf=0.00377125037,cover=1.06099057
						84:leaf=0.0287031718,cover=2.64211798
		6:[f94<0.000324231019] yes=13,no=14,missing=14,gain=0.681933522,cover=29.9263687
			13:[f109<0.367043078] yes=25,no=26,missing=26,gain=0.444734871,cover=10.9001637
				25:[f10<0.0585106388] yes=49,no=50,missing=50,gain=0.24535507,cover=3.93857622
					49:[f75<0.0040684985] yes=85,no=86,missing=86,gain=0.153040886,cover=3.10698605
						85:leaf=-0.00593868224,cover=0.151628435
						86:leaf=0.021635931,cover=2.95535755
					50:[f15<0.0354940109] yes=87,no=88,missing=88,gain=0.0149858128,cover=0.831590056
						87:leaf=0.00107200362,cover=0.367025584
						88:leaf=-0.00793370977,cover=0.464564502
				26:[f12<0.0032059846] yes=51,no=52,missing=52,gain=0.554006279,cover=6.96158695
					51:[f126<0.214285716] yes=89,no=90,missing=90,gain=0.453048497,cover=6.10298252
						89:leaf=-0.0188863948,cover=4.22867203
						90:leaf=0.00697285077,cover=1.87431085
					52:leaf=0.0198513716,cover=0.858604491
			14:[f45<0.110169001] yes=27,no=28,missing=28,gain=0.564003706,cover=19.0262051
				27:[f49<0.12603581] yes=53,no=54,missing=54,gain=0.689535141,cover=16.3556099
					53:[f3<0.25] yes=91,no=92,missing=92,gain=0.33803463,cover=1.62949836
						91:leaf=-0.0203809422,cover=0.782577395
						92:leaf=0.0106614456,cover=0.846920967
					54:[f83<0.296424836] yes=93,no=94,missing=94,gain=0.310589314,cover=14.7261105
						93:leaf=0.0288643874,cover=10.8615513
						94:leaf=0.00911843684,cover=3.86455917
				28:[f110<0.865971267] yes=55,no=56,missing=56,gain=0.391380697,cover=2.67059565
					55:[f1<0.333333343] yes=95,no=96,missing=96,gain=0.0166358948,cover=1.0497967
						95:leaf=-0.0201143026,cover=0.809335232
						96:leaf=-0.00101687037,cover=0.240461484
					56:[f10<0.0258865245] yes=97,no=98,missing=98,gain=0.017824553,cover=1.62079883
						97:leaf=-0.000461897638,cover=0.23525627
						98:leaf=0.0121804588,cover=1.38554263
booster[12]:
0:[f107<0.533225536] yes=1,no=2,missing=2,gain=2.48790884,cover=111.799736
	1:[f123<0.732524753] yes=3,no=4,missing=4,gain=1.15090346,cover=76.1355896
		3:[f130<0.22127445] yes=7,no=8,missing=8,gain=1.70998251,cover=55.9295883
			7:[f134<1.73402191e-06] yes=15,no=16,missing=16,gain=1.09855175,cover=14.1297216
				15:[f71<0.198276848] yes=31,no=32,missing=32,gain=0.307803631,cover=9.75696564
					31:[f130<6.10370189e-05] yes=61,no=62,missing=62,gain=0.304999828,cover=9.44486618
						61:leaf=0.00432308111,cover=0.304241717
						62:leaf=-0.0348778255,cover=9.140625
					32:leaf=0.00478880852,cover=0.312098801
				16:[f107<0.260028988] yes=33,no=34,missing=34,gain=0.598859072,cover=4.372756
					33:leaf=-0.0223807897,cover=1.21896458
					34:[f110<0.672994375] yes=63,no=64,missing=64,gain=0.205412775,cover=3.15379167
						63:leaf=-0.0102949301,cover=0.324915618
						64:leaf=0.0142129539,cover=2.82887602
			8:[f74<0.317099333] yes=17,no=18,missing=18,gain=0.979997098,cover=41.7998695
				17:[f10<0.182978719] yes=35,no=36,missing=36,gain=1.31634843,cover=36.9081306
					35:[f127<0.00116398034] yes=65,no=66,missing=66,gain=0.892767251,cover=32.8903847
						65:leaf=-0.00544673903,cover=29.8014946
						66:leaf=0.0194557495,cover=3.08889031
					36:[f130<0.234717861] yes=67,no=68,missing=68,gain=0.143578768,cover=4.01774693
						67:leaf=0.0011253109,cover=0.274783194
						68:leaf=-0.0322572961,cover=3.74296379
				18:[f36<0.0357142873] yes=37,no=38,missing=38,gain=0.453116179,cover=4.89173651
					37:[f55<0.102908] yes=69,no=70,missing=70,gain=0.0953649879,cover=4.20192337
						69:leaf=0.0243196562,cover=3.38767695
						70:leaf=0.00234130654,cover=0.814246595
					38:[f3<0.25] yes=71,no=72,missing=72,gain=0.0232035816,cover=0.689813197
						71:leaf=0.000768981583,cover=0.227505431
						72:leaf=-0.0134820044,cover=0.462307751
		4:[f55<0.0444200002] yes=9,no=10,missing=10,gain=1.09122574,cover=20.2060013
			9:[f130<0.0132145146] yes=19,no=20,missing=20,gain=0.980261087,cover=14.2537584
				19:[f135<0.00667302171] yes=39,no=40,missing=40,gain=0.295433849,cover=3.78782845
					39:[f126<0.0785714313] yes=73,no=74,missing=74,gain=0.175405174,cover=2.44013286
						73:leaf=0.00269741844,cover=0.694258451
						74:leaf=-0.0221116729,cover=1.7458744
					40:[f10<0.0335106365] yes=75,no=76,missing=76,gain=0.22236824,cover=1.34769571
						75:leaf=-0.00940002874,cover=0.515555799
						76:leaf=0.0173929203,cover=0.83213985
				20:[f11<0.0210526325] yes=41,no=42,missing=42,gain=1.27520609,cover=10.46593
					41:[f132<0.00803212821] yes=77,no=78,missing=78,gain=0.578911066,cover=9.48278809
						77:leaf=-0.0125169726,cover=0.401884735
						78:leaf=0.028162891,cover=9.08090305
					42:leaf=-0.0206852127,cover=0.983142078
			10:[f12<0.0032059846] yes=21,no=22,missing=22,gain=0.647537887,cover=5.95224333
				21:[f129<0.666350782] yes=43,no=44,missing=44,gain=0.556328475,cover=4.35036659
					43:[f47<0.181817994] yes=79,no=80,missing=80,gain=0.185372114,cover=3.28278303
						79:leaf=-0.000132175803,cover=0.50405699
						80:leaf=-0.0326769054,cover=2.7787261
					44:[f10<0.0265957452] yes=81,no=82,missing=82,gain=0.154202178,cover=1.06758332
						81:leaf=0.014088586,cover=0.809772789
						82:leaf=-0.00953819137,cover=0.257810533
				22:[f3<0.75] yes=45,no=46,missing=46,gain=0.0952587724,cover=1.60187674
					45:leaf=0.015448804,cover=1.20556319
					46:[f10<0.00709219836] yes=83,no=84,missing=84,gain=0.00146995392,cover=0.396313637
						83:leaf=-0.00015619841,cover=0.276883394
						84:leaf=-0.0048509487,cover=0.119430251
	2:[f54<0.0265066661] yes=5,no=6,missing=6,gain=0.596998453,cover=35.6641426
		5:[f129<0.0404316783] yes=11,no=12,missing=12,gain=0.638302326,cover=13.191246
			11:[f127<9.01751136e-08] yes=23,no=24,missing=24,gain=0.452436477,cover=8.26282215
				23:[f57<0.222222] yes=47,no=48,missing=48,gain=0.0988478363,cover=2.8590548
					47:leaf=-0.0072959438,cover=0.199867591
					48:[f1<0.333333343] yes=85,no=86,missing=86,gain=0.00370131433,cover=2.65918732
						85:leaf=0.0113487914,cover=2.43159628
						86:leaf=0.000713797926,cover=0.227591068
				24:[f115<0.749118686] yes=49,no=50,missing=50,gain=0.237735897,cover=5.40376711
					49:[f127<5.32033164e-06] yes=87,no=88,missing=88,gain=0.198652804,cover=2.18087864
						87:leaf=-0.0284275543,cover=1.82040548
						88:leaf=0.00334786042,cover=0.360473007
					50:[f50<0.00540499995] yes=89,no=90,missing=90,gain=0.237128869,cover=3.22288871
						89:leaf=0.00473530358,cover=2.54685116
						90:leaf=-0.018252233,cover=0.676037729
			12:[f111<0.656220257] yes=25,no=26,missing=26,gain=0.520420313,cover=4.92842436
				25:[f10<0.0792553201] yes=51,no=52,missing=52,gain=0.145296931,cover=4.41304398
					51:[f0<0.571428597] yes=91,no=92,missing=92,gain=0.00990642328,cover=0.657965541
						91:leaf=0.00217484124,cover=0.550424099
						92:leaf=-0.00405189721,cover=0.107541457
					52:[f57<0.153845996] yes=93,no=94,missing=94,gain=0.0556713343,cover=3.75507832
						93:leaf=0.00582335098,cover=1.07238257
						94:leaf=0.0269534029,cover=2.68269587
				26:leaf=-0.0150775602,cover=0.515380323
		6:[f17<0.25102824] yes=13,no=14,missing=14,gain=0.699252367,cover=22.4728966
			13:[f131<0.0258620698] yes=27,no=28,missing=28,gain=0.426417142,cover=8.30270767
				27:[f74<0.0366373695] yes=53,no=54,missing=54,gain=0.412421286,cover=6.7670393
					53:[f12<0.0016029923] yes=95,no=96,missing=96,gain=0.0841704607,cover=2.25255561
						95:leaf=0.026053587,cover=1.72849727
						96:leaf=0.00134262012,cover=0.524058223
					54:[f65<0.00025383287] yes=97,no=98,missing=98,gain=0.21557799,cover=4.51448345
						97:leaf=-0.0103392284,cover=2.03848553
						98:leaf=0.0079005314,cover=2.47599816
				28:[f46<0.600000024] yes=55,no=56,missing=56,gain=0.243341178,cover=1.53566861
					55:leaf=-0.0215361863,cover=1.2825644
					56:leaf=0.00923376158,cover=0.25310418
			14:[f80<0.0242656916] yes=29,no=30,missing=30,gain=0.242631197,cover=14.170188
				29:[f15<0.200118184] yes=57,no=58,missing=58,gain=0.317552775,cover=2.76225567
					57:[f65<0.000203066302] yes=99,no=100,missing=100,gain=0.0366016328,cover=2.25628018
						99:leaf=0.0175136495,cover=1.20532823
						100:leaf=0.00272207125,cover=1.05095184
					58:leaf=-0.0146640437,cover=0.505975485
				30:[f54<0.0919546634] yes=59,no=60,missing=60,gain=0.193432331,cover=11.4079323
					59:[f102<0.866333008] yes=101,no=102,missing=102,gain=0.132566929,cover=8.87989521
						101:leaf=-0.00121427036,cover=0.284853637
						102:leaf=0.0294807088,cover=8.59504128
					60:[f10<0.0368794315] yes=103,no=104,missing=104,gain=0.0780588686,cover=2.52803707
						103:leaf=-0.00278099859,cover=0.777153015
						104:leaf=0.0123817148,cover=1.75088406
booster[13]:
0:[f25<0.0625] yes=1,no=2,missing=2,gain=2.13673067,cover=111.500465
	1:[f128<0.00826446246] yes=3,no=4,missing=4,gain=1.38361943,cover=56.5708199
		3:[f117<0.0563124642] yes=7,no=8,missing=8,gain=0.931919575,cover=23.2289982
			7:[f125<0.25] yes=15,no=16,missing=16,gain=0.225295812,cover=2.96492767
				15:leaf=-0.0113668833,cover=0.388928831
				16:[f125<0.375] yes=27,no=28,missing=28,gain=0.112989992,cover=2.57599878
					27:[f55<0.0304450002] yes=49,no=50,missing=50,gain=0.0747504234,cover=2.40275025
						49:leaf=0.0179233402,cover=2.30101299
						50:leaf=-0.00377324084,cover=0.101737224
					28:leaf=-0.00587775046,cover=0.173248678
			8:[f12<0.00347314985] yes=17,no=18,missing=18,gain=1.01707816,cover=20.2640705
				17:[f83<0.265854567] yes=29,no=30,missing=30,gain=0.802529335,cover=17.5365658
					29:[f127<7.11481625e-05] yes=51,no=52,missing=52,gain=0.334317684,cover=13.5216541
						51:leaf=-0.0310747027,cover=12.7886534
						52:leaf=0.00156425871,cover=0.73300153
					30:[f45<0.0416669995] yes=53,no=54,missing=54,gain=0.267414391,cover=4.01491213
						53:leaf=0.00430787168,cover=3.20266604
						54:leaf=-0.0188150611,cover=0.812245965
				18:[f15<0.200118184] yes=31,no=32,missing=32,gain=0.466256082,cover=2.72750306
					31:[f127<3.33647927e-06] yes=55,no=56,missing=56,gain=0.0366194546,cover=1.78193951
						55:leaf=0.0204037298,cover=1.55260634
						56:leaf=-8.55944018e-05,cover=0.229333222
					32:[f3<0.75] yes=57,no=58,missing=58,gain=0.0221145302,cover=0.945563555
						57:leaf=-0.0158894677,cover=0.668853998
						58:leaf=-0.000133542082,cover=0.276709586
		4:[f12<0.00187015766] yes=9,no=10,missing=10,gain=1.44866633,cover=33.3418198
			9:[f55<0.00475399988] yes=19,no=20,missing=20,gain=0.871653795,cover=14.4904633
				19:[f128<0.11570248] yes=33,no=34,missing=34,gain=0.176849544,cover=1.58508849
					33:leaf=-0.0225728806,cover=1.22423887
					34:leaf=0.00505912304,cover=0.360849708
				20:[f35<0.0292792786] yes=35,no=36,missing=36,gain=0.894446135,cover=12.9053745
					35:[f110<0.357992947] yes=59,no=60,missing=60,gain=0.248783827,cover=7.54737473
						59:leaf=-0.00673008291,cover=0.19814834
						60:leaf=0.0273370482,cover=7.349226
					36:[f126<0.342857152] yes=61,no=62,missing=62,gain=0.834893227,cover=5.3579998
						61:leaf=-0.020646723,cover=1.97728705
						62:leaf=0.0136686135,cover=3.38071275
			10:[f12<0.00293881912] yes=21,no=22,missing=22,gain=1.24502373,cover=18.8513584
				21:[f128<0.272727281] yes=37,no=38,missing=38,gain=0.690517902,cover=10.9123564
					37:[f13<0.5] yes=63,no=64,missing=64,gain=0.347668171,cover=8.69779968
						63:leaf=-0.0273782164,cover=8.2646656
						64:leaf=0.00672072778,cover=0.433134675
					38:[f128<0.322314054] yes=65,no=66,missing=66,gain=0.386967838,cover=2.21455646
						65:leaf=0.0152883977,cover=1.5810715
						66:leaf=-0.0160181206,cover=0.63348484
				22:[f57<0.0740740001] yes=39,no=40,missing=40,gain=0.54214716,cover=7.93900204
					39:leaf=-0.0192798469,cover=0.891032517
					40:[f115<0.40265885] yes=67,no=68,missing=68,gain=0.553606629,cover=7.04796934
						67:leaf=-0.0116337938,cover=1.41904044
						68:leaf=0.0173363853,cover=5.62892914
	2:[f75<0.229166672] yes=5,no=6,missing=6,gain=1.21293211,cover=54.9296494
		5:[f102<0.866333008] yes=11,no=12,missing=12,gain=0.883863926,cover=52.7363853
			11:[f105<0.444129676] yes=23,no=24,missing=24,gain=1.24038649,cover=11.9518738
				23:[f25<0.1875] yes=41,no=42,missing=42,gain=0.145630956,cover=2.8365314
					41:leaf=-0.0299227964,cover=2.55908108
					42:leaf=0.00184325897,cover=0.277450353
				24:[f79<0.0416084751] yes=43,no=44,missing=44,gain=1.22216427,cover=9.11534214
					43:[f128<0.0165289249] yes=69,no=70,missing=70,gain=0.462669134,cover=6.43730021
						69:leaf=-0.00171943754,cover=2.08817482
						70:leaf=0.0252611544,cover=4.34912539
					44:[f100<0.992730021] yes=71,no=72,missing=72,gain=0.105355382,cover=2.67804193
						71:leaf=-0.0215876624,cover=2.11714435
						72:leaf=0.00072459958,cover=0.56089747
			12:[f117<0.642276227] yes=25,no=26,missing=26,gain=0.902657986,cover=40.7845116
				25:[f131<0.00431034481] yes=45,no=46,missing=46,gain=0.353275776,cover=8.46592236
					45:[f10<0.0430851057] yes=73,no=74,missing=74,gain=0.0648886412,cover=0.579896331
						73:leaf=-0.0110709285,cover=0.323337287
						74:leaf=0.00549728516,cover=0.256559074
					46:[f10<0.0368794315] yes=75,no=76,missing=76,gain=0.232326508,cover=7.88602638
						75:leaf=-0.00135085359,cover=0.528377175
						76:leaf=0.0304343887,cover=7.35764885
				26:[f125<0.5] yes=47,no=48,missing=48,gain=0.754921556,cover=32.3185883
					47:[f10<0.0881205648] yes=77,no=78,missing=78,gain=0.575526237,cover=31.0208397
						77:leaf=0.0134396208,cover=23.0822887
						78:leaf=-0.00186990784,cover=7.93855143
					48:[f12<0.00106866146] yes=79,no=80,missing=80,gain=0.0048173666,cover=1.29775023
						79:leaf=-0.00229683868,cover=0.290286481
						80:leaf=-0.0220390316,cover=1.00746381
		6:[f20<0.117117114] yes=13,no=14,missing=14,gain=0.316365898,cover=2.19326401
			13:leaf=-0.0287258513,cover=1.95823646
			14:leaf=0.00847209897,cover=0.235027492
booster[14]:
0:[f107<0.47678259] yes=1,no=2,missing=2,gain=2.19031668,cover=111.242348
	1:[f10<0.121808514] yes=3,no=4,missing=4,gain=1.2056756,cover=65.0794983
		3:[f34<0.0127551025] yes=7,no=8,missing=8,gain=1.18901718,cover=46.9836655
			7:[f131<0.0172413792] yes=15,no=16,missing=16,gain=0.640796185,cover=11.6714973
				15:[f12<0.00293881912] yes=31,no=32,missing=32,gain=0.332782388,cover=5.02797794
					31:leaf=-0.0315589085,cover=4.10093403
					32:[f126<0.357142866] yes=53,no=54,missing=54,gain=0.0460715145,cover=0.927043736
						53:leaf=0.0056184358,cover=0.709792972
						54:leaf=-0.00711764256,cover=0.217250749
				16:[f128<0.00826446246] yes=33,no=34,missing=34,gain=0.726057053,cover=6.64351988
					33:[f127<0.000292528071] yes=55,no=56,missing=56,gain=0.252482474,cover=3.5906918
						55:leaf=-0.022429686,cover=2.73798776
						56:leaf=0.00391530013,cover=0.852704048
					34:[f39<0.0146341464] yes=57,no=58,missing=58,gain=0.20001018,cover=3.05282807
						57:leaf=-0.00886472315,cover=0.304264247
						58:leaf=0.0165325627,cover=2.74856377
			8:[f45<0.0321290009] yes=17,no=18,missing=18,gain=1.17790437,cover=35.3121681
				17:[f44<0.000175208406] yes=35,no=36,missing=36,gain=0.973878503,cover=8.60829449
					35:[f6<0.428570986] yes=59,no=60,missing=60,gain=0.516105533,cover=7.76618767
						59:leaf=0.0272619929,cover=7.2032361
						60:leaf=-0.00974169187,cover=0.562951446
					36:leaf=-0.0185921434,cover=0.842106998
				18:[f85<0.0606541596] yes=37,no=38,missing=38,gain=1.35148311,cover=26.7038708
					37:[f116<0.59125334] yes=61,no=62,missing=62,gain=0.572563648,cover=5.68810034
						61:leaf=-0.0295278709,cover=4.26126051
						62:leaf=0.00381613779,cover=1.42683983
					38:[f127<1.9838526e-06] yes=63,no=64,missing=64,gain=0.569494426,cover=21.0157719
						63:leaf=-0.0025010237,cover=13.2960224
						64:leaf=0.0137922019,cover=7.71974897
		4:[f20<0.438438445] yes=9,no=10,missing=10,gain=1.78180003,cover=18.0958366
			9:[f31<0.285714298] yes=19,no=20,missing=20,gain=0.841039658,cover=14.1039066
				19:[f92<3.47712921e-05] yes=39,no=40,missing=40,gain=0.401801586,cover=12.6344881
					39:leaf=-0.0339386538,cover=8.99106789
					40:[f89<0.0881093293] yes=65,no=66,missing=66,gain=0.358989656,cover=3.64341974
						65:leaf=0.00281662494,cover=2.24333978
						66:leaf=-0.0239258353,cover=1.40008008
				20:[f6<0.333332986] yes=41,no=42,missing=42,gain=0.0492461659,cover=1.46941864
					41:leaf=0.0114530204,cover=0.877436578
					42:[f3<0.25] yes=67,no=68,missing=68,gain=0.00156448665,cover=0.591982126
						67:leaf=0.00036880569,cover=0.223743737
						68:leaf=-0.00290301908,cover=0.36823836
			10:[f126<0.200000003] yes=21,no=22,missing=22,gain=0.291219473,cover=3.99193025
				21:leaf=-0.0120722009,cover=0.407488406
				22:[f13<0.363636374] yes=43,no=44,missing=44,gain=0.12197265,cover=3.5844419
					43:leaf=0.0177515503,cover=3.41879845
					44:leaf=-0.00568016386,cover=0.165643349
	2:[f58<0.388888896] yes=5,no=6,missing=6,gain=0.751834393,cover=46.1628494
		5:[f124<0.970119596] yes=11,no=12,missing=12,gain=0.635054111,cover=34.6019325
			11:[f114<0.851582587] yes=23,no=24,missing=24,gain=0.617178202,cover=33.3948097
				23:[f129<0.00162032433] yes=45,no=46,missing=46,gain=0.711941242,cover=21.1109238
					45:[f128<0.0743801668] yes=69,no=70,missing=70,gain=0.440942317,cover=3.75980854
						69:leaf=-0.0189538673,cover=2.77671456
						70:leaf=0.0113044539,cover=0.983093858
					46:[f110<0.836156487] yes=71,no=72,missing=72,gain=0.545896649,cover=17.3511162
						71:leaf=0.015082947,cover=15.0414619
						72:leaf=-0.00825604051,cover=2.309654
				24:[f47<0.272727013] yes=47,no=48,missing=48,gain=0.326029062,cover=12.2838879
					47:leaf=-0.00948705059,cover=0.289093733
					48:[f84<0.0303358249] yes=73,no=74,missing=74,gain=0.298720598,cover=11.9947939
						73:leaf=0.00656395778,cover=2.95691848
						74:leaf=0.0275508668,cover=9.03787518
			12:[f105<0.331183314] yes=25,no=26,missing=26,gain=0.20673807,cover=1.20711946
				25:leaf=0.00791432988,cover=0.220044747
				26:leaf=-0.0221639685,cover=0.987074792
		6:[f130<0.565538526] yes=13,no=14,missing=14,gain=0.901909292,cover=11.5609169
			13:[f58<0.538461566] yes=27,no=28,missing=28,gain=0.730455458,cover=9.14683437
				27:[f25<0.125] yes=49,no=50,missing=50,gain=0.490625501,cover=5.29188299
					49:leaf=-0.0287271794,cover=3.69553924
					50:[f10<0.060283687] yes=75,no=76,missing=76,gain=0.0154843992,cover=1.59634376
						75:leaf=-0.00288020121,cover=0.347149342
						76:leaf=0.00417776918,cover=1.24919438
				28:[f24<0.0292682927] yes=51,no=52,missing=52,gain=0.155352563,cover=3.85495114
					51:[f1<0.333333343] yes=77,no=78,missing=78,gain=0.0795743167,cover=0.605233729
						77:leaf=-0.0141287465,cover=0.453569859
						78:leaf=0.00548792118,cover=0.151663855
					52:[f104<0.751151979] yes=79,no=80,missing=80,gain=0.117983773,cover=3.24971747
						79:leaf=-0.00727882236,cover=0.216987103
						80:leaf=0.0128008323,cover=3.03273034
			14:[f64<0.0461093336] yes=29,no=30,missing=30,gain=0.256603718,cover=2.41408253
				29:leaf=-0.00812246557,cover=0.237221703
				30:leaf=0.0244581569,cover=2.17686081
booster[15]:
0:[f107<0.541820884] yes=1,no=2,missing=2,gain=2.13265252,cover=111.015022
	1:[f12<0.00293881912] yes=3,no=4,missing=4,gain=1.18593001,cover=78.030365
		3:[f12<0.00187015766] yes=7,no=8,missing=8,gain=1.19075561,cover=57.0515518
			7:[f45<0.0145899998] yes=15,no=16,missing=16,gain=1.40527964,cover=32.1580009
				15:[f13<0.409090906] yes=31,no=32,missing=32,gain=0.21652472,cover=5.41969061
					31:[f127<4.55384325e-05] yes=55,no=56,missing=56,gain=0.280648947,cover=4.59685946
						55:leaf=-0.0307880174,cover=3.81865835
						56:leaf=0.000699438096,cover=0.778200924
					32:[f5<0.714286029] yes=57,no=58,missing=58,gain=0.0470049269,cover=0.822831213
						57:leaf=-0.00703624869,cover=0.222811803
						58:leaf=0.00599518698,cover=0.600019395
				16:[f129<0.00244577252] yes=33,no=34,missing=34,gain=1.22068298,cover=26.7383118
					33:[f12<0.000267165364] yes=59,no=60,missing=60,gain=0.710974038,cover=3.75989008
						59:leaf=0.0100437151,cover=0.962190747
						60:leaf=-0.0303438511,cover=2.79769921
					34:[f100<0.926447988] yes=61,no=62,missing=62,gain=0.671597958,cover=22.9784222
						61:leaf=-0.00260825781,cover=9.24659824
						62:leaf=0.0143397963,cover=13.7318239
			8:[f108<0.604697406] yes=17,no=18,missing=18,gain=0.684052706,cover=24.893549
				17:[f128<0.272727281] yes=35,no=36,missing=36,gain=0.677111387,cover=22.9352264
					35:[f126<0.507142842] yes=63,no=64,missing=64,gain=0.643143654,cover=20.4453163
						63:leaf=-0.0234224238,cover=19.5531216
						64:leaf=0.0109636122,cover=0.892196178
					36:[f128<0.322314054] yes=65,no=66,missing=66,gain=0.332834065,cover=2.4899087
						65:leaf=0.0137077793,cover=1.8913759
						66:leaf=-0.0149896219,cover=0.598532915
				18:[f35<0.0923423395] yes=37,no=38,missing=38,gain=0.175569698,cover=1.95832288
					37:leaf=-0.0094787376,cover=0.301386505
					38:leaf=0.0143411299,cover=1.65693641
		4:[f57<0.0769229978] yes=9,no=10,missing=10,gain=1.12708998,cover=20.9788113
			9:[f39<0.0104529588] yes=19,no=20,missing=20,gain=0.39064911,cover=4.22473717
				19:[f130<0.334955901] yes=39,no=40,missing=40,gain=0.0267861541,cover=1.33830225
					39:leaf=-0.00276415166,cover=0.322944731
					40:[f0<0.142857149] yes=67,no=68,missing=68,gain=0.000330526382,cover=1.01535749
						67:leaf=0.00817208551,cover=0.673504174
						68:leaf=0.00102127751,cover=0.341853291
				20:[f50<0.0372340009] yes=41,no=42,missing=42,gain=0.0614600778,cover=2.88643503
					41:[f2<0.200000003] yes=69,no=70,missing=70,gain=0.0117236972,cover=2.60967779
						69:leaf=-0.00440000556,cover=0.50707072
						70:leaf=-0.0271935742,cover=2.10260701
					42:leaf=-0.000163004312,cover=0.27675721
			10:[f117<0.0810597092] yes=21,no=22,missing=22,gain=0.566223681,cover=16.754076
				21:leaf=-0.0176094007,cover=0.741571367
				22:[f10<0.0898936167] yes=43,no=44,missing=44,gain=0.709569454,cover=16.0125046
					43:[f129<0.483238816] yes=71,no=72,missing=72,gain=0.490496635,cover=9.42017555
						71:leaf=0.0242874976,cover=9.02429962
						72:leaf=-0.0124721918,cover=0.395875394
					44:[f130<0.21813105] yes=73,no=74,missing=74,gain=0.185845673,cover=6.59232855
						73:leaf=-0.0123622185,cover=1.1027714
						74:leaf=0.00474835141,cover=5.48955727
	2:[f50<0.00303000002] yes=5,no=6,missing=6,gain=0.655757666,cover=32.9846573
		5:[f11<0.0210526325] yes=11,no=12,missing=12,gain=0.423641801,cover=6.51922226
			11:[f58<0.636363626] yes=23,no=24,missing=24,gain=0.173743278,cover=2.56530285
				23:[f13<0.5] yes=45,no=46,missing=46,gain=0.0878126025,cover=1.88125634
					45:leaf=-0.0250476729,cover=1.50060582
					46:leaf=0.000203866322,cover=0.380650461
				24:leaf=0.00285580452,cover=0.684046626
			12:[f54<0.00849333312] yes=25,no=26,missing=26,gain=0.171301752,cover=3.95391917
				25:[f10<0.0792553201] yes=47,no=48,missing=48,gain=0.12404941,cover=3.6168766
					47:[f0<0.571428597] yes=75,no=76,missing=76,gain=0.00391948968,cover=0.438259661
						75:leaf=2.28221907e-05,cover=0.226549119
						76:leaf=-0.00704258028,cover=0.211710557
					48:[f127<6.57376586e-05] yes=77,no=78,missing=78,gain=0.0182677805,cover=3.178617
						77:leaf=0.0143788354,cover=2.80425549
						78:leaf=0.000701733225,cover=0.374361336
				26:leaf=-0.0109433094,cover=0.33704257
		6:[f105<0.45718503] yes=13,no=14,missing=14,gain=0.670149088,cover=26.465435
			13:[f54<0.101010665] yes=27,no=28,missing=28,gain=0.321890861,cover=16.7024803
				27:[f54<0.0633253306] yes=49,no=50,missing=50,gain=0.383277714,cover=15.9226618
					49:[f109<0.329589963] yes=79,no=80,missing=80,gain=0.482016027,cover=13.5811071
						79:leaf=0.01848053,cover=3.45193434
						80:leaf=-0.00115674117,cover=10.1291723
					50:[f43<0.0375000089] yes=81,no=82,missing=82,gain=0.0757414699,cover=2.34155512
						81:leaf=0.0272781737,cover=1.89115846
						82:leaf=0.00149645959,cover=0.450396538
				28:[f13<0.227272734] yes=51,no=52,missing=52,gain=0.016132459,cover=0.779817939
					51:leaf=-0.0159509778,cover=0.551463246
					52:leaf=-0.000303005043,cover=0.228354752
			14:[f130<0.00230414746] yes=29,no=30,missing=30,gain=0.119395018,cover=9.76295471
				29:leaf=0.00575432321,cover=1.50986028
				30:[f10<0.149290785] yes=53,no=54,missing=54,gain=0.128103971,cover=8.25309372
					53:[f87<0.0125950305] yes=83,no=84,missing=84,gain=0.110594511,cover=7.36028099
						83:leaf=-0.000650301867,cover=0.27922225
						84:leaf=0.0291391406,cover=7.08105898
					54:leaf=0.0034722127,cover=0.892812908
booster[16]:
0:[f107<0.47678259] yes=1,no=2,missing=2,gain=2.02908731,cover=110.829628
	1:[f127<1.80350227e-07] yes=3,no=4,missing=4,gain=1.15551019,cover=64.9425201
		3:[f10<0.112234041] yes=7,no=8,missing=8,gain=0.667229772,cover=18.221344
			7:[f10<0.0274822693] yes=15,no=16,missing=16,gain=0.422377646,cover=14.0147514
				15:[f78<0.304957449] yes=29,no=30,missing=30,gain=0.169478774,cover=3.0710752
					29:[f12<0.00427464582] yes=55,no=56,missing=56,gain=0.0344871283,cover=2.9207921
						55:leaf=-0.0277157314,cover=2.48597908
						56:leaf=-0.00310427952,cover=0.434812993
					30:leaf=0.00532470597,cover=0.150283098
				16:[f20<0.0210210215] yes=31,no=32,missing=32,gain=0.587857962,cover=10.943676
					31:[f131<0.0129310349] yes=57,no=58,missing=58,gain=0.127572328,cover=3.42877769
						57:leaf=-0.00360469869,cover=0.755054414
						58:leaf=0.0152311912,cover=2.67372322
					32:[f126<0.414285719] yes=59,no=60,missing=60,gain=0.421348512,cover=7.51489878
						59:leaf=-0.0164604094,cover=6.19628572
						60:leaf=0.00935783889,cover=1.31861269
			8:leaf=-0.0316935778,cover=4.20659256
		4:[f104<0.76730299] yes=9,no=10,missing=10,gain=1.02569127,cover=46.7211723
			9:[f12<0.00293881912] yes=17,no=18,missing=18,gain=0.577932656,cover=12.894331
				17:[f90<0.0683040097] yes=33,no=34,missing=34,gain=0.44370985,cover=8.86747742
					33:[f127<0.00145921367] yes=61,no=62,missing=62,gain=0.621425271,cover=6.6060071
						61:leaf=-0.0303790066,cover=5.77386856
						62:leaf=0.00789687876,cover=0.832138479
					34:[f40<0.117456429] yes=63,no=64,missing=64,gain=0.324457645,cover=2.26147008
						63:leaf=0.0115376264,cover=1.51463664
						64:leaf=-0.0165145081,cover=0.746833563
				18:[f102<0.50208199] yes=35,no=36,missing=36,gain=0.253538579,cover=4.02685356
					35:[f0<0.714285731] yes=65,no=66,missing=66,gain=0.0474409685,cover=3.40084791
						65:leaf=0.00974209514,cover=3.28179979
						66:leaf=-0.00433376757,cover=0.119048193
					36:leaf=-0.0148262372,cover=0.626005828
			10:[f34<0.0127551025] yes=19,no=20,missing=20,gain=1.36932111,cover=33.8268433
				19:[f131<0.0172413792] yes=37,no=38,missing=38,gain=0.505062878,cover=6.46289825
					37:[f3<0.75] yes=67,no=68,missing=68,gain=0.086748004,cover=3.16708231
						67:leaf=-0.0294266343,cover=2.8936224
						68:leaf=-6.26940673e-05,cover=0.273459852
					38:[f49<0.0555914454] yes=69,no=70,missing=70,gain=0.645275056,cover=3.29581571
						69:leaf=-0.0215363968,cover=1.19830132
						70:leaf=0.0138933798,cover=2.09751439
				20:[f34<0.0178571437] yes=39,no=40,missing=40,gain=0.768170357,cover=27.3639431
					39:[f83<0.296424836] yes=71,no=72,missing=72,gain=0.640807748,cover=6.55655956
						71:leaf=0.0264084321,cover=6.05042362
						72:leaf=-0.0139742391,cover=0.506135881
					40:[f107<0.340127528] yes=73,no=74,missing=74,gain=1.04455137,cover=20.8073845
						73:leaf=-0.00517327897,cover=13.5331488
						74:leaf=0.0171196032,cover=7.27423525
	2:[f54<0.0265066661] yes=5,no=6,missing=6,gain=0.571096301,cover=45.8871117
		5:[f61<0.0740740001] yes=11,no=12,missing=12,gain=0.449715853,cover=17.1573734
			11:[f14<0.0719209239] yes=21,no=22,missing=22,gain=0.450253248,cover=15.4211254
				21:[f129<0.183066085] yes=41,no=42,missing=42,gain=0.480819315,cover=4.97378206
					41:[f47<0.454544991] yes=75,no=76,missing=76,gain=0.176691234,cover=3.31861567
						75:leaf=-0.00300613791,cover=1.76423264
						76:leaf=-0.0256116968,cover=1.55438316
					42:[f100<0.783698976] yes=77,no=78,missing=78,gain=0.0960675031,cover=1.65516627
						77:leaf=0.0163564291,cover=0.959920168
						78:leaf=-0.00242498121,cover=0.6952461
				22:[f90<6.208782e-05] yes=43,no=44,missing=44,gain=0.374343902,cover=10.4473438
					43:[f128<0.0743801668] yes=79,no=80,missing=80,gain=0.194375187,cover=2.29261041
						79:leaf=-0.0156514049,cover=1.20215034
						80:leaf=0.00632367423,cover=1.09046018
					44:[f62<0.066666998] yes=81,no=82,missing=82,gain=0.35192281,cover=8.15473366
						81:leaf=-0.00184454059,cover=2.36407065
						82:leaf=0.0198358521,cover=5.79066277
			12:[f111<0.764628828] yes=23,no=24,missing=24,gain=0.121821821,cover=1.73624802
				23:leaf=-0.0231997687,cover=1.2356025
				24:[f3<0.25] yes=45,no=46,missing=46,gain=0.000133180176,cover=0.500645518
					45:leaf=0.00166151451,cover=0.274984211
					46:leaf=5.69481999e-05,cover=0.225661308
		6:[f124<0.970119596] yes=13,no=14,missing=14,gain=0.657299161,cover=28.7297382
			13:[f85<0.0535535663] yes=25,no=26,missing=26,gain=0.642574072,cover=26.5204906
				25:[f94<0.000483555254] yes=47,no=48,missing=48,gain=0.738699257,cover=9.47748661
					47:[f129<0.0132683162] yes=83,no=84,missing=84,gain=0.330857813,cover=8.36504078
						83:leaf=-0.00808597635,cover=1.54578447
						84:leaf=0.013596083,cover=6.81925583
					48:leaf=-0.0236725789,cover=1.11244631
				26:[f127<3.15612897e-06] yes=49,no=50,missing=50,gain=0.811495304,cover=17.0430031
					49:[f82<0.00572914165] yes=85,no=86,missing=86,gain=0.174945593,cover=14.8885775
						85:leaf=-0.00553169101,cover=0.157388955
						86:leaf=0.0245189127,cover=14.7311878
					50:[f44<3.37901984e-05] yes=87,no=88,missing=88,gain=0.211891279,cover=2.15442586
						87:leaf=-0.017061241,cover=0.968569934
						88:leaf=0.00619849702,cover=1.18585598
			14:[f11<0.0105263162] yes=27,no=28,missing=28,gain=0.204418302,cover=2.20924807
				27:[f127<4.86945601e-06] yes=51,no=52,missing=52,gain=0.261905491,cover=1.50988758
					51:leaf=-0.0245282818,cover=1.26473963
					52:leaf=0.00861929916,cover=0.245147869
				28:[f10<0.0191489365] yes=53,no=54,missing=54,gain=0.121575259,cover=0.69936049
					53:leaf=0.0140866805,cover=0.476790607
					54:leaf=-0.00811681617,cover=0.222569913
booster[17]:
0:[f25<0.0625] yes=1,no=2,missing=2,gain=2.05535078,cover=110.608902
	1:[f127<0.00116398034] yes=3,no=4,missing=4,gain=1.35799873,cover=55.7321243
		3:[f64<0.0914293304] yes=7,no=8,missing=8,gain=1.18256199,cover=51.3097496
			7:[f88<0.0814294219] yes=15,no=16,missing=16,gain=1.05291343,cover=42.1725006
				15:[f126<0.400000006] yes=27,no=28,missing=28,gain=0.784063339,cover=29.9305954
					27:[f127<3.38156678e-05] yes=45,no=46,missing=46,gain=0.593268394,cover=25.2160568
						45:leaf=-0.0235984251,cover=22.127327
						46:leaf=-0.000201971619,cover=3.08872962
					28:[f126<0.428571433] yes=47,no=48,missing=48,gain=0.659569323,cover=4.71453857
						47:leaf=0.0120711206,cover=3.45765686
						48:leaf=-0.0211130343,cover=1.25688171
				16:[f115<0.737152994] yes=29,no=30,missing=30,gain=0.848750174,cover=12.2419071
					29:[f130<0.79474777] yes=49,no=50,missing=50,gain=0.377334803,cover=9.64542961
						49:leaf=0.0101592578,cover=8.9585886
						50:leaf=-0.0160079133,cover=0.686840296
					30:[f2<0.600000024] yes=51,no=52,missing=52,gain=0.154748201,cover=2.59647751
						51:leaf=-0.0247599147,cover=2.23056245
						52:leaf=0.00293113943,cover=0.36591506
			8:[f82<0.0105829183] yes=17,no=18,missing=18,gain=1.0829078,cover=9.13724709
				17:[f85<0.166666672] yes=31,no=32,missing=32,gain=0.463910878,cover=5.56720781
					31:[f7<0.714286029] yes=53,no=54,missing=54,gain=0.258660495,cover=3.51862025
						53:leaf=-0.0238341074,cover=2.2804122
						54:leaf=0.00171320408,cover=1.23820794
					32:[f8<0.428570986] yes=55,no=56,missing=56,gain=0.218923748,cover=2.0485878
						55:leaf=-0.010365936,cover=0.355072916
						56:leaf=0.0156828072,cover=1.69351482
				18:[f1<0.333333343] yes=33,no=34,missing=34,gain=0.0635071993,cover=3.57003951
					33:leaf=0.0262536593,cover=3.34261131
					34:leaf=-0.00015985615,cover=0.227428168
		4:[f64<0.0236000009] yes=9,no=10,missing=10,gain=0.364594579,cover=4.42237568
			9:[f129<0.0313823186] yes=19,no=20,missing=20,gain=0.216804773,cover=1.64212501
				19:[f0<0.142857149] yes=35,no=36,missing=36,gain=0.0135768726,cover=1.06166959
					35:leaf=0.0115993675,cover=0.677764118
					36:leaf=0.000311419106,cover=0.383905411
				20:leaf=-0.0149997715,cover=0.580455482
			10:[f0<0.285714298] yes=21,no=22,missing=22,gain=0.0694452524,cover=2.78025079
				21:leaf=-0.000157611736,cover=0.227416396
				22:leaf=0.0276609063,cover=2.55283451
	2:[f75<0.229166672] yes=5,no=6,missing=6,gain=1.04664183,cover=54.8767738
		5:[f72<0.015236401] yes=11,no=12,missing=12,gain=0.750227928,cover=52.8423004
			11:[f132<0.036144577] yes=23,no=24,missing=24,gain=0.689296246,cover=33.6985283
				23:[f57<0.0799999982] yes=37,no=38,missing=38,gain=0.841575503,cover=22.4355202
					37:[f112<0.604947507] yes=57,no=58,missing=58,gain=0.169122696,cover=1.94184399
						57:leaf=0.00289731752,cover=0.56238234
						58:leaf=-0.0232681111,cover=1.37946165
					38:[f114<0.828019023] yes=59,no=60,missing=60,gain=0.508449793,cover=20.4936752
						59:leaf=-0.00171607046,cover=5.12831163
						60:leaf=0.0160168689,cover=15.3653631
				24:[f132<0.393574297] yes=39,no=40,missing=40,gain=1.23925519,cover=11.26301
					39:[f45<0.0526730008] yes=61,no=62,missing=62,gain=0.381163836,cover=7.77082205
						61:leaf=-0.024207728,cover=4.7591238
						62:leaf=-0.00166210462,cover=3.01169825
					40:[f130<0.156163216] yes=63,no=64,missing=64,gain=0.61358577,cover=3.49218798
						63:leaf=-0.00717805093,cover=1.41065311
						64:leaf=0.0286748838,cover=2.08153486
			12:[f129<0.00926336367] yes=25,no=26,missing=26,gain=0.578172684,cover=19.1437702
				25:[f129<0.00143689138] yes=41,no=42,missing=42,gain=0.431909859,cover=7.93298912
					41:[f82<0.00645251432] yes=65,no=66,missing=66,gain=0.127144784,cover=3.33362746
						65:leaf=-0.00144909101,cover=0.692677975
						66:leaf=0.0200175028,cover=2.64094949
					42:[f119<0.75586462] yes=67,no=68,missing=68,gain=0.220618248,cover=4.5993619
						67:leaf=0.00960855093,cover=1.06014049
						68:leaf=-0.010491685,cover=3.53922129
				26:[f122<0.977393091] yes=43,no=44,missing=44,gain=0.218939304,cover=11.2107811
					43:[f10<0.149290785] yes=69,no=70,missing=70,gain=0.239599228,cover=10.6150894
						69:leaf=0.0269786101,cover=9.30950356
						70:leaf=0.00230257912,cover=1.30558634
					44:[f1<0.333333343] yes=71,no=72,missing=72,gain=0.1032582,cover=0.595691204
						71:leaf=-0.0113660796,cover=0.343877494
						72:leaf=0.00876370631,cover=0.25181371
		6:[f20<0.117117114] yes=13,no=14,missing=14,gain=0.242398381,cover=2.03447556
			13:leaf=-0.0267830547,cover=1.83021867
			14:leaf=0.00717869354,cover=0.204256833
booster[18]:
0:[f107<0.541820884] yes=1,no=2,missing=2,gain=1.83801234,cover=110.450897
	1:[f12<0.00293881912] yes=3,no=4,missing=4,gain=1.06557393,cover=77.5122604
		3:[f127<0.000547543284] yes=7,no=8,missing=8,gain=1.15769958,cover=56.8106499
			7:[f108<0.538098574] yes=15,no=16,missing=16,gain=0.983746052,cover=52.9252892
				15:[f52<0.125] yes=31,no=32,missing=32,gain=1.00209212,cover=49.0798149
					31:[f128<0.0247933883] yes=57,no=58,missing=58,gain=1.08061552,cover=38.2889023
						57:leaf=-0.0212948062,cover=25.0284595
						58:leaf=-0.00345623842,cover=13.2604446
					32:[f74<0.0726374015] yes=59,no=60,missing=60,gain=0.832821906,cover=10.7909117
						59:leaf=0.00787348207,cover=9.27851677
						60:leaf=-0.0242604204,cover=1.51239443
				16:[f55<0.0382170007] yes=33,no=34,missing=34,gain=0.542215884,cover=3.84547424
					33:[f42<3.00357315e-05] yes=61,no=62,missing=62,gain=0.168840826,cover=3.22997403
