{"learner":{"attributes":{},"feature_names":[],"feature_types":[],"gradient_booster":{"model":{"gbtree_model_param":{"num_parallel_tree":"1","num_trees":"100"},"iteration_indptr":[0,1,2,3,4,5,6,7,8,9,10,11,12,13,14,15,16,17,18,19,20,21,22,23,24,25,26,27,28,29,30,31,32,33,34,35,36,37,38,39,40,41,42,43,44,45,46,47,48,49,50,51,52,53,54,55,56,57,58,59,60,61,62,63,64,65,66,67,68,69,70,71,72,73,74,75,76,77,78,79,80,81,82,83,84,85,86,87,88,89,90,91,92,93,94,95,96,97,98,99,100],"tree_info":[0,0,0,0,0,0,0,0,0,0,0,0,0,0,0,0,0,0,0,0,0,0,0,0,0,0,0,0,0,0,0,0,0,0,0,0,0,0,0,0,0,0,0,0,0,0,0,0,0,0,0,0,0,0,0,0,0,0,0,0,0,0,0,0,0,0,0,0,0,0,0,0,0,0,0,0,0,0,0,0,0,0,0,0,0,0,0,0,0,0,0,0,0,0,0,0,0,0,0,0],"trees":[{"base_weights":[2.1680966E-9,-2.4619886E-1,3.7678334E-1,-3.4322193E-1,1.2391555E-1,-5.5707905E-2,4.8722437E-1,-4.248397E-1,4.6336752E-1,-2.8812775E-1,4.0243384E-1,3.3292946E-1,-3.6510193E-1,1.5116846E-2,5.9370685E-1,-5.3174853E-1,9.596951E-2,-9.7488634E-2,5.360416E-1,-5.961901E-1,3.4722814E-1,5.629305E-1,-3.0279195E-1,-1.7128536E-2,2.6800904E-2,2.0947315E-1,-5.035682E-1,-9.511581E-2,1.725532E-2,6.289794E-1,-1.7804734E-1,-5.904449E-1,1.3617262E-1,-3.813508E-1,2.3436326E-1,-7.537184E-3,2.0638665E-3,5.8595103E-1,-5.469698E-3,-3.4309145E-2,-6.609848E-2,2.2616798E-2,-7.191664E-3,6.28711E-1,-4.158172E-2,-1.9201735E-2,1.6071854E-2,1.570589E-2,-5.7524173E-3,-3.0855639E-2,8.433595E-3,-3.452917E-1,1.7719336E-1,2.3060927E-1,7.092914E-1,-1.4967618E-2,4.539619E-3,-3.0783493E-2,7.5777727E-3,2.2136135E-2,-1.8729499E-2,-2.0660065E-2,-3.5515023E-4,1.5575674E-2,-7.7823373E-3,2.998066E-2,2.1266548E-3,-7.3861605E-3,3.5547034E-3,-5.4523866E-3,3.323106E-2,-5.052565E-3,2.6704855E-3,-3.5515023E-4,1.2735669E-3,-1.9978095E-2,2.6704855E-3,1.9284714E-2,-8.116483E-3,1.869918E-2,-1.2444963E-2,3.613998E-2,-5.903972E-3],"categories":[],"categories_nodes":[],"categories_segments":[],"categories_sizes":[],"default_left":[0,0,0,0,0,0,0,0,0,0,0,0,0,0,0,0,0,0,0,0,0,0,0,0,0,0,0,0,0,0,0,0,0,0,0,0,0,0,0,0,0,0,0,0,0,0,0,0,0,0,0,0,0,0,0,0,0,0,0,0,0,0,0,0,0,0,0,0,0,0,0,0,0,0,0,0,0,0,0,0,0,0,0],"id":0,"left_children":[1,3,5,7,9,11,13,15,17,19,21,23,25,27,29,31,33,35,37,39,41,43,45,-1,-1,47,49,51,-1,53,55,57,59,61,63,-1,-1,65,-1,-1,67,-1,-1,69,71,-1,73,-1,-1,-1,-1,75,77,79,81,-1,-1,-1,-1,-1,-1,-1,-1,-1,-1,-1,-1,-1,-1,-1,-1,-1,-1,-1,-1,-1,-1,-1,-1,-1,-1,-1,-1],"loss_changes":[7.8629932E0,1.8834605E0,1.627173E0,2.8882794E0,1.4222207E0,1.0487934E0,1.3376241E0,2.147244E0,2.2487879E-1,1.2196288E0,9.864005E-1,7.242825E-1,4.8501295E-1,2.4947438E-1,7.0625925E-1,1.3109941E0,5.6889665E-1,1.6065296E-2,1.898328E-1,1.3841331E-1,1.8487391E-1,2.735691E-1,5.763848E-2,0E0,0E0,9.1580704E-2,4.1992486E-1,4.1873574E-1,0E0,5.114145E-1,8.371214E-2,6.3686085E-1,6.9008267E-1,2.1051109E-2,2.3644924E-1,0E0,0E0,2.5627613E-3,0E0,0E0,2.9154934E-2,0E0,0E0,2.227869E-1,1.4145272E-2,0E0,4.7787928E-4,0E0,0E0,0E0,0E0,8.786595E-2,2.872947E-1,4.3830174E-1,2.761917E-1,0E0,0E0,0E0,0E0,0E0,0E0,0E0,0E0,0E0,0E0,0E0,0E0,0E0,0E0,0E0,0E0,0E0,0E0,0E0,0E0,0E0,0E0,0E0,0E0,0E0,0E0,0E0,0E0],"parents":[2147483647,0,0,1,1,2,2,3,3,4,4,5,5,6,6,7,7,8,8,9,9,10,10,11,11,12,12,13,13,14,14,15,15,16,16,17,17,18,18,19,19,20,20,21,21,22,22,25,25,26,26,27,27,29,29,30,30,31,31,32,32,33,33,34,34,37,37,40,40,43,43,44,44,46,46,51,51,52,52,53,53,54,54],"right_children":[2,4,6,8,10,12,14,16,18,20,22,24,26,28,30,32,34,36,38,40,42,44,46,-1,-1,48,50,52,-1,54,56,58,60,62,64,-1,-1,66,-1,-1,68,-1,-1,70,72,-1,74,-1,-1,-1,-1,76,78,80,82,-1,-1,-1,-1,-1,-1,-1,-1,-1,-1,-1,-1,-1,-1,-1,-1,-1,-1,-1,-1,-1,-1,-1,-1,-1,-1,-1,-1],"split_conditions":[4.767826E-1,2.3402216E-1,7.766058E-3,5.475433E-4,2.008032E-2,3.6652915E-2,2.632654E-5,1.6085608E-2,1.8181819E-1,1.021021E-1,9.3593836E-2,1.5250099E-1,5.036246E-1,6.61157E-2,1.1110933E-1,2.1621622E-1,9.0909E-2,7.5405973E-1,1.9485815E-1,5.2632E-2,7.5E-1,5.814E-2,1.6666667E-1,-1.7128536E-2,2.6800904E-2,2.5E-1,4.8486993E-1,2.008032E-2,1.725532E-2,4.310345E-3,7.807808E-2,6.506024E-1,2.7027026E-1,2.2916667E-1,9.792298E-1,-7.537184E-3,2.0638665E-3,5E-1,-5.469698E-3,-3.4309145E-2,4.3243E-2,2.2616798E-2,-7.191664E-3,1.3636364E-1,1.3358268E-3,-1.9201735E-2,6.6066064E-2,1.570589E-2,-5.7524173E-3,-3.0855639E-2,8.433595E-3,3.75E-1,4.4176705E-2,1.2048192E-2,2.9521278E-1,-1.4967618E-2,4.539619E-3,-3.0783493E-2,7.5777727E-3,2.2136135E-2,-1.8729499E-2,-2.0660065E-2,-3.5515023E-4,1.5575674E-2,-7.7823373E-3,2.998066E-2,2.1266548E-3,-7.3861605E-3,3.5547034E-3,-5.4523866E-3,3.323106E-2,-5.052565E-3,2.6704855E-3,-3.5515023E-4,1.2735669E-3,-1.9978095E-2,2.6704855E-3,1.9284714E-2,-8.116483E-3,1.869918E-2,-1.2444963E-2,3.613998E-2,-5.903972E-3],"split_indices":[107,83,75,127,132,89,90,87,13,35,71,130,107,128,66,35,57,110,10,52,3,60,25,0,0,3,106,132,0,131,35,132,35,25,115,0,0,58,0,0,45,0,0,13,12,0,20,0,0,0,0,125,132,132,10,0,0,0,0,0,0,0,0,0,0,0,0,0,0,0,0,0,0,0,0,0,0,0,0,0,0,0,0],"split_type":[0,0,0,0,0,0,0,0,0,0,0,0,0,0,0,0,0,0,0,0,0,0,0,0,0,0,0,0,0,0,0,0,0,0,0,0,0,0,0,0,0,0,0,0,0,0,0,0,0,0,0,0,0,0,0,0,0,0,0,0,0,0,0,0,0,0,0,0,0,0,0,0,0,0,0,0,0,0,0,0,0,0,0],"sum_hessian":[8.2763756E1,5.026562E1,3.249813E1,3.988317E1,1.0382452E1,6.7114453E0,2.5786686E1,3.6648087E1,3.2350857E0,4.1735497E0,6.2089024E0,2.9410505E0,3.7703948E0,4.9558926E0,2.0830793E1,3.0388996E1,6.2590895E0,3.3193737E-1,2.9031484E0,2.8522403E0,1.3213097E0,5.222197E0,9.867052E-1,5.2107614E-1,2.4199746E0,6.3259363E-1,3.1378012E0,4.2484603E0,7.0743245E-1,2.0097261E1,7.335311E-1,2.8040789E1,2.3482068E0,1.0122586E0,5.246831E0,1.7750081E-1,1.5443656E-1,2.7803173E0,1.2283091E-1,2.186569E0,6.656712E-1,1.1533128E0,1.6799681E-1,4.673605E0,5.48592E-1,6.234681E-1,3.6323708E-1,5.025884E-1,1.3000523E-1,2.7545497E0,3.8325137E-1,2.0745323E0,2.1739278E0,4.021403E0,1.607586E1,4.272509E-1,3.0628023E-1,2.7283522E1,7.572675E-1,1.5507114E0,7.974953E-1,8.3694524E-1,1.7531338E-1,4.5483603E0,6.984708E-1,2.6112566E0,1.6906083E-1,3.6923254E-1,2.9643866E-1,1.22394584E-1,4.5512104E0,2.9814428E-1,2.504477E-1,1.7531338E-1,1.879237E-1,1.8240845E0,2.504477E-1,1.2625859E0,9.113419E-1,3.2651756E0,7.562274E-1,1.5941971E1,1.3388897E-1],"tree_param":{"num_deleted":"0","num_feature":"136","num_nodes":"83","size_leaf_vector":"1"}},{"base_weights":[-8.895162E-8,-3.938177E-1,1.24890074E-1,-6.236631E-1,-2.2229722E-2,-4.128526E-1,2.1037793E-1,-6.975677E-1,8.684862E-2,-3.389445E-1,4.5823374E-1,-6.151938E-1,3.8596675E-1,5.657297E-2,4.153782E-1,-7.829095E-1,-1.2759358E-1,-1.1343385E-2,2.1889824E-1,-4.898474E-1,1.4637429E-1,-7.2283246E-2,6.204025E-1,-7.600573E-1,1.0046365E-1,2.2704902E-3,2.3830758E-2,2.1431042E-1,-1.6283794E-1,5.947364E-1,5.595914E-2,-8.103764E-1,-5.0820347E-2,1.2331806E-2,-3.4560883E-1,1.580192E-3,1.2483792E-2,-6.1925334E-1,-4.6571642E-2,1.5362001E-2,-1.258799E-2,-1.648011E-2,9.832086E-3,3.309042E-2,6.16679E-3,8.733996E-3,-8.0484354E-1,-1.5119459E-1,1.5660528E-2,2.785034E-1,-2.0571864E-1,5.596884E-2,-4.241057E-1,1.6019295E-1,7.5928235E-1,-5.2790236E-1,4.0675184E-1,-4.2965915E-2,-7.597472E-3,1.580192E-3,-5.713491E-3,-2.6390934E-2,7.413277E-3,-3.7390474E-2,-1.4796806E-3,2.0036886E-3,-8.836465E-3,-4.2865884E-2,2.3167043E-3,-9.880844E-3,1.0063548E-4,-9.630545E-3,1.8269304E-2,5.8805267E-3,-1.8610213E-2,2.6107097E-2,-8.3082905E-3,-2.775926E-2,8.509967E-3,-1.5760692E-2,3.2067716E-2,4.1063484E-2,9.282647E-4,-3.357586E-2,6.49639E-3,3.593994E-2,-1.8144231E-2],"categories":[],"categories_nodes":[],"categories_segments":[],"categories_sizes":[],"default_left":[0,0,0,0,0,0,0,0,0,0,0,0,0,0,0,0,0,0,0,0,0,0,0,0,0,0,0,0,0,0,0,0,0,0,0,0,0,0,0,0,0,0,0,0,0,0,0,0,0,0,0,0,0,0,0,0,0,0,0,0,0,0,0,0,0,0,0,0,0,0,0,0,0,0,0,0,0,0,0,0,0,0,0,0,0,0,0],"id":1,"left_children":[1,3,5,7,9,11,13,15,17,19,21,23,25,27,29,31,33,-1,35,37,39,41,43,45,47,-1,-1,49,51,53,55,57,59,-1,61,-1,-1,63,65,-1,-1,-1,-1,-1,-1,-1,67,69,-1,71,73,75,77,79,81,83,85,-1,-1,-1,-1,-1,-1,-1,-1,-1,-1,-1,-1,-1,-1,-1,-1,-1,-1,-1,-1,-1,-1,-1,-1,-1,-1,-1,-1,-1,-1],"loss_changes":[6.466558E0,2.6898007E0,4.6756763E0,1.0856457E0,2.1540189E0,2.5051553E0,2.7130318E0,7.655935E-1,1.6269204E-1,6.935597E-1,5.303755E-1,1.2768764E0,8.486235E-2,1.7911495E0,2.354887E0,2.660885E-1,3.717643E-1,0E0,6.1121956E-3,3.5590482E-1,2.5564975E-1,2.1822095E-1,9.482145E-3,5.4864216E-1,1.9901481E-1,0E0,0E0,8.649225E-1,1.2695063E0,1.6380167E0,2.9667056E0,3.4188557E-1,1.20809395E-2,0E0,3.1542522E-1,0E0,0E0,3.6525428E-1,3.636918E-2,0E0,0E0,0E0,0E0,0E0,0E0,0E0,4.6314E-1,1.4423724E-2,0E0,1.1512723E0,2.8848743E-1,1.4063373E0,8.7730074E-1,2.0382462E0,7.920761E-1,6.0479116E-1,2.4122958E0,0E0,0E0,0E0,0E0,0E0,0E0,0E0,0E0,0E0,0E0,0E0,0E0,0E0,0E0,0E0,0E0,0E0,0E0,0E0,0E0,0E0,0E0,0E0,0E0,0E0,0E0,0E0,0E0,0E0,0E0],"parents":[2147483647,0,0,1,1,2,2,3,3,4,4,5,5,6,6,7,7,8,8,9,9,10,10,11,11,12,12,13,13,14,14,15,15,16,16,18,18,19,19,20,20,21,21,22,22,23,23,24,24,27,27,28,28,29,29,30,30,31,31,32,32,34,34,37,37,38,38,46,46,47,47,49,49,50,50,51,51,52,52,53,53,54,54,55,55,56,56],"right_children":[2,4,6,8,10,12,14,16,18,20,22,24,26,28,30,32,34,-1,36,38,40,42,44,46,48,-1,-1,50,52,54,56,58,60,-1,62,-1,-1,64,66,-1,-1,-1,-1,-1,-1,-1,68,70,-1,72,74,76,78,80,82,84,86,-1,-1,-1,-1,-1,-1,-1,-1,-1,-1,-1,-1,-1,-1,-1,-1,-1,-1,-1,-1,-1,-1,-1,-1,-1,-1,-1,-1,-1,-1],"split_conditions":[1.484E-3,4.5455E-2,8.45231E-1,4.804805E-1,6.222083E-6,1.9387903E-2,4.2695823E-1,1.0761499E-3,1.8181819E-1,1.0721503E-2,4.9603328E-2,1.1364E-2,5.714286E-1,1.8701577E-3,8.520371E-1,1.2562635E-2,7.978723E-3,-1.1343385E-2,5.714286E-1,2.6585457E-1,7.5531915E-2,3.1578947E-2,8.9087E-2,1.5015015E-2,9.0175114E-8,2.2704902E-3,2.3830758E-2,4.4444E-2,2.72727E-1,9.26038E-1,4.9159047E-1,4.274646E-3,3.3333334E-1,1.2331806E-2,6.666667E-1,1.580192E-3,1.2483792E-2,7.5E-1,1.1210762E-1,1.5362001E-2,-1.258799E-2,-1.648011E-2,9.832086E-3,3.309042E-2,6.16679E-3,8.733996E-3,1.05324536E-4,8.457447E-2,1.5660528E-2,9.62599E-1,1.9148936E-2,7.5444764E-1,4.4843048E-2,3.9894E-2,2.1660691E-2,8.949553E-1,8.333333E-2,-4.2965915E-2,-7.597472E-3,1.580192E-3,-5.713491E-3,-2.6390934E-2,7.413277E-3,-3.7390474E-2,-1.4796806E-3,2.0036886E-3,-8.836465E-3,-4.2865884E-2,2.3167043E-3,-9.880844E-3,1.0063548E-4,-9.630545E-3,1.8269304E-2,5.8805267E-3,-1.8610213E-2,2.6107097E-2,-8.3082905E-3,-2.775926E-2,8.509967E-3,-1.5760692E-2,3.2067716E-2,4.1063484E-2,9.282647E-4,-3.357586E-2,6.49639E-3,3.593994E-2,-1.8144231E-2],"split_indices":[50,62,104,20,127,72,109,127,13,44,129,50,0,12,120,82,10,0,0,83,10,11,45,20,127,0,0,50,47,104,105,12,1,0,1,0,0,7,30,0,0,0,0,0,0,0,127,10,0,104,10,115,30,55,90,130,75,0,0,0,0,0,0,0,0,0,0,0,0,0,0,0,0,0,0,0,0,0,0,0,0,0,0,0,0,0,0],"split_type":[0,0,0,0,0,0,0,0,0,0,0,0,0,0,0,0,0,0,0,0,0,0,0,0,0,0,0,0,0,0,0,0,0,0,0,0,0,0,0,0,0,0,0,0,0,0,0,0,0,0,0,0,0,0,0,0,0,0,0,0,0,0,0,0,0,0,0,0,0,0,0,0,0,0,0,0,0,0,0,0,0,0,0,0,0,0,0],"sum_hessian":[1.2947702E2,3.0655947E1,9.882107E1,1.8521263E1,1.2134684E1,1.3029909E1,8.579116E1,1.6792765E1,1.7284987E0,7.4911613E0,4.643522E0,1.0579891E1,2.4500184E0,4.974505E1,3.604611E1,1.4280907E1,2.5118577E0,2.9932642E-1,1.4291723E0,5.707245E0,1.7839168E0,1.2168862E0,3.4266357E0,8.747233E0,1.8326575E0,8.305753E-1,1.6194432E0,2.8953344E1,2.0791702E1,2.3609648E1,1.2436462E1,1.3661414E1,6.194925E-1,8.763306E-1,1.6355271E0,4.8776522E-1,9.4140697E-1,4.110321E0,1.5969237E0,1.4331529E0,3.5076395E-1,5.0655943E-1,7.103268E-1,2.8572018E0,5.69434E-1,2.6733667E-1,8.479897E0,9.7209203E-1,8.605654E-1,2.5407295E1,3.5460496E0,1.1742969E1,9.048734E0,7.026681E0,1.6582968E1,4.478138E0,7.9583244E0,1.2432203E1,1.2292116E0,4.8776522E-1,1.3172723E-1,1.1445327E0,4.9099436E-1,3.1544013E0,9.559196E-1,1.3742228E0,2.2270095E-1,7.9806843E0,4.9921286E-1,5.235797E-1,4.4851226E-1,3.7665546E0,2.1640741E1,1.3050674E0,2.240982E0,3.3538966E0,8.389072E0,7.467526E0,1.5812081E0,3.7079585E0,3.3187225E0,1.5202026E1,1.3809406E0,3.6586006E0,8.195372E-1,5.7094846E0,2.2488399E0],"tree_param":{"num_deleted":"0","num_feature":"136","num_nodes":"87","size_leaf_vector":"1"}},{"base_weights":[-2.6870326E-9,-1.2086905E-1,2.7396405E-1,-2.3511429E-1,8.754159E-2,7.465768E-2,5.788255E-1,-3.0535924E-1,2.3119487E-1,-2.0005058E-2,4.2148176E-1,-4.4754666E-1,1.816888E-1,6.084335E-1,-9.785815E-3,-3.6170045E-1,2.4946196E-1,-3.8815284E-1,3.8676682E-1,-2.787587E-1,1.7467706E-1,5.5674154E-1,-1.2959643E-1,1.2597033E-4,-2.6306976E-2,3.120468E-2,6.447683E-2,-8.204828E-3,6.305382E-1,-4.016793E-1,2.410128E-1,5.7274884E-1,-2.4158671E-1,-1.4105071E-4,-2.2112692E-2,-1.7264394E-2,3.162455E-2,-1.9630024E-2,-5.7553935E-1,-2.3964818E-1,3.7477565E-1,-6.904864E-2,6.433349E-1,-1.5826678E-1,3.8758025E-4,-6.629315E-2,4.2752942E-1,4.802244E-2,6.555851E-1,-1.3603495E-2,-3.843386E-2,-1.4423087E-2,2.0599842E-2,3.1098485E-2,4.748496E-3,8.918945E-3,-2.3188403E-2,1.4303766E-2,-1.1201247E-2,1.662059E-2,-1.725389E-2,-3.0335829E-2,3.0295246E-3,5.7361005E-3,-3.0688552E-2,2.4721688E-2,-1.4508239E-2,2.0340742E-3,-7.432833E-3,8.88506E-3,3.4774087E-2,-9.653924E-4,-8.538521E-3,-1.032644E-2,8.0668265E-3,-8.2328E-3,2.4525164E-2,-8.14131E-4,3.9735152E-3,3.3136602E-2,1.645856E-3],"categories":[],"categories_nodes":[],"categories_segments":[],"categories_sizes":[],"default_left":[0,0,0,0,0,0,0,0,0,0,0,0,0,0,0,0,0,0,0,0,0,0,0,0,0,0,0,0,0,0,0,0,0,0,0,0,0,0,0,0,0,0,0,0,0,0,0,0,0,0,0,0,0,0,0,0,0,0,0,0,0,0,0,0,0,0,0,0,0,0,0,0,0,0,0,0,0,0,0,0,0],"id":2,"left_children":[1,3,5,7,9,11,13,15,17,19,21,23,25,27,-1,29,31,33,35,37,39,41,43,-1,-1,-1,45,-1,47,49,51,53,55,-1,-1,57,-1,59,61,63,65,67,69,71,-1,73,75,77,79,-1,-1,-1,-1,-1,-1,-1,-1,-1,-1,-1,-1,-1,-1,-1,-1,-1,-1,-1,-1,-1,-1,-1,-1,-1,-1,-1,-1,-1,-1,-1,-1],"loss_changes":[4.1276045E0,2.0799189E0,2.275326E0,1.9094331E0,1.1344519E0,1.4351238E0,4.6161604E-1,1.6287808E0,9.131038E-1,1.2914443E0,6.4482975E-1,1.5727383E-1,1.0390224E0,3.5330057E-1,0E0,1.1832862E0,9.526226E-1,4.229787E-2,6.889781E-1,8.329068E-1,1.3079355E0,3.8893878E-1,1.03834085E-2,0E0,0E0,0E0,8.624521E-1,0E0,1.7904854E-1,1.8200479E0,4.2935306E-1,2.0643473E-2,3.3835325E-1,0E0,0E0,2.8713432E-1,0E0,9.047596E-1,1.3754332E-1,7.8566504E-1,9.6282196E-1,2.0687021E-2,1.4373541E-2,1.2637302E-4,0E0,4.7327438E-1,2.5927114E-1,4.6790484E-3,3.9399624E-2,0E0,0E0,0E0,0E0,0E0,0E0,0E0,0E0,0E0,0E0,0E0,0E0,0E0,0E0,0E0,0E0,0E0,0E0,0E0,0E0,0E0,0E0,0E0,0E0,0E0,0E0,0E0,0E0,0E0,0E0,0E0,0E0],"parents":[2147483647,0,0,1,1,2,2,3,3,4,4,5,5,6,6,7,7,8,8,9,9,10,10,11,11,12,12,13,13,15,15,16,16,17,17,18,18,19,19,20,20,21,21,22,22,26,26,28,28,29,29,30,30,31,31,32,32,35,35,37,37,38,38,39,39,40,40,41,41,42,42,43,43,45,45,46,46,47,47,48,48],"right_children":[2,4,6,8,10,12,14,16,18,20,22,24,26,28,-1,30,32,34,36,38,40,42,44,-1,-1,-1,46,-1,48,50,52,54,56,-1,-1,58,-1,60,62,64,66,68,70,72,-1,74,76,78,80,-1,-1,-1,-1,-1,-1,-1,-1,-1,-1,-1,-1,-1,-1,-1,-1,-1,-1,-1,-1,-1,-1,-1,-1,-1,-1,-1,-1,-1,-1,-1,-1],"split_conditions":[5.5324876E-1,2.3981E-2,6.700267E-2,2.9252807E-4,1.7329233E-2,4.539007E-2,9.675575E-1,2.3372889E-1,1.5E-1,6.312258E-7,5.036246E-1,4.0816326E-2,4.551957E-2,3.3046424E-1,-9.785815E-3,4.3843845E-1,3.7037E-2,1.0686615E-3,7.44081E-1,2.811245E-2,8.427E-1,2.30769E-1,1E0,1.2597033E-4,-2.6306976E-2,3.120468E-2,4.2142856E-1,-8.204828E-3,1.25950305E-2,6.278027E-2,2.5E-1,8.989362E-2,3.4615386E-1,-1.4105071E-4,-2.2112692E-2,3.138232E-2,3.162455E-2,1.1552267E-1,3.7403153E-3,5.0498065E-6,2.6530612E-1,5.714286E-1,9.0175114E-8,6.3375756E-2,3.8758025E-4,1.5154596E-2,1.4281136E-1,3.3333334E-1,1E0,-1.3603495E-2,-3.843386E-2,-1.4423087E-2,2.0599842E-2,3.1098485E-2,4.748496E-3,8.918945E-3,-2.3188403E-2,1.4303766E-2,-1.1201247E-2,1.662059E-2,-1.725389E-2,-3.0335829E-2,3.0295246E-3,5.7361005E-3,-3.0688552E-2,2.4721688E-2,-1.4508239E-2,2.0340742E-3,-7.432833E-3,8.88506E-3,3.4774087E-2,-9.653924E-4,-8.538521E-3,-1.032644E-2,8.0668265E-3,-8.2328E-3,2.4525164E-2,-8.14131E-4,3.9735152E-3,3.3136602E-2,1.645856E-3],"split_indices":[107,60,64,127,72,10,124,73,126,127,107,29,14,109,0,20,45,12,100,132,100,47,1,0,0,0,126,0,87,30,125,10,48,0,0,129,0,59,12,127,79,0,127,84,0,75,130,1,13,0,0,0,0,0,0,0,0,0,0,0,0,0,0,0,0,0,0,0,0,0,0,0,0,0,0,0,0,0,0,0,0],"split_type":[0,0,0,0,0,0,0,0,0,0,0,0,0,0,0,0,0,0,0,0,0,0,0,0,0,0,0,0,0,0,0,0,0,0,0,0,0,0,0,0,0,0,0,0,0,0,0,0,0,0,0,0,0,0,0,0,0,0,0,0,0,0,0,0,0,0,0,0,0,0,0,0,0,0,0,0,0,0,0,0,0],"sum_hessian":[1.2264916E2,8.549069E1,3.7158463E1,5.5137585E1,3.035311E1,2.3221832E1,1.393663E1,4.8219013E1,6.9185715E0,2.3670147E1,6.682963E0,3.408809E0,1.9813025E1,1.3630061E1,3.0656928E-1,4.4089844E1,4.1291733E0,1.0888287E0,5.8297424E0,9.977328E0,1.3692818E1,5.357669E0,1.3252938E0,6.5066814E-1,2.7581408E0,3.244081E0,1.6568943E1,2.0046605E-1,1.3429595E1,4.166002E1,2.4298232E0,2.3895862E0,1.7395871E0,2.635869E-1,8.252418E-1,2.5562983E0,3.2734444E0,5.8957253E0,4.081603E0,4.394953E0,9.297865E0,6.7587656E-1,4.6817927E0,9.704211E-1,3.548727E-1,1.2782237E1,3.7867064E0,6.739047E-1,1.2755691E1,3.2074047E1,9.58597E0,4.2541176E-1,2.0044112E0,1.8927958E0,4.9679032E-1,6.701055E-1,1.0694815E0,8.806637E-1,1.6756345E0,2.8218691E0,3.0738564E0,3.9349844E0,1.4661874E-1,2.6131384E0,1.7818145E0,8.097177E0,1.200688E0,4.897678E-1,1.861088E-1,9.154239E-1,3.7663686E0,2.9013932E-1,6.8028176E-1,7.9668217E0,4.8154154E0,2.0877588E-1,3.5779305E0,3.797074E-1,2.941973E-1,1.2547332E1,2.0835862E-1],"tree_param":{"num_deleted":"0","num_feature":"136","num_nodes":"81","size_leaf_vector":"1"}},{"base_weights":[9.837351E-9,-1.4518093E-1,1.93849E-1,-4.143523E-1,-9.3128905E-4,5.2675728E-2,3.4370056E-1,-6.01671E-1,1.04316264E-1,7.379419E-2,-4.8894504E-1,1.9215797E-1,-3.2029763E-1,-1.2750274E-1,4.3572247E-1,-7.1172976E-1,-1.3356184E-2,-4.6864244E-1,4.6507546E-1,-3.3500445E-1,1.4894046E-1,-6.915455E-1,7.822716E-2,2.6035777E-1,-3.7349427E-1,1.4306685E-2,-6.0975116E-1,3.4521145E-1,-4.7362608E-1,-2.0932062E-1,4.6921954E-1,-7.400312E-1,8.336738E-3,2.3250705E-1,-2.0901984E-2,8.115262E-3,-3.0896237E-2,-1.21302836E-1,5.427545E-1,-3.4966808E-2,1.4624037E-1,3.5703585E-2,6.222816E-1,-3.7018333E-2,7.969903E-4,-9.570778E-3,1.0169896E-2,1.4316367E-1,3.0364862E-2,-2.583817E-2,9.978092E-3,-2.436029E-2,3.0407616E-1,-3.60636E-2,4.942679E-3,-5.2960995E-3,2.0491192E-2,-2.988485E-2,5.2754553E-3,-1.3642869E-2,1.0032232E-3,5.089409E-1,-1.6178146E-1,-3.920404E-2,8.846201E-4,1.8889872E-2,-1.1910062E-2,-8.930748E-3,2.1340756E-3,2.9686188E-2,6.892102E-4,-1.4327536E-2,1.4670624E-2,-1.3070479E-2,8.807088E-3,2.485708E-4,3.8074937E-2,1.0702826E-2,-1.8375516E-2,1.9576037E-2,-2.9287E-3,2.7018115E-2,-4.436399E-4,-1.3031316E-2,6.6168495E-3],"categories":[],"categories_nodes":[],"categories_segments":[],"categories_sizes":[],"default_left":[0,0,0,0,0,0,0,0,0,0,0,0,0,0,0,0,0,0,0,0,0,0,0,0,0,0,0,0,0,0,0,0,0,0,0,0,0,0,0,0,0,0,0,0,0,0,0,0,0,0,0,0,0,0,0,0,0,0,0,0,0,0,0,0,0,0,0,0,0,0,0,0,0,0,0,0,0,0,0,0,0,0,0,0,0],"id":3,"left_children":[1,3,5,7,9,11,13,15,17,19,21,23,25,27,29,31,33,35,37,39,41,43,45,47,49,51,53,55,57,59,61,63,-1,65,-1,-1,-1,67,69,-1,71,73,75,-1,-1,-1,-1,77,-1,-1,-1,-1,79,-1,-1,-1,-1,-1,-1,-1,-1,81,83,-1,-1,-1,-1,-1,-1,-1,-1,-1,-1,-1,-1,-1,-1,-1,-1,-1,-1,-1,-1,-1,-1],"loss_changes":[3.4352925E0,2.709554E0,1.0876932E0,2.4285154E0,1.7297478E0,1.5231872E0,1.1471796E0,1.1583738E0,1.7295485E0,1.3138694E0,7.7783597E-1,9.102099E-1,7.8569674E-1,9.6307445E-1,5.58197E-1,5.006757E-1,4.8141637E-1,4.1333973E-1,2.9310048E-1,1.2764325E0,1.8778172E0,1.7560029E-1,1.2520443E-1,7.0166385E-1,3.2300943E-1,8.3087355E-1,4.1302097E-1,1.2048134E-1,2.9606724E-1,3.0869752E-2,5.9730434E-1,5.107136E-1,0E0,2.9822284E-1,0E0,0E0,0E0,2.0790286E-2,1.155256E-1,0E0,3.2054257E-1,1.2839005E0,5.79092E-1,0E0,0E0,0E0,0E0,6.509155E-1,0E0,0E0,0E0,0E0,1.3688257E-1,0E0,0E0,0E0,0E0,0E0,0E0,0E0,0E0,3.2321358E-1,9.1924176E-2,0E0,0E0,0E0,0E0,0E0,0E0,0E0,0E0,0E0,0E0,0E0,0E0,0E0,0E0,0E0,0E0,0E0,0E0,0E0,0E0,0E0,0E0],"parents":[2147483647,0,0,1,1,2,2,3,3,4,4,5,5,6,6,7,7,8,8,9,9,10,10,11,11,12,12,13,13,14,14,15,15,16,16,17,17,18,18,19,19,20,20,21,21,22,22,23,23,24,24,25,25,26,26,27,27,28,28,29,29,30,30,31,31,33,33,37,37,38,38,40,40,41,41,42,42,47,47,52,52,61,61,62,62],"right_children":[2,4,6,8,10,12,14,16,18,20,22,24,26,28,30,32,34,36,38,40,42,44,46,48,50,52,54,56,58,60,62,64,-1,66,-1,-1,-1,68,70,-1,72,74,76,-1,-1,-1,-1,78,-1,-1,-1,-1,80,-1,-1,-1,-1,-1,-1,-1,-1,82,84,-1,-1,-1,-1,-1,-1,-1,-1,-1,-1,-1,-1,-1,-1,-1,-1,-1,-1,-1,-1,-1,-1],"split_conditions":[3.07692E-1,3.6344224E-1,3.587444E-2,2.9388191E-3,4.2105265E-2,4.119956E-1,4.6109334E-2,1.5807697E-4,6.0100555E-1,7.86606E-1,6.6092275E-2,5.7133573E-1,4.8492387E-1,4.407815E-1,7.4917E-1,2.7272728E-1,9.66233E-2,6.762908E-3,1.0402234E-1,4.9014252E-1,1.8473895E-1,2.22222E-1,9.996E-3,1.6071542E-1,1.0526316E-2,2.791528E-1,1.25E-1,1.0526316E-2,3.7403153E-3,7.14286E-1,5E-1,2.6087E-1,8.336738E-3,3.1862554E-1,-2.0901984E-2,8.115262E-3,-3.0896237E-2,9.588397E-1,8.989362E-2,-3.4966808E-2,5.7585865E-2,6.634158E-3,3.006249E-1,-3.7018333E-2,7.969903E-4,-9.570778E-3,1.0169896E-2,1.4214641E-3,3.0364862E-2,-2.583817E-2,9.978092E-3,-2.436029E-2,5.4054055E-2,-3.60636E-2,4.942679E-3,-5.2960995E-3,2.0491192E-2,-2.988485E-2,5.2754553E-3,-1.3642869E-2,1.0032232E-3,4.0074806E-3,6.702127E-2,-3.920404E-2,8.846201E-4,1.8889872E-2,-1.1910062E-2,-8.930748E-3,2.1340756E-3,2.9686188E-2,6.892102E-4,-1.4327536E-2,1.4670624E-2,-1.3070479E-2,8.807088E-3,2.485708E-4,3.8074937E-2,1.0702826E-2,-1.8375516E-2,1.9576037E-2,-2.9287E-3,2.7018115E-2,-4.436399E-4,-1.3031316E-2,6.6168495E-3],"split_indices":[47,105,80,12,11,109,64,127,117,104,86,118,130,110,100,128,129,14,130,130,132,57,67,48,11,130,25,11,12,7,52,55,0,107,0,0,0,115,10,0,118,129,15,0,0,0,0,65,0,0,0,0,20,0,0,0,0,0,0,0,0,12,10,0,0,0,0,0,0,0,0,0,0,0,0,0,0,0,0,0,0,0,0,0,0],"split_type":[0,0,0,0,0,0,0,0,0,0,0,0,0,0,0,0,0,0,0,0,0,0,0,0,0,0,0,0,0,0,0,0,0,0,0,0,0,0,0,0,0,0,0,0,0,0,0,0,0,0,0,0,0,0,0,0,0,0,0,0,0,0,0,0,0,0,0,0,0,0,0,0,0,0,0,0,0,0,0,0,0,0,0,0,0],"sum_hessian":[1.2006484E2,6.8793686E1,5.127116E1,2.3349953E1,4.544373E1,2.7095938E1,2.4175224E1,1.703697E1,6.312982E0,4.014539E1,5.298342E0,2.0073696E1,7.0222406E0,3.886847E0,2.0288378E1,1.4175345E1,2.8616247E0,2.323596E0,3.9893863E0,5.6967597E0,3.4448627E1,3.7422729E0,1.5560696E0,1.83955E1,1.6781954E0,3.6979892E0,3.3242517E0,1.6440873E0,2.2427597E0,7.424432E-1,1.9545935E1,1.388558E1,2.897649E-1,2.0447857E0,8.168389E-1,4.2788512E-1,1.8957108E0,4.0097082E-1,3.5884154E0,2.9842887E0,2.7124708E0,2.8666262E1,5.782368E0,3.457225E0,2.8504765E-1,3.255452E-1,1.2305243E0,1.4806575E1,3.5889263E0,1.4211321E0,2.5706324E-1,1.1046988E0,2.5932906E0,2.8567736E0,4.6747804E-1,1.2587366E-1,1.5182136E0,1.82066E0,4.2209962E-1,4.329931E-1,3.094501E-1,1.8570374E1,9.755604E-1,1.308983E1,7.9574955E-1,1.7133292E0,3.3145654E-1,2.3101287E-1,1.6995795E-1,3.1613839E0,4.270316E-1,4.4799638E-1,2.2644744E0,8.92436E0,1.97419E1,1.2546715E0,4.527697E0,1.3511688E1,1.2948862E0,2.025322E0,5.679686E-1,1.7466917E1,1.103456E0,8.154005E-1,1.6015995E-1],"tree_param":{"num_deleted":"0","num_feature":"136","num_nodes":"85","size_leaf_vector":"1"}},{"base_weights":[-1.2802444E-8,-1.5500991E-1,1.591253E-1,-3.5371402E-1,3.9391736E-3,-2.1509597E-1,2.301829E-1,-4.8751336E-1,3.2000023E-1,2.559236E-1,-2.0424208E-1,-5.237593E-1,2.4884164E-1,1.4041251E-1,5.0717175E-1,-6.645604E-1,-9.446396E-2,5.0273E-1,-1.835054E-2,4.1705507E-1,-2.735587E-1,-4.368498E-1,1.4044556E-1,8.6106695E-3,-6.3669086E-1,-1.5425255E-2,3.9174044E-1,1.9423634E-1,-3.1123403E-1,-1.3058925E-1,5.811024E-1,-7.393292E-1,6.2497016E-2,1.14596285E-1,-4.4335422E-1,2.6450256E-2,1.0039633E-3,5.713925E-1,7.6819463E-3,-2.8177073E-2,8.169631E-2,-5.8299726E-1,2.3873745E-2,-2.2885853E-2,2.76079E-1,-1.4803534E-2,-6.71931E-1,-1.0041285E-2,5.319524E-1,2.6676824E-2,3.0863282E-1,-2.5419367E-2,3.026144E-2,4.2336956E-3,-1.4154941E-2,-1.0513272E-2,6.2198776E-1,-3.8947627E-2,4.7002928E-4,1.218652E-2,-9.7382255E-3,-1.0575819E-2,1.5121249E-2,-2.6407853E-2,-4.4651638E-4,-8.033368E-3,3.0366672E-2,-1.983774E-2,1.6768394E-2,5.9162765E-3,-2.1260113E-3,-3.377499E-2,4.8745973E-3,-8.610032E-3,1.2510597E-2,-1.1439728E-2,2.066343E-2,5.7676863E-3,-6.263736E-3,-3.5508208E-2,-1.5252464E-3,3.1485807E-2,-8.279967E-3,1.01601165E-2,-1.6914336E-2,2.1313703E-2,-7.1696313E-3,6.3327597E-3,-6.161503E-3,-6.895029E-3,3.2390486E-2],"categories":[],"categories_nodes":[],"categories_segments":[],"categories_sizes":[],"default_left":[0,0,0,0,0,0,0,0,0,0,0,0,0,0,0,0,0,0,0,0,0,0,0,0,0,0,0,0,0,0,0,0,0,0,0,0,0,0,0,0,0,0,0,0,0,0,0,0,0,0,0,0,0,0,0,0,0,0,0,0,0,0,0,0,0,0,0,0,0,0,0,0,0,0,0,0,0,0,0,0,0,0,0,0,0,0,0,0,0,0,0],"id":4,"left_children":[1,3,5,7,9,11,13,15,17,19,21,23,25,27,29,31,33,35,-1,37,39,41,43,-1,45,-1,47,49,51,53,55,57,59,61,63,-1,-1,65,67,-1,69,71,73,-1,75,77,79,-1,81,83,85,-1,87,-1,-1,-1,89,-1,-1,-1,-1,-1,-1,-1,-1,-1,-1,-1,-1,-1,-1,-1,-1,-1,-1,-1,-1,-1,-1,-1,-1,-1,-1,-1,-1,-1,-1,-1,-1,-1,-1],"loss_changes":[2.9592047E0,1.920786E0,1.623705E0,2.591581E0,1.8753161E0,1.5571865E0,1.177916E0,1.5334764E0,8.223137E-1,1.4933041E0,1.6317232E0,6.052308E-1,4.9188933E-1,1.0163567E0,6.375916E-1,8.9691305E-1,6.5542877E-1,4.562342E-2,0E0,8.037188E-1,4.9681044E-1,8.177285E-1,8.2803077E-1,0E0,1.1361146E-1,0E0,4.515105E-1,6.7705023E-1,3.2316515E-1,9.1404855E-2,4.821334E-1,4.3060827E-1,1.5849717E-1,4.3014243E-1,1.17275715E-1,0E0,0E0,3.4160757E-1,7.314834E-1,0E0,1.795262E-2,6.3881254E-1,2.1330367E-1,0E0,6.260628E-1,3.3500835E-2,1.086328E-1,0E0,3.517481E-1,1.0737563E0,1.1858861E0,0E0,5.4328315E-2,0E0,0E0,0E0,2.9689837E-1,0E0,0E0,0E0,0E0,0E0,0E0,0E0,0E0,0E0,0E0,0E0,0E0,0E0,0E0,0E0,0E0,0E0,0E0,0E0,0E0,0E0,0E0,0E0,0E0,0E0,0E0,0E0,0E0,0E0,0E0,0E0,0E0,0E0,0E0],"parents":[2147483647,0,0,1,1,2,2,3,3,4,4,5,5,6,6,7,7,8,8,9,9,10,10,11,11,12,12,13,13,14,14,15,15,16,16,17,17,19,19,20,20,21,21,22,22,24,24,26,26,27,27,28,28,29,29,30,30,31,31,32,32,33,33,34,34,37,37,38,38,40,40,41,41,42,42,44,44,45,45,46,46,48,48,49,49,50,50,52,52,56,56],"right_children":[2,4,6,8,10,12,14,16,18,20,22,24,26,28,30,32,34,36,-1,38,40,42,44,-1,46,-1,48,50,52,54,56,58,60,62,64,-1,-1,66,68,-1,70,72,74,-1,76,78,80,-1,82,84,86,-1,88,-1,-1,-1,90,-1,-1,-1,-1,-1,-1,-1,-1,-1,-1,-1,-1,-1,-1,-1,-1,-1,-1,-1,-1,-1,-1,-1,-1,-1,-1,-1,-1,-1,-1,-1,-1,-1,-1],"split_conditions":[6.25E-2,8.264462E-3,1.33333E-1,6.046974E-1,1.8701577E-3,4.310345E-2,4.9159047E-1,2.94118E-1,6.4935E-2,1.2109929E-1,2.9388191E-3,2.6716536E-4,1.6029923E-3,2.0971785E-1,3.0572157E-4,7.114816E-5,4.28571E-1,6E-1,-1.835054E-2,2.7595324E-4,3.2142857E-1,3.3815668E-5,7.4074E-2,8.6106695E-3,3.56383E-2,-1.5425255E-2,1.6907254E-2,2.4911E-2,2.5528848E-1,4E-1,4.32581E-1,4.804805E-1,3.138232E-2,2.642857E-1,7.638544E-1,2.6450256E-2,1.0039633E-3,1.0452959E-2,1.32255E-1,-2.8177073E-2,2.5E-1,2.7272728E-1,7.75137E-1,-2.2885853E-2,4.0265885E-1,1.0714286E-1,3.75E-1,-1.0041285E-2,6.70187E-2,3.9205953E-1,9.4395E-2,-2.5419367E-2,2.5E-1,4.2336956E-3,-1.4154941E-2,-1.0513272E-2,5.7291416E-3,-3.8947627E-2,4.7002928E-4,1.218652E-2,-9.7382255E-3,-1.0575819E-2,1.5121249E-2,-2.6407853E-2,-4.4651638E-4,-8.033368E-3,3.0366672E-2,-1.983774E-2,1.6768394E-2,5.9162765E-3,-2.1260113E-3,-3.377499E-2,4.8745973E-3,-8.610032E-3,1.2510597E-2,-1.1439728E-2,2.066343E-2,5.7676863E-3,-6.263736E-3,-3.5508208E-2,-1.5252464E-3,3.1485807E-2,-8.279967E-3,1.01601165E-2,-1.6914336E-2,2.1313703E-2,-7.1696313E-3,6.3327597E-3,-6.161503E-3,-6.895029E-3,3.2390486E-2],"split_indices":[25,128,47,108,12,131,105,47,62,10,12,12,12,85,129,127,47,2,0,44,126,127,57,0,10,0,130,55,74,2,102,20,129,126,107,0,0,39,70,0,3,128,104,0,115,126,46,0,80,109,45,0,3,0,0,0,82,0,0,0,0,0,0,0,0,0,0,0,0,0,0,0,0,0,0,0,0,0,0,0,0,0,0,0,0,0,0,0,0,0,0],"split_type":[0,0,0,0,0,0,0,0,0,0,0,0,0,0,0,0,0,0,0,0,0,0,0,0,0,0,0,0,0,0,0,0,0,0,0,0,0,0,0,0,0,0,0,0,0,0,0,0,0,0,0,0,0,0,0,0,0,0,0,0,0,0,0,0,0,0,0,0,0,0,0,0,0,0,0,0,0,0,0,0,0,0,0,0,0,0,0,0,0,0,0],"sum_hessian":[1.17971016E2,5.9771366E1,5.819965E1,2.6019169E1,3.3752197E1,8.964022E0,4.923563E1,2.1938559E1,4.080609E0,1.5165913E1,1.8586285E1,5.305359E0,3.658663E0,3.8322475E1,1.0913156E1,1.4649148E1,7.289411E0,3.4351661E0,6.454427E-1,1.1790251E1,3.3756614E0,1.093773E1,7.6485558E0,6.673974E-1,4.6379614E0,5.101244E-1,3.1485386E0,3.475104E1,3.571431E0,1.0540482E0,9.859107E0,1.3267837E1,1.3813109E0,4.9780374E0,2.3113737E0,3.1667306E0,2.6843542E-1,8.274801E0,3.51545E0,1.535766E0,1.8398954E0,8.102209E0,2.83552E0,9.748162E-1,6.6737394E0,3.2487833E-1,4.313083E0,5.197331E-1,2.6288056E0,1.45996895E1,2.0151354E1,1.9544007E0,1.6170301E0,6.215471E-1,4.3250114E-1,2.8082037E-1,9.578287E0,1.2562647E1,7.051899E-1,8.412624E-1,5.4004854E-1,1.7732189E0,3.2048187E0,1.7533435E0,5.5803037E-1,2.2484103E-1,8.04996E0,1.4791163E0,2.0363336E0,1.4575233E0,3.8237196E-1,7.1390867E0,9.6312255E-1,1.6474984E0,1.1880217E0,1.2833047E0,5.3904347E0,1.2885906E-1,1.9601926E-1,3.9693222E0,3.437611E-1,2.3909547E0,2.3785079E-1,1.0138923E1,4.460767E0,1.6035124E1,4.116229E0,1.1006521E0,5.1637816E-1,1.7213823E-1,9.406148E0],"tree_param":{"num_deleted":"0","num_feature":"136","num_nodes":"91","size_leaf_vector":"1"}},{"base_weights":[1.0393172E-8,-1.1447438E-1,2.4888296E-1,-2.0077135E-1,1.2099302E-1,-1.2533335E-1,3.4067896E-1,-5.6982374E-1,-1.2553135E-1,-3.3959895E-1,2.566022E-1,-4.129204E-1,1.098658E-1,2.0443955E-1,5.3470707E-1,-6.405434E-1,4.6231985E-2,4.5700356E-2,-3.2741854E-1,1.6240257E-1,-5.5675405E-1,4.444924E-1,-4.6677332E-2,-5.241702E-1,2.253617E-3,2.125351E-2,-1.2646653E-1,2.444634E-1,-1.6360747E-2,8.497657E-2,6.029155E-1,-7.4061495E-1,-4.8833724E-2,-1.03327E-2,1.0889414E-2,-4.7010824E-1,1.6569354E-1,-4.0197048E-1,2.811436E-1,1.3038767E-2,-3.694791E-2,-3.0061333E-2,8.6066517E-4,-1.5232556E-2,5.095154E-1,4.131035E-2,-1.8951813E-2,-2.9283479E-2,-5.0345826E-4,-1.609722E-2,3.7923817E-2,-1.12244375E-1,3.0771595E-1,8.967531E-4,6.0081515E-3,6.5669805E-1,1.9606903E-1,-3.780453E-2,1.2721561E-3,-1.1349208E-2,7.33872E-3,9.389783E-3,-3.1345844E-2,-2.0084506E-2,1.0795623E-2,-2.416854E-2,4.373855E-3,-1.062088E-2,2.0403376E-2,4.0255818E-3,-7.5042658E-3,2.7836893E-2,-1.181958E-2,6.571089E-3,-1.1302082E-2,3.912994E-3,-6.7430286E-4,-1.7144296E-2,7.72006E-3,2.1825591E-2,3.060516E-3,7.815887E-3,3.557117E-2,1.1812694E-3,1.1436799E-2],"categories":[],"categories_nodes":[],"categories_segments":[],"categories_sizes":[],"default_left":[0,0,0,0,0,0,0,0,0,0,0,0,0,0,0,0,0,0,0,0,0,0,0,0,0,0,0,0,0,0,0,0,0,0,0,0,0,0,0,0,0,0,0,0,0,0,0,0,0,0,0,0,0,0,0,0,0,0,0,0,0,0,0,0,0,0,0,0,0,0,0,0,0,0,0,0,0,0,0,0,0,0,0,0,0],"id":5,"left_children":[1,3,5,7,9,11,13,15,17,19,21,23,25,27,29,31,33,35,37,39,41,43,45,47,-1,-1,49,51,-1,53,55,57,59,-1,-1,61,63,65,67,-1,69,-1,-1,-1,71,73,-1,-1,-1,-1,75,77,79,-1,-1,81,83,-1,-1,-1,-1,-1,-1,-1,-1,-1,-1,-1,-1,-1,-1,-1,-1,-1,-1,-1,-1,-1,-1,-1,-1,-1,-1,-1,-1],"loss_changes":[3.3649788E0,1.6681576E0,1.3209007E0,1.582789E0,1.4813143E0,5.905893E-1,6.8764687E-1,4.568689E-1,1.7700825E0,6.9079185E-1,1.0358171E0,2.191065E-1,4.4291148E-1,4.9133497E-1,3.1128025E-1,4.887154E-1,1.2928158E-1,1.8324859E0,1.1756647E0,5.7429783E-2,1.142447E-1,6.956408E-1,2.4139637E-1,9.420109E-2,0E0,0E0,1.3291524E-1,4.5307827E-1,0E0,4.2620935E-3,9.218478E-2,1.0828686E-1,1.1530774E-1,0E0,0E0,6.96566E-1,7.6310074E-1,8.900068E-1,2.8367513E-1,0E0,3.442497E-2,0E0,0E0,0E0,5.0435615E-1,1.984718E-1,0E0,0E0,0E0,0E0,7.1416153E-3,2.698296E-1,4.8200643E-1,0E0,0E0,1.21353626E-1,9.268343E-3,0E0,0E0,0E0,0E0,0E0,0E0,0E0,0E0,0E0,0E0,0E0,0E0,0E0,0E0,0E0,0E0,0E0,0E0,0E0,0E0,0E0,0E0,0E0,0E0,0E0,0E0,0E0,0E0],"parents":[2147483647,0,0,1,1,2,2,3,3,4,4,5,5,6,6,7,7,8,8,9,9,10,10,11,11,12,12,13,13,14,14,15,15,16,16,17,17,18,18,19,19,20,20,21,21,22,22,23,23,26,26,27,27,29,29,30,30,31,31,32,32,35,35,36,36,37,37,38,38,40,40,44,44,45,45,50,50,51,51,52,52,55,55,56,56],"right_children":[2,4,6,8,10,12,14,16,18,20,22,24,26,28,30,32,34,36,38,40,42,44,46,48,-1,-1,50,52,-1,54,56,58,60,-1,-1,62,64,66,68,-1,70,-1,-1,-1,72,74,-1,-1,-1,-1,76,78,80,-1,-1,82,84,-1,-1,-1,-1,-1,-1,-1,-1,-1,-1,-1,-1,-1,-1,-1,-1,-1,-1,-1,-1,-1,-1,-1,-1,-1,-1,-1,-1],"split_conditions":[5.418209E-1,2.9388191E-3,3.03E-3,1.746E-2,7.6923E-2,2.1052632E-2,4.5718503E-1,4.090909E-1,1.8701577E-3,1.0452959E-2,8.989362E-2,6.363636E-1,4.9681373E-2,5E-1,2.3041475E-3,2.9252807E-4,4.179603E-1,2.4457725E-3,6.046974E-1,7.8033553E-3,3.7234E-2,8.105971E-2,3.1666666E-1,5E-1,2.253617E-3,2.125351E-2,1.537234E-1,1.1834767E-2,-1.6360747E-2,1.0283688E-2,2.8302E-2,9.51701E-1,6.729944E-1,-1.03327E-2,1.0889414E-2,2.6716536E-4,8.0149615E-4,4.3144166E-2,9.234234E-2,1.3038767E-2,2.0011818E-1,-3.0061333E-2,8.6066517E-4,-1.5232556E-2,4.8323882E-1,4.090909E-1,-1.8951813E-2,-2.9283479E-2,-5.0345826E-4,-1.609722E-2,1.5133218E-3,5.3777898E-5,5.3048782E-2,8.967531E-4,6.0081515E-3,8.264462E-3,2.244898E-1,-3.780453E-2,1.2721561E-3,-1.1349208E-2,7.33872E-3,9.389783E-3,-3.1345844E-2,-2.0084506E-2,1.0795623E-2,-2.416854E-2,4.373855E-3,-1.062088E-2,2.0403376E-2,4.0255818E-3,-7.5042658E-3,2.7836893E-2,-1.181958E-2,6.571089E-3,-1.1302082E-2,3.912994E-3,-6.7430286E-4,-1.7144296E-2,7.72006E-3,2.1825591E-2,3.060516E-3,7.815887E-3,3.557117E-2,1.1812694E-3,1.1436799E-2],"split_indices":[107,12,50,45,57,11,105,13,12,39,10,58,118,125,130,127,15,129,108,14,50,117,10,13,0,0,10,80,0,10,50,110,110,0,0,12,12,91,35,0,15,0,0,0,129,13,0,0,0,0,129,69,39,0,0,128,29,0,0,0,0,0,0,0,0,0,0,0,0,0,0,0,0,0,0,0,0,0,0,0,0,0,0,0,0],"split_type":[0,0,0,0,0,0,0,0,0,0,0,0,0,0,0,0,0,0,0,0,0,0,0,0,0,0,0,0,0,0,0,0,0,0,0,0,0,0,0,0,0,0,0,0,0,0,0,0,0,0,0,0,0,0,0,0,0,0,0,0,0,0,0,0,0,0,0,0,0,0,0,0,0,0,0,0,0,0,0,0,0,0,0,0,0],"sum_hessian":[1.16107864E2,7.989842E1,3.6209446E1,5.8577553E1,2.1320868E1,7.0606394E0,2.914881E1,8.806793E0,4.977076E1,4.507397E0,1.6813469E1,2.8365998E0,4.2240396E0,1.8331068E1,1.0817741E1,7.8642707E0,9.425226E-1,2.7348562E1,2.2422195E1,1.4371791E0,3.070218E0,1.0094205E1,6.7192645E0,2.165974E0,6.706259E-1,1.4677885E0,2.756251E0,1.7550055E1,7.8101367E-1,1.7203692E0,9.097372E0,6.511394E0,1.352877E0,2.98269E-1,6.442536E-1,4.6107545E0,2.2737808E1,2.0277567E1,2.1446295E0,7.559958E-1,6.8118334E-1,2.8053584E0,2.6485965E-1,5.118454E-1,9.582359E0,6.0051775E0,7.1408683E-1,1.8102157E0,3.5575807E-1,8.212646E-1,1.9349865E0,2.5266535E0,1.50234E1,1.1117821E0,6.0858715E-1,7.492759E0,1.6046124E0,6.395211E0,1.16182745E-1,6.240866E-1,7.2879034E-1,8.4940267E-1,3.7613516E0,1.279783E0,2.1458025E1,1.7396725E1,2.8808427E0,3.009114E-1,1.843718E0,4.756918E-1,2.0549153E-1,9.250341E0,3.320179E-1,4.8716216E0,1.1335564E0,7.916144E-1,1.143372E0,1.2014802E0,1.3251734E0,9.361399E0,5.6620016E0,1.118862E0,6.373897E0,5.3000736E-1,1.074605E0],"tree_param":{"num_deleted":"0","num_feature":"136","num_nodes":"85","size_leaf_vector":"1"}},{"base_weights":[-9.69353E-10,-1.08690046E-1,2.4107844E-1,-5.214639E-1,-6.044961E-2,6.598001E-2,4.7400573E-1,-6.7342263E-1,-3.1080993E-3,4.950269E-1,-9.558714E-2,1.927534E-1,-2.7349627E-1,-1.1506977E-2,5.035121E-1,-3.5877418E-2,-6.0566567E-2,2.554282E-1,-2.4419783E-1,-5.620464E-3,5.4075205E-1,-1.834782E-1,1.01662576E-1,-8.767699E-2,4.013712E-1,-4.8087382E-1,1.5574194E-1,5.343509E-1,-1.050702E-2,5.109851E-3,-8.826462E-3,1.3906665E-2,8.4913627E-4,-1.7999824E-2,4.0815235E-3,2.8233979E-2,1.8420713E-3,-2.6332256E-1,2.2028792E-1,2.065569E-1,-4.1793182E-1,-2.4488838E-1,3.067617E-1,-1.273208E-1,5.087991E-1,5.2846354E-3,-5.4271317E-1,-7.031675E-3,1.8604098E-2,5.652659E-1,2.2481574E-2,-1.6392222E-2,1.0622034E-2,1.8076092E-2,-1.5250924E-2,1.6697265E-2,-8.991738E-3,-2.5318965E-2,9.389939E-3,-1.7161347E-2,1.6488287E-3,-6.8962127E-3,2.440731E-2,3.075748E-3,-9.189958E-3,-2.0738624E-3,2.9405862E-2,-2.8573854E-2,-4.7071683E-4,2.9628525E-2,2.430468E-3,-5.0896946E-3,5.9075924E-3],"categories":[],"categories_nodes":[],"categories_segments":[],"categories_sizes":[],"default_left":[0,0,0,0,0,0,0,0,0,0,0,0,0,0,0,0,0,0,0,0,0,0,0,0,0,0,0,0,0,0,0,0,0,0,0,0,0,0,0,0,0,0,0,0,0,0,0,0,0,0,0,0,0,0,0,0,0,0,0,0,0,0,0,0,0,0,0,0,0,0,0,0,0],"id":6,"left_children":[1,3,5,7,9,11,13,15,17,19,21,23,25,-1,27,-1,29,31,33,-1,35,37,39,41,43,45,47,49,-1,-1,-1,-1,-1,-1,-1,-1,-1,51,53,55,57,59,61,63,65,-1,67,-1,-1,69,71,-1,-1,-1,-1,-1,-1,-1,-1,-1,-1,-1,-1,-1,-1,-1,-1,-1,-1,-1,-1,-1,-1],"loss_changes":[3.0699954E0,1.5764948E0,1.4536393E0,6.5318537E-1,1.4806393E0,9.971898E-1,4.3713498E-1,1.3038373E-1,2.4254361E-1,1.8662798E-1,1.230557E0,1.0043092E0,6.428472E-1,0E0,4.4580412E-1,0E0,4.6804614E-2,5.4740235E-3,1.0511083E-1,0E0,3.2075882E-2,1.6284727E0,1.2957782E0,5.642063E-1,6.1446536E-1,2.2228217E-1,2.340245E-1,2.2163105E-1,0E0,0E0,0E0,0E0,0E0,0E0,0E0,0E0,0E0,1.332124E0,7.473655E-1,1.0017984E0,3.125118E-1,1.8060991E-1,2.8443164E-1,3.726852E-2,3.8421392E-1,0E0,6.0213804E-2,0E0,0E0,1.6762018E-1,3.44372E-2,0E0,0E0,0E0,0E0,0E0,0E0,0E0,0E0,0E0,0E0,0E0,0E0,0E0,0E0,0E0,0E0,0E0,0E0,0E0,0E0,0E0,0E0],"parents":[2147483647,0,0,1,1,2,2,3,3,4,4,5,5,6,6,7,7,8,8,9,9,10,10,11,11,12,12,14,14,16,16,17,17,18,18,20,20,21,21,22,22,23,23,24,24,25,25,26,26,27,27,37,37,38,38,39,39,40,40,41,41,42,42,43,43,44,44,46,46,49,49,50,50],"right_children":[2,4,6,8,10,12,14,16,18,20,22,24,26,-1,28,-1,30,32,34,-1,36,38,40,42,44,46,48,50,-1,-1,-1,-1,-1,-1,-1,-1,-1,52,54,56,58,60,62,64,66,-1,68,-1,-1,70,72,-1,-1,-1,-1,-1,-1,-1,-1,-1,-1,-1,-1,-1,-1,-1,-1,-1,-1,-1,-1,-1,-1],"split_conditions":[5.418209E-1,3.962E-3,6.6458665E-2,1.5807697E-4,4.831E-3,1.9802E-2,3.3046424E-1,4.0074806E-3,3.138232E-2,1.6029923E-3,7.3252475E-1,1.6522666E-2,1.6401963E-1,-1.1506977E-2,9.675575E-1,-3.5877418E-2,1.4285715E-1,1.4285715E-1,6.39E-3,-5.620464E-3,2.2996102E-5,3.561917E-5,3.888889E-1,2.7272728E-1,6.2085222E-3,4.54545E-1,4.2926057E-4,1.2E-1,-1.050702E-2,5.109851E-3,-8.826462E-3,1.3906665E-2,8.4913627E-4,-1.7999824E-2,4.0815235E-3,2.8233979E-2,1.8420713E-3,8.35231E-1,7.4144566E-1,9.745811E-1,4.1480552E-4,7.438017E-2,1.0526316E-2,3.372E-2,1.5714286E-1,5.2846354E-3,6.666667E-1,-7.031675E-3,1.8604098E-2,6.363636E-1,1.25E-1,-1.6392222E-2,1.0622034E-2,1.8076092E-2,-1.5250924E-2,1.6697265E-2,-8.991738E-3,-2.5318965E-2,9.389939E-3,-1.7161347E-2,1.6488287E-3,-6.8962127E-3,2.440731E-2,3.075748E-3,-9.189958E-3,-2.0738624E-3,2.9405862E-2,-2.8573854E-2,-4.7071683E-4,2.9628525E-2,2.430468E-3,-5.0896946E-3,5.9075924E-3],"split_indices":[107,60,64,127,60,55,109,12,129,12,123,54,129,0,124,0,0,0,45,0,42,127,53,13,75,47,40,68,0,0,0,0,0,0,0,0,0,112,110,115,127,128,11,59,126,0,1,0,0,13,25,0,0,0,0,0,0,0,0,0,0,0,0,0,0,0,0,0,0,0,0,0,0],"split_type":[0,0,0,0,0,0,0,0,0,0,0,0,0,0,0,0,0,0,0,0,0,0,0,0,0,0,0,0,0,0,0,0,0,0,0,0,0,0,0,0,0,0,0,0,0,0,0,0,0,0,0,0,0,0,0,0,0,0,0,0,0,0,0,0,0,0,0,0,0,0,0,0,0],"sum_hessian":[1.1516275E2,7.97546E1,3.5408154E1,7.3190207E0,7.243558E1,2.0945818E1,1.4462335E1,5.4284816E0,1.8905394E0,3.5307627E0,6.8904816E1,1.5565332E1,5.3804855E0,3.0818063E-1,1.4154155E1,4.9045286E0,5.239532E-1,8.835633E-1,1.0069761E0,1.4507999E-1,3.3856828E0,4.7714066E1,2.1190746E1,6.887146E0,8.678186E0,3.5466833E0,1.8338025E0,1.3808689E1,3.4546548E-1,2.6737583E-1,2.5657737E-1,6.5477103E-1,2.2879224E-1,6.655689E-1,3.4140724E-1,3.117078E0,2.6860458E-1,4.0126854E1,7.5872126E0,1.8132643E1,3.0581043E0,5.1955166E0,1.6916294E0,1.4342989E0,7.243888E0,2.706196E-1,3.2760637E0,9.214298E-1,9.123726E-1,1.2923822E1,8.848667E-1,3.560861E1,4.5182457E0,6.2252736E0,1.361939E0,1.3738852E1,4.3937907E0,2.8115819E0,2.4652226E-1,3.663682E0,1.5318348E0,5.5951464E-1,1.1321148E0,3.0968553E-1,1.1246134E0,9.727104E-1,6.2711773E0,3.0404842E0,2.3557955E-1,1.2135542E1,7.882801E-1,3.5705084E-1,5.278158E-1],"tree_param":{"num_deleted":"0","num_feature":"136","num_nodes":"73","size_leaf_vector":"1"}},{"base_weights":[3.766115E-9,-1.3803445E-1,1.801018E-1,-3.1093115E-2,-3.8773182E-1,-5.0979592E-2,2.3897389E-1,-3.1625983E-1,7.491169E-2,-5.686507E-1,2.2697398E-1,-2.6231754E-1,2.961048E-1,1.3958268E-1,4.468979E-1,-5.9249157E-1,-6.3054286E-2,4.5211172E-1,-5.0945263E-2,-6.558075E-1,1.6006686E-1,-9.488253E-2,2.526225E-2,-4.3271932E-1,1.4091067E-1,4.2991784E-1,-1.4428052E-2,-4.0167677E-1,1.838731E-1,-2.215784E-3,5.625038E-1,5.307404E-3,-6.738971E-1,-4.013517E-1,3.2690415E-1,5.915904E-1,-2.0284109E-2,-4.5799455E-1,8.316145E-2,-3.7843715E-2,-2.7340192E-1,1.3119633E-2,-5.7481326E-2,6.526805E-2,-1.5734326E-2,-2.5787344E-3,-5.405423E-1,3.0860946E-1,-1.325089E-2,4.7862798E-1,-5.853782E-3,4.6063005E-3,-2.5032012E-2,2.4301012E-1,-6.2372863E-2,-1.589635E-2,1.5755814E-1,6.116501E-1,1.5545212E-1,-3.5333548E-2,-2.9398824E-4,-2.4274064E-2,6.2388796E-3,-1.1401876E-2,2.2017358E-2,3.212154E-2,-9.682118E-3,-3.1446055E-2,4.686306E-3,8.40752E-3,-1.880451E-2,1.126384E-2,-2.1186844E-2,8.974012E-6,-4.19218E-3,-1.7581038E-3,6.3984813E-3,-3.010034E-3,2.0300006E-3,-3.0431008E-2,-3.4307226E-4,1.6954252E-2,2.7268585E-3,-1.4385297E-3,2.6208458E-2,1.3833447E-2,-1.532169E-2,6.903169E-3,-1.9881612E-2,9.789704E-3,-4.3077576E-3,3.178088E-2,5.903842E-3,-1.7213051E-3,9.8454645E-3],"categories":[],"categories_nodes":[],"categories_segments":[],"categories_sizes":[],"default_left":[0,0,0,0,0,0,0,0,0,0,0,0,0,0,0,0,0,0,0,0,0,0,0,0,0,0,0,0,0,0,0,0,0,0,0,0,0,0,0,0,0,0,0,0,0,0,0,0,0,0,0,0,0,0,0,0,0,0,0,0,0,0,0,0,0,0,0,0,0,0,0,0,0,0,0,0,0,0,0,0,0,0,0,0,0,0,0,0,0,0,0,0,0,0,0],"id":7,"left_children":[1,3,5,7,9,11,13,15,17,19,21,23,25,27,29,31,33,35,37,39,41,43,-1,45,47,49,-1,51,53,55,57,-1,59,61,63,65,-1,67,69,-1,71,-1,73,75,-1,77,79,81,-1,83,-1,-1,-1,85,87,-1,89,91,93,-1,-1,-1,-1,-1,-1,-1,-1,-1,-1,-1,-1,-1,-1,-1,-1,-1,-1,-1,-1,-1,-1,-1,-1,-1,-1,-1,-1,-1,-1,-1,-1,-1,-1,-1,-1],"loss_changes":[2.8923745E0,1.746732E0,6.989312E-1,1.4505591E0,2.3158271E0,8.8995403E-1,7.7265906E-1,8.707087E-1,1.6949927E0,1.0879626E0,5.124085E-1,5.703322E-1,4.8868826E-1,7.640932E-1,6.561711E-1,4.178915E-1,1.1724459E0,1.3063256E0,1.5286946E0,3.3491707E-1,6.978112E-2,1.3482292E-1,0E0,2.5167775E-1,2.8304476E-1,1.6778815E-1,0E0,1.678957E-1,4.127186E-1,2.3059256E-1,1.0568309E-1,0E0,1.1824179E-1,2.6751912E-1,3.6593127E-1,4.4668007E-1,0E0,7.1158767E-1,8.9795715E-1,0E0,4.325378E-1,0E0,2.4567856E-3,2.1541901E-2,0E0,7.6651787E-3,1.5416336E-1,1.2840629E-3,0E0,1.08616054E-1,0E0,0E0,0E0,4.9567735E-1,4.6363264E-1,0E0,4.5239903E-2,2.6846647E-2,2.584361E-2,0E0,0E0,0E0,0E0,0E0,0E0,0E0,0E0,0E0,0E0,0E0,0E0,0E0,0E0,0E0,0E0,0E0,0E0,0E0,0E0,0E0,0E0,0E0,0E0,0E0,0E0,0E0,0E0,0E0,0E0,0E0,0E0,0E0,0E0,0E0,0E0],"parents":[2147483647,0,0,1,1,2,2,3,3,4,4,5,5,6,6,7,7,8,8,9,9,10,10,11,11,12,12,13,13,14,14,15,15,16,16,17,17,18,18,19,19,20,20,21,21,23,23,24,24,25,25,27,27,28,28,29,29,30,30,32,32,33,33,34,34,35,35,37,37,38,38,40,40,42,42,43,43,45,45,46,46,47,47,49,49,53,53,54,54,56,56,57,57,58,58],"right_children":[2,4,6,8,10,12,14,16,18,20,22,24,26,28,30,32,34,36,38,40,42,44,-1,46,48,50,-1,52,54,56,58,-1,60,62,64,66,-1,68,70,-1,72,-1,74,76,-1,78,80,82,-1,84,-1,-1,-1,86,88,-1,90,92,94,-1,-1,-1,-1,-1,-1,-1,-1,-1,-1,-1,-1,-1,-1,-1,-1,-1,-1,-1,-1,-1,-1,-1,-1,-1,-1,-1,-1,-1,-1,-1,-1,-1,-1,-1,-1],"split_conditions":[4.6909958E-1,1.21808514E-1,1.293429E-2,1.27551025E-2,4.3843845E-1,1.6203244E-1,4.5718503E-1,1.724138E-2,3.2129E-2,2.857143E-1,7.95213E-1,1.3240446E-1,3.291396E-1,7.14286E-1,3.0130666E-2,2.4110796E-1,8.264462E-3,1.752084E-4,6.065416E-2,3.4771292E-5,3.33333E-1,5.600274E-1,2.526225E-2,9.1379834E-4,1.75E-1,5.263158E-2,-1.4428052E-2,4.0513614E-1,1.01010665E-1,7.7586204E-2,3.2129E-2,5.307404E-3,5E-1,1.4592137E-3,1.4634146E-2,4.28571E-1,-2.0284109E-2,5.9125334E-1,9.745811E-1,-3.7843715E-2,1.09018576E-4,1.3119633E-2,5.714286E-1,5.714286E-1,-1.5734326E-2,2.0011818E-1,2.0084468E-1,7.1428573E-1,-1.325089E-2,2.1631205E-2,-5.853782E-3,4.6063005E-3,-2.5032012E-2,5E-1,4E-1,-1.589635E-2,5E-1,7.500002E-2,3.687943E-2,-3.5333548E-2,-2.9398824E-4,-2.4274064E-2,6.2388796E-3,-1.1401876E-2,2.2017358E-2,3.212154E-2,-9.682118E-3,-3.1446055E-2,4.686306E-3,8.40752E-3,-1.880451E-2,1.126384E-2,-2.1186844E-2,8.974012E-6,-4.19218E-3,-1.7581038E-3,6.3984813E-3,-3.010034E-3,2.0300006E-3,-3.0431008E-2,-3.4307226E-4,1.6954252E-2,2.7268585E-3,-1.4385297E-3,2.6208458E-2,1.3833447E-2,-1.532169E-2,6.903169E-3,-1.9881612E-2,9.789704E-3,-4.3077576E-3,3.178088E-2,5.903842E-3,-1.7213051E-3,9.8454645E-3],"split_indices":[107,10,87,34,20,129,105,131,45,31,100,85,73,7,54,110,128,44,85,92,6,105,0,65,10,11,0,105,54,131,50,0,48,127,39,6,0,116,115,0,44,0,0,0,0,15,71,0,0,10,0,0,0,125,47,0,3,43,10,0,0,0,0,0,0,0,0,0,0,0,0,0,0,0,0,0,0,0,0,0,0,0,0,0,0,0,0,0,0,0,0,0,0,0,0],"split_type":[0,0,0,0,0,0,0,0,0,0,0,0,0,0,0,0,0,0,0,0,0,0,0,0,0,0,0,0,0,0,0,0,0,0,0,0,0,0,0,0,0,0,0,0,0,0,0,0,0,0,0,0,0,0,0,0,0,0,0,0,0,0,0,0,0,0,0,0,0,0,0,0,0,0,0,0,0,0,0,0,0,0,0,0,0,0,0,0,0,0,0,0,0,0,0],"sum_hessian":[1.1434533E2,6.486487E1,4.9480457E1,4.6201878E1,1.8662992E1,1.007372E1,3.940674E1,1.1982892E1,3.4218987E1,1.4477058E1,4.185934E0,6.413063E0,3.6606565E0,2.7792683E1,1.1614058E1,5.090024E0,6.892868E0,7.9125085E0,2.6306479E1,1.3019893E1,1.4571651E0,2.2465434E0,1.9393907E0,4.4565954E0,1.9564677E0,3.1942606E0,4.66396E-1,1.4918681E0,2.6300814E1,2.5783486E0,9.035708E0,4.9947542E-1,4.5905485E0,3.6752727E0,3.2175953E0,7.072795E0,8.397133E-1,5.9206357E0,2.0385843E1,9.523628E0,3.4962645E0,8.508324E-1,6.0633266E-1,1.706349E0,5.4019433E-1,1.0984482E0,3.3581471E0,1.5541537E0,4.0231407E-1,3.047833E0,1.4642754E-1,2.6060507E-1,1.2312632E0,2.121829E1,5.082523E0,5.337702E-1,2.0445786E0,7.6138043E0,1.4219043E0,4.3207054E0,2.69843E-1,3.2352116E0,4.400611E-1,3.7466332E-1,2.842932E0,6.81351E0,2.5928527E-1,4.413408E0,1.5072279E0,1.7737253E1,2.64859E0,6.943905E-1,2.8018742E0,5.018514E-1,1.04481295E-1,8.246728E-1,8.816762E-1,3.0166143E-1,7.967868E-1,2.8537014E0,5.044458E-1,1.0889368E0,4.6521688E-1,2.8135508E-1,2.7664778E0,2.0461294E1,7.569976E-1,3.5489545E0,1.5335683E0,1.9372642E0,1.0731436E-1,6.9867473E0,6.270568E-1,2.852102E-1,1.1366941E0],"tree_param":{"num_deleted":"0","num_feature":"136","num_nodes":"95","size_leaf_vector":"1"}},{"base_weights":[-6.4320704E-9,-9.4095215E-2,2.1844828E-1,-1.701901E-1,1.1770515E-1,8.48558E-2,4.39649E-1,-5.12456E-1,-9.795863E-2,-3.1454632E-1,2.3759872E-1,-2.1441504E-3,2.5099887E-2,-1.3709809E-2,4.8403502E-1,-6.564901E-1,-5.18814E-2,-1.6810232E-1,3.1161988E-1,1.2437962E-1,-4.9271592E-1,4.4792098E-1,3.1839915E-2,-1.4192276E-1,1.7471354E-1,5.649289E-1,9.74652E-3,-3.6072087E-2,-2.6692227E-2,1.2512184E-2,-2.1164052E-2,5.0141457E-3,-3.578057E-1,-7.539985E-2,5.798233E-1,1.0866254E-2,-5.4093353E-2,2.8426354E-3,-5.439636E-1,-1.04959175E-1,5.4460543E-1,2.999675E-1,-1.0208839E-1,-2.4965852E-1,2.2206292E-1,2.3283325E-2,4.8017427E-1,6.233262E-1,6.584304E-2,-1.4990068E-2,1.982284E-1,8.283358E-3,-1.0795436E-2,-1.9178726E-2,6.281689E-3,-2.5104344E-2,-3.617307E-3,1.5284545E-2,-2.5463575E-2,-4.030192E-3,3.0602751E-2,-3.3469906E-3,1.0449808E-4,-2.9622952E-2,-4.4436734E-3,-1.5172136E-2,7.2834613E-3,-1.2048004E-2,3.0803764E-2,-4.46606E-3,1.6928159E-2,-2.1641664E-2,2.3373286E-3,-1.7672807E-2,3.4808186E-3,1.3067125E-2,-5.0633476E-4,1.52599355E-2,-5.841333E-3,2.6854882E-2,3.6386808E-3,3.2049607E-2,1.4809462E-4,-1.0443788E-3,6.0176267E-3,2.5940117E-5,1.0978876E-2],"categories":[],"categories_nodes":[],"categories_segments":[],"categories_sizes":[],"default_left":[0,0,0,0,0,0,0,0,0,0,0,0,0,0,0,0,0,0,0,0,0,0,0,0,0,0,0,0,0,0,0,0,0,0,0,0,0,0,0,0,0,0,0,0,0,0,0,0,0,0,0,0,0,0,0,0,0,0,0,0,0,0,0,0,0,0,0,0,0,0,0,0,0,0,0,0,0,0,0,0,0,0,0,0,0,0,0],"id":8,"left_children":[1,3,5,7,9,11,13,15,17,19,21,23,-1,-1,25,27,29,31,33,35,37,39,41,43,45,47,49,-1,51,-1,-1,53,55,57,59,-1,61,-1,63,65,67,69,71,73,75,77,79,81,83,-1,85,-1,-1,-1,-1,-1,-1,-1,-1,-1,-1,-1,-1,-1,-1,-1,-1,-1,-1,-1,-1,-1,-1,-1,-1,-1,-1,-1,-1,-1,-1,-1,-1,-1,-1,-1,-1],"loss_changes":[2.3758638E0,1.3220766E0,9.9101937E-1,1.42926E0,1.2119875E0,8.334131E-1,5.4030657E-1,6.4206576E-1,1.507551E0,4.675783E-1,7.5384057E-1,5.1854026E-1,0E0,0E0,4.7302198E-1,2.94832E-1,5.002078E-1,1.4433212E0,8.488383E-1,4.988335E-2,1.4067847E-1,5.2225554E-1,3.9145952E-1,5.145441E-1,4.1738868E-1,2.689917E-1,2.2482702E-1,0E0,9.969229E-2,0E0,0E0,1.1701393E0,8.268485E-1,8.269591E-1,1.4930809E-1,0E0,1.2859036E-3,0E0,2.8102517E-2,1.5033294E-1,5.7330465E-1,8.434728E-2,3.8683566E-1,3.3958375E-1,3.1860054E-2,3.218389E-1,3.094554E-2,1.0117531E-1,1.3067887E-2,0E0,9.864226E-3,0E0,0E0,0E0,0E0,0E0,0E0,0E0,0E0,0E0,0E0,0E0,0E0,0E0,0E0,0E0,0E0,0E0,0E0,0E0,0E0,0E0,0E0,0E0,0E0,0E0,0E0,0E0,0E0,0E0,0E0,0E0,0E0,0E0,0E0,0E0,0E0],"parents":[2147483647,0,0,1,1,2,2,3,3,4,4,5,5,6,6,7,7,8,8,9,9,10,10,11,11,14,14,15,15,16,16,17,17,18,18,19,19,20,20,21,21,22,22,23,23,24,24,25,25,26,26,28,28,31,31,32,32,33,33,34,34,36,36,38,38,39,39,40,40,41,41,42,42,43,43,44,44,45,45,46,46,47,47,48,48,50,50],"right_children":[2,4,6,8,10,12,14,16,18,20,22,24,-1,-1,26,28,30,32,34,36,38,40,42,44,46,48,50,-1,52,-1,-1,54,56,58,60,-1,62,-1,64,66,68,70,72,74,76,78,80,82,84,-1,86,-1,-1,-1,-1,-1,-1,-1,-1,-1,-1,-1,-1,-1,-1,-1,-1,-1,-1,-1,-1,-1,-1,-1,-1,-1,-1,-1,-1,-1,-1,-1,-1,-1,-1,-1,-1],"split_conditions":[5.418209E-1,2.9388191E-3,7.046133E-2,6.94053E-1,7.6923E-2,4.022331E-2,3.3046424E-1,6.830401E-2,8.232079E-3,7.978723E-3,8.2092196E-2,4.043168E-2,2.5099887E-2,-1.3709809E-2,1.01010665E-1,5.475433E-4,1.1745643E-1,1.3512692E-4,4.2382303E-6,1.4285715E-1,3.2059846E-3,2.3285085E-1,6.435006E-2,7.438017E-2,2.7857143E-1,3.750001E-2,1.4431542E-1,-3.6072087E-2,3.138232E-2,1.2512184E-2,-2.1164052E-2,1.0204081E-2,1.6528925E-2,7.734756E-3,1.3127941E-1,1.0866254E-2,5E-1,2.8426354E-3,6.6791344E-3,3.3333334E-1,4.310345E-3,4.2857143E-1,3.1582078E-1,1.8473895E-1,1.4049587E-1,3.0968657E-1,1E0,1.4512533E-1,3.6170214E-2,-1.4990068E-2,2.5886524E-2,8.283358E-3,-1.0795436E-2,-1.9178726E-2,6.281689E-3,-2.5104344E-2,-3.617307E-3,1.5284545E-2,-2.5463575E-2,-4.030192E-3,3.0602751E-2,-3.3469906E-3,1.0449808E-4,-2.9622952E-2,-4.4436734E-3,-1.5172136E-2,7.2834613E-3,-1.2048004E-2,3.0803764E-2,-4.46606E-3,1.6928159E-2,-2.1641664E-2,2.3373286E-3,-1.7672807E-2,3.4808186E-3,1.3067125E-2,-5.0633476E-4,1.52599355E-2,-5.841333E-3,2.6854882E-2,3.6386808E-3,3.2049607E-2,1.4809462E-4,-1.0443788E-3,6.0176267E-3,2.5940117E-5,1.0978876E-2],"split_indices":[107,12,64,104,57,79,109,90,94,10,10,129,0,0,54,127,40,94,127,0,12,107,35,128,126,43,15,0,129,0,0,84,128,129,89,0,3,0,12,1,131,0,130,132,128,130,0,66,10,0,10,0,0,0,0,0,0,0,0,0,0,0,0,0,0,0,0,0,0,0,0,0,0,0,0,0,0,0,0,0,0,0,0,0,0,0,0],"split_type":[0,0,0,0,0,0,0,0,0,0,0,0,0,0,0,0,0,0,0,0,0,0,0,0,0,0,0,0,0,0,0,0,0,0,0,0,0,0,0,0,0,0,0,0,0,0,0,0,0,0,0,0,0,0,0,0,0,0,0,0,0,0,0,0,0,0,0,0,0,0,0,0,0,0,0,0,0,0,0,0,0,0,0,0,0,0,0],"sum_hessian":[1.1358603E2,7.978738E1,3.379865E1,5.8842953E1,2.0944427E1,2.1934866E1,1.1863782E1,9.192068E0,4.9650883E1,4.195364E0,1.6749063E1,1.8972734E1,2.962132E0,3.9140582E-1,1.1472376E1,6.6782336E0,2.513835E0,4.2894432E1,6.756452E0,1.2984641E0,2.8968997E0,7.7006745E0,9.0483885E0,1.07075815E1,8.265153E0,9.63751E0,1.8348658E0,5.921981E0,7.562524E-1,1.5660796E0,9.477552E-1,2.2936749E1,1.9957684E1,3.0598845E0,3.6965675E0,7.1066886E-1,5.877952E-1,2.3776704E-1,2.6591327E0,1.1334683E0,6.5672064E0,2.6011214E0,6.447267E0,8.504455E0,2.2031271E0,6.245306E0,2.0198472E0,8.405105E0,1.2324052E0,4.7089458E-1,1.3639712E0,4.367277E-1,3.1952474E-1,4.9167843E0,1.8019964E1,1.2753001E1,7.204682E0,1.786313E0,1.2735715E0,1.0217794E-1,3.5943897E0,3.2258242E-1,2.6521277E-1,2.1302757E0,5.2885693E-1,5.149384E-1,6.185298E-1,3.498888E-1,6.2173176E0,1.1607472E-1,2.4850466E0,1.4086921E0,5.0385747E0,6.337158E0,2.1672962E0,1.7769616E0,4.2616552E-1,1.6822236E0,4.5630827E0,1.4929018E0,5.269453E-1,8.140051E0,2.6505363E-1,7.136761E-1,5.18729E-1,2.3275706E-1,1.1312141E0],"tree_param":{"num_deleted":"0","num_feature":"136","num_nodes":"87","size_leaf_vector":"1"}},{"base_weights":[-8.065581E-10,-9.5178895E-2,2.4232867E-1,-4.2203775E-1,-4.6950113E-2,2.8289497E-1,-3.1987736E-1,-5.398495E-1,7.800089E-2,-2.3789662E-1,3.6020555E-2,-1.08082015E-2,3.830509E-1,-2.1537779E-2,-1.5825624E-2,-6.556113E-1,-6.818723E-2,2.5327978E-1,-1.3512286E-2,1.8464138E-1,-3.903299E-1,-2.6987028E-1,1.2287042E-1,1.8454297E-1,-2.8538886E-1,-1.3651595E-1,4.1289845E-1,-1.8080504E-3,5.897804E-4,-3.4555376E-2,-7.184758E-2,1.4090984E-1,-1.5753796E-2,3.1706956E-1,-5.078105E-3,-1.8333867E-1,4.2983E-1,-4.9408323E-1,1.1381247E-1,-4.758626E-2,-3.251223E-2,2.3436233E-1,-9.672018E-2,-1.547597E-1,4.7082952E-1,-3.6509815E-1,-1.644561E-2,-1.579308E-2,7.790856E-3,-1.227989E-2,4.3502635E-1,4.28424E-3,-8.604175E-3,9.095437E-3,-9.919276E-4,1.677488E-2,1.3885278E-3,-1.6941195E-2,1.3401322E-2,2.3132639E-2,-4.057313E-3,-2.7475372E-2,1.442752E-2,-8.230338E-3,1.0392788E-2,-1.2779067E-2,1.5785951E-2,1.4323416E-2,-2.4259105E-2,-1.5773524E-2,7.1094804E-3,-1.5020055E-2,8.576141E-3,1.663853E-4,2.5320822E-2,-6.4545864E-4,-2.1749971E-2,-1.0885082E-3,2.2292245E-4,2.7783832E-2,1.3439948E-2],"categories":[],"categories_nodes":[],"categories_segments":[],"categories_sizes":[],"default_left":[0,0,0,0,0,0,0,0,0,0,0,0,0,0,0,0,0,0,0,0,0,0,0,0,0,0,0,0,0,0,0,0,0,0,0,0,0,0,0,0,0,0,0,0,0,0,0,0,0,0,0,0,0,0,0,0,0,0,0,0,0,0,0,0,0,0,0,0,0,0,0,0,0,0,0,0,0,0,0,0,0],"id":9,"left_children":[1,3,5,7,9,11,13,15,17,19,21,23,25,-1,27,29,31,33,-1,35,37,39,41,43,45,47,49,-1,-1,-1,51,53,-1,55,-1,57,59,61,63,65,-1,67,69,71,73,75,77,-1,-1,-1,79,-1,-1,-1,-1,-1,-1,-1,-1,-1,-1,-1,-1,-1,-1,-1,-1,-1,-1,-1,-1,-1,-1,-1,-1,-1,-1,-1,-1,-1,-1],"loss_changes":[2.6530116E0,1.282097E0,8.3028734E-1,6.603118E-1,1.1665893E0,9.097266E-1,8.260155E-2,4.259081E-1,2.439228E-1,1.5065776E0,1.409887E0,5.247541E-1,4.1280293E-1,0E0,1.4077603E-3,9.1346025E-2,1.8969932E-1,8.7171316E-2,0E0,6.7279506E-1,9.291446E-1,9.6444553E-1,1.027657E0,6.313852E-1,8.084515E-2,1.5408295E-1,4.2717505E-1,0E0,0E0,0E0,3.852627E-2,1.8206347E-2,0E0,2.9503405E-3,0E0,3.247636E-1,1.08820915E-1,7.6702213E-1,1.3007452E-1,7.237089E-1,0E0,1.1707109E0,8.04278E-1,2.1232778E-1,5.4313123E-2,7.015863E-2,3.1670858E-4,0E0,0E0,0E0,2.8443766E-1,0E0,0E0,0E0,0E0,0E0,0E0,0E0,0E0,0E0,0E0,0E0,0E0,0E0,0E0,0E0,0E0,0E0,0E0,0E0,0E0,0E0,0E0,0E0,0E0,0E0,0E0,0E0,0E0,0E0,0E0],"parents":[2147483647,0,0,1,1,2,2,3,3,4,4,5,5,6,6,7,7,8,8,9,9,10,10,11,11,12,12,14,14,15,15,16,16,17,17,19,19,20,20,21,21,22,22,23,23,24,24,25,25,26,26,30,30,31,31,33,33,35,35,36,36,37,37,38,38,39,39,41,41,42,42,43,43,44,44,45,45,46,46,50,50],"right_children":[2,4,6,8,10,12,14,16,18,20,22,24,26,-1,28,30,32,34,-1,36,38,40,42,44,46,48,50,-1,-1,-1,52,54,-1,56,-1,58,60,62,64,66,-1,68,70,72,74,76,78,-1,-1,-1,80,-1,-1,-1,-1,-1,-1,-1,-1,-1,-1,-1,-1,-1,-1,-1,-1,-1,-1,-1,-1,-1,-1,-1,-1,-1,-1,-1,-1,-1,-1],"split_conditions":[5.562211E-1,4.293745E-2,7.256E-2,2.9252807E-4,1.8035023E-7,2.3488937E-2,5.298E-2,2.0481928E-1,3.9193507E-2,1.9512195E-2,7.55901E-1,2.5383287E-4,7.81771E-1,-2.1537779E-2,6.666667E-1,3.4731498E-3,8.189655E-2,1.6365248E-1,-1.3512286E-2,2.3404256E-2,1.753585E-2,7.3642904E-1,2.77778E-1,1.0153315E-4,4.0268E-2,6.666667E-1,2.2866953E-2,-1.8080504E-3,5.897804E-4,-3.4555376E-2,1.4285715E-1,1.1223404E-1,-1.5753796E-2,2.5E-1,-5.078105E-3,8.264462E-3,2.857143E-1,8.227125E-1,3.2059846E-3,7.2413844E-1,-3.251223E-2,7.752056E-2,6.5853655E-2,6.312258E-7,4.397163E-2,1.724138E-2,2.137323E-3,-1.579308E-2,7.790856E-3,-1.227989E-2,9.137679E-1,4.28424E-3,-8.604175E-3,9.095437E-3,-9.919276E-4,1.677488E-2,1.3885278E-3,-1.6941195E-2,1.3401322E-2,2.3132639E-2,-4.057313E-3,-2.7475372E-2,1.442752E-2,-8.230338E-3,1.0392788E-2,-1.2779067E-2,1.5785951E-2,1.4323416E-2,-2.4259105E-2,-1.5773524E-2,7.1094804E-3,-1.5020055E-2,8.576141E-3,1.663853E-4,2.5320822E-2,-6.4545864E-4,-2.1749971E-2,-1.0885082E-3,2.2292245E-4,2.7783832E-2,1.3439948E-2],"split_indices":[107,49,66,127,127,80,45,132,129,24,104,65,100,0,1,12,131,10,0,10,72,120,47,65,45,1,84,0,0,0,0,10,0,3,0,128,0,105,12,124,0,65,39,127,10,131,12,0,0,0,122,0,0,0,0,0,0,0,0,0,0,0,0,0,0,0,0,0,0,0,0,0,0,0,0,0,0,0,0,0,0],"split_type":[0,0,0,0,0,0,0,0,0,0,0,0,0,0,0,0,0,0,0,0,0,0,0,0,0,0,0,0,0,0,0,0,0,0,0,0,0,0,0,0,0,0,0,0,0,0,0,0,0,0,0,0,0,0,0,0,0,0,0,0,0,0,0,0,0,0,0,0,0,0,0,0,0,0,0,0,0,0,0,0,0],"sum_hessian":[1.1302539E2,8.158763E1,3.143776E1,9.493949E0,7.209368E1,2.978539E1,1.6523687E0,7.619207E0,1.8747417E0,2.1271887E1,5.0821796E1,7.8010936E0,2.1984297E1,9.054583E-1,7.469104E-1,5.8045697E0,1.8146375E0,1.4284676E0,4.4627404E-1,5.583471E0,1.5688416E1,1.0772619E1,4.0049175E1,4.749768E0,3.0513256E0,1.0001718E0,2.0984125E1,2.5211975E-1,4.9479067E-1,5.298507E0,5.0606227E-1,1.2149335E0,5.99704E-1,1.3010303E0,1.2743738E-1,2.33354E0,3.2499309E0,1.3027324E1,2.6610916E0,7.5093756E0,3.2632432E0,2.6518015E1,1.353116E1,2.383867E0,2.365901E0,2.0779386E0,9.73387E-1,5.699956E-1,4.3017617E-1,3.5388783E-1,2.0630238E1,2.532381E-1,2.528242E-1,8.6315036E-1,3.5178316E-1,1.0729905E0,2.2803976E-1,1.9210994E0,4.124406E-1,3.1426337E0,1.0729734E-1,1.2443947E1,5.8337665E-1,4.8244947E-1,2.178642E0,4.9639735E0,2.5454023E0,2.528861E1,1.229406E0,6.8963113E0,6.6348495E0,1.7030194E0,6.8084764E-1,2.447077E-1,2.1211932E0,5.403135E-1,1.5376251E0,7.427627E-1,2.3062432E-1,1.0596367E1,1.0033871E1],"tree_param":{"num_deleted":"0","num_feature":"136","num_nodes":"81","size_leaf_vector":"1"}},{"base_weights":[-3.9500825E-9,-1.4741747E-1,1.3493882E-1,-4.8002136E-1,-3.2767586E-2,-2.8232926E-1,2.0014359E-1,-5.6313556E-1,2.5301772E-1,-2.549472E-1,1.440268E-1,-5.105075E-1,1.7350696E-1,5.1840115E-1,1.07080065E-1,-6.876237E-1,-6.850979E-2,1.6808394E-2,1.3522556E-4,-5.1685035E-1,-2.0975727E-3,-1.2492819E-1,2.538373E-1,-6.324575E-1,3.0682426E-2,-2.5767314E-1,3.7046233E-1,-2.2893259E-1,6.0729855E-1,3.987852E-1,-3.320501E-2,6.676276E-3,-7.3509985E-1,-1.7348265E-2,1.062697E-1,-6.3231134E-1,9.172565E-2,3.2822198E-1,-3.4833303E-1,-3.279738E-1,2.0126934E-1,3.2312235E-1,-3.0229568E-1,-3.3598218E-2,-3.4386324E-4,-9.663547E-3,1.7473127E-1,-4.6745624E-4,-1.4526622E-2,2.1914681E-2,-5.6197974E-3,-1.4056723E-2,1.5660723E-3,2.6534865E-2,6.58894E-1,5.5585176E-1,1.1543338E-2,-1.5769804E-1,2.1851258E-1,-3.8057666E-2,-1.3676432E-3,8.886212E-3,-8.4732793E-4,-3.3071153E-2,9.757962E-5,1.4319171E-2,-9.378805E-3,-6.332509E-3,2.0360066E-2,-2.878209E-2,1.2291696E-2,-2.8749967E-2,2.0171106E-3,1.6850496E-2,-1.222176E-2,-1.2640717E-2,1.996193E-2,-2.0332946E-2,9.3221944E-4,1.0960331E-2,-7.3463353E-4,-1.1341407E-2,1.10557405E-2,3.368306E-2,4.0678258E-4,2.9733611E-2,-2.9921737E-3,8.148404E-3,-1.6353106E-2,-1.7694054E-2,6.461927E-4,2.1879356E-2,3.699275E-4],"categories":[],"categories_nodes":[],"categories_segments":[],"categories_sizes":[],"default_left":[0,0,0,0,0,0,0,0,0,0,0,0,0,0,0,0,0,0,0,0,0,0,0,0,0,0,0,0,0,0,0,0,0,0,0,0,0,0,0,0,0,0,0,0,0,0,0,0,0,0,0,0,0,0,0,0,0,0,0,0,0,0,0,0,0,0,0,0,0,0,0,0,0,0,0,0,0,0,0,0,0,0,0,0,0,0,0,0,0,0,0,0,0],"id":10,"left_children":[1,3,5,7,9,11,13,15,17,19,21,23,25,27,29,31,33,-1,-1,35,37,39,41,43,45,47,49,51,53,55,57,-1,59,-1,61,63,65,67,69,71,73,75,77,-1,-1,-1,79,-1,-1,-1,-1,-1,-1,81,83,85,87,89,91,-1,-1,-1,-1,-1,-1,-1,-1,-1,-1,-1,-1,-1,-1,-1,-1,-1,-1,-1,-1,-1,-1,-1,-1,-1,-1,-1,-1,-1,-1,-1,-1,-1,-1],"loss_changes":[2.2806277E0,2.0736098E0,1.6851069E0,9.937365E-1,1.6793706E0,9.731376E-1,1.4950976E0,7.4468946E-1,4.3066576E-2,1.2499774E0,7.3837376E-1,4.1018772E-1,3.9976382E-1,9.086838E-1,1.7224834E0,4.9435186E-1,2.1676427E-1,0E0,0E0,7.097757E-1,1.3284835E0,5.6984633E-1,7.650479E-1,1.1594951E-1,9.96656E-2,1.1264257E-2,1.4326185E-1,3.5403565E-2,3.0095434E-1,8.232541E-1,9.472335E-1,0E0,1.5916681E-1,0E0,2.9745676E-2,1.475892E-1,1.8162003E-1,2.6525044E-1,9.0707517E-1,4.843791E-1,2.9643625E-1,7.972852E-1,8.91538E-2,0E0,0E0,0E0,1.8117718E-2,0E0,0E0,0E0,0E0,0E0,0E0,1.4426981E-1,8.790827E-2,2.6703477E-1,3.0748355E-1,6.7637026E-1,4.6193674E-1,0E0,0E0,0E0,0E0,0E0,0E0,0E0,0E0,0E0,0E0,0E0,0E0,0E0,0E0,0E0,0E0,0E0,0E0,0E0,0E0,0E0,0E0,0E0,0E0,0E0,0E0,0E0,0E0,0E0,0E0,0E0,0E0,0E0,0E0],"parents":[2147483647,0,0,1,1,2,2,3,3,4,4,5,5,6,6,7,7,8,8,9,9,10,10,11,11,12,12,13,13,14,14,15,15,16,16,19,19,20,20,21,21,22,22,23,23,24,24,25,25,26,26,27,27,28,28,29,29,30,30,32,32,34,34,35,35,36,36,37,37,38,38,39,39,40,40,41,41,42,42,46,46,53,53,54,54,55,55,56,56,57,57,58,58],"right_children":[2,4,6,8,10,12,14,16,18,20,22,24,26,28,30,32,34,-1,-1,36,38,40,42,44,46,48,50,52,54,56,58,-1,60,-1,62,64,66,68,70,72,74,76,78,-1,-1,-1,80,-1,-1,-1,-1,-1,-1,82,84,86,88,90,92,-1,-1,-1,-1,-1,-1,-1,-1,-1,-1,-1,-1,-1,-1,-1,-1,-1,-1,-1,-1,-1,-1,-1,-1,-1,-1,-1,-1,-1,-1,-1,-1,-1,-1],"split_conditions":[8.66333E-1,1.5616322E-1,1.27551025E-2,2.7964206E-4,4.3302572E-1,5.0886523E-2,6.422762E-1,7.4009E-1,3.9539006E-2,6.5212595E-1,5.8109667E-3,3.7234E-2,1.6528925E-2,3.687943E-2,1.7857144E-2,6.103702E-5,2.7052533E-7,1.6808394E-2,1.3522556E-4,1.1639803E-3,2.9183E-2,1.1111111E-1,5.7660407E-1,1.2624516E-6,2.7311745E-3,5.4432623E-2,2.008032E-2,2.4044884E-3,4.310345E-3,2.5E-1,4.156333E-4,6.676276E-3,5.610473E-3,-1.7348265E-2,6E-1,4.274646E-3,3.138232E-2,4.219E-3,2.6087E-1,4.016064E-2,1E0,2.4457725E-3,7.5075075E-2,-3.3598218E-2,-3.4386324E-4,-9.663547E-3,2.5E-1,-4.6745624E-4,-1.4526622E-2,2.1914681E-2,-5.6197974E-3,-1.4056723E-2,1.5660723E-3,4.3085106E-2,4.000007E-2,6.0992908E-2,3.248E-2,2.8017E-2,5.729862E-4,-3.8057666E-2,-1.3676432E-3,8.886212E-3,-8.4732793E-4,-3.3071153E-2,9.757962E-5,1.4319171E-2,-9.378805E-3,-6.332509E-3,2.0360066E-2,-2.878209E-2,1.2291696E-2,-2.8749967E-2,2.0171106E-3,1.6850496E-2,-1.222176E-2,-1.2640717E-2,1.996193E-2,-2.0332946E-2,9.3221944E-4,1.0960331E-2,-7.3463353E-4,-1.1341407E-2,1.10557405E-2,3.368306E-2,4.0678258E-4,2.9733611E-2,-2.9921737E-3,8.148404E-3,-1.6353106E-2,-1.7694054E-2,6.461927E-4,2.1879356E-2,3.699275E-4],"split_indices":[102,130,34,133,109,10,117,102,10,122,75,50,128,10,34,130,127,0,0,127,45,63,117,127,14,10,132,12,131,125,44,0,12,0,2,12,129,55,55,132,0,129,20,0,0,0,3,0,0,0,0,0,0,10,41,10,74,60,44,0,0,0,0,0,0,0,0,0,0,0,0,0,0,0,0,0,0,0,0,0,0,0,0,0,0,0,0,0,0,0,0,0,0],"split_type":[0,0,0,0,0,0,0,0,0,0,0,0,0,0,0,0,0,0,0,0,0,0,0,0,0,0,0,0,0,0,0,0,0,0,0,0,0,0,0,0,0,0,0,0,0,0,0,0,0,0,0,0,0,0,0,0,0,0,0,0,0,0,0,0,0,0,0,0,0,0,0,0,0,0,0,0,0,0,0,0,0,0,0,0,0,0,0,0,0,0,0,0,0],"sum_hessian":[1.12648544E2,5.3790844E1,5.88577E1,1.2971926E1,4.081892E1,7.504419E0,5.135328E1,1.1859086E1,1.1128395E0,1.7891901E1,2.292702E1,4.921116E0,2.583303E0,1.0584869E1,4.076841E1,9.162791E0,2.696294E0,5.7788587E-1,5.349536E-1,8.275739E0,9.616162E0,6.607015E0,1.6320004E1,3.8785043E0,1.0426117E0,7.133454E-1,1.8699574E0,9.577887E-1,9.627081E0,1.2640794E1,2.8127617E1,4.0174404E-1,8.761047E0,6.5985894E-1,2.0364354E0,6.9232383E0,1.3525004E0,4.9478164E0,4.668346E0,4.068859E0,2.5381563E0,1.4884608E1,1.4353948E0,3.5783756E0,3.0012873E-1,2.7435952E-1,7.6825225E-1,2.3347217E-1,4.7987327E-1,1.7205502E0,1.4940724E-1,7.309446E-1,2.2684416E-1,9.0904653E-1,8.718035E0,8.683376E0,3.9574177E0,1.906973E1,9.057884E0,8.377207E0,3.8384044E-1,1.0089545E0,1.0274807E0,6.578475E0,3.4476325E-1,7.8207946E-1,5.7042086E-1,6.426964E-1,4.30512E0,3.3991292E0,1.2692168E0,2.0995538E0,1.9693054E0,2.1325526E0,4.0560347E-1,1.4665415E0,1.3418067E1,8.816225E-1,5.5377233E-1,4.9483982E-1,2.734124E-1,3.228849E-1,5.861616E-1,8.490178E0,2.2785619E-1,8.200471E0,4.829058E-1,3.0929537E0,8.6446404E-1,8.37081E0,1.0698922E1,3.918685E0,5.1391993E0],"tree_param":{"num_deleted":"0","num_feature":"136","num_nodes":"93","size_leaf_vector":"1"}},{"base_weights":[-7.1788326E-9,-1.2335313E-1,1.5974128E-1,-3.5969323E-1,-3.0784355E-2,9.687955E-3,2.5072283E-1,-2.1168388E-1,-3.3889856E-2,-2.710931E-1,6.893484E-2,-1.1270683E-1,2.783417E-1,4.4994235E-2,3.604531E-1,-5.0126E-1,-8.030939E-2,-4.15137E-1,6.341093E-2,-3.1105196E-1,1.7064439E-1,-1.602155E-3,-4.70484E-1,-1.8786673E-1,4.1967356E-1,2.7775097E-1,-1.0503627E-1,4.2648324E-1,-4.9956273E-2,-5.5016404E-1,5.374539E-3,2.2685592E-1,-2.5403407E-1,-5.458409E-1,2.056715E-2,1.8920684E-1,-1.5952066E-2,-4.301377E-1,1.7340219E-2,4.706177E-1,5.3536717E-2,-2.1572004E-1,1.9043735E-1,-2.5262736E-2,-2.8186297E-2,-1.8399376E-2,8.182943E-3,-1.6547453E-2,4.7761112E-1,3.834378E-1,-1.1087604E-1,-2.2162132E-1,1.9851372E-2,-1.2656222E-1,4.9183628E-1,-3.6740136E-1,2.1738747E-1,-2.9872239E-2,-2.4153073E-3,-5.486812E-3,1.6485622E-2,-2.2492332E-2,3.114429E-3,-3.2830913E-2,9.356865E-3,1.3903256E-2,-1.781766E-2,1.0928347E-2,-4.665812E-3,-1.2818456E-3,-3.2417264E-2,2.8660024E-2,-1.5465948E-2,-5.6340615E-3,2.1811832E-2,-1.8452084E-2,6.8993024E-3,1.4104827E-2,-1.5406514E-2,1.245683E-3,-2.673022E-3,-4.074231E-3,2.1609103E-3,3.7712504E-3,2.8703172E-2,-5.9386822E-3,2.1635931E-2,1.0720036E-3,-7.93371E-3,-1.8886395E-2,6.9728508E-3,-2.0380942E-2,1.0661446E-2,2.8864387E-2,9.118437E-3,-2.0114303E-2,-1.0168704E-3,-4.6189764E-4,1.2180459E-2],"categories":[],"categories_nodes":[],"categories_segments":[],"categories_sizes":[],"default_left":[0,0,0,0,0,0,0,0,0,0,0,0,0,0,0,0,0,0,0,0,0,0,0,0,0,0,0,0,0,0,0,0,0,0,0,0,0,0,0,0,0,0,0,0,0,0,0,0,0,0,0,0,0,0,0,0,0,0,0,0,0,0,0,0,0,0,0,0,0,0,0,0,0,0,0,0,0,0,0,0,0,0,0,0,0,0,0,0,0,0,0,0,0,0,0,0,0,0,0],"id":11,"left_children":[1,3,5,7,9,11,13,15,-1,17,19,21,23,25,27,29,31,33,35,37,39,41,43,45,47,49,51,53,55,57,-1,59,61,63,65,67,-1,69,-1,71,73,75,77,79,-1,-1,-1,81,83,85,87,89,-1,91,93,95,97,-1,-1,-1,-1,-1,-1,-1,-1,-1,-1,-1,-1,-1,-1,-1,-1,-1,-1,-1,-1,-1,-1,-1,-1,-1,-1,-1,-1,-1,-1,-1,-1,-1,-1,-1,-1,-1,-1,-1,-1,-1,-1],"loss_changes":[2.2494466E0,1.3982034E0,6.766591E-1,7.0568895E-1,1.15408E0,6.829601E-1,6.819335E-1,4.8332345E-1,0E0,7.056042E-1,1.378037E0,5.686994E-1,5.0650114E-1,4.4473487E-1,5.640037E-1,1.8132937E-1,6.263843E-1,5.799607E-1,3.0625835E-1,7.4401516E-1,9.4751376E-1,5.31816E-1,1.2653577E-1,1.995633E-1,1.415962E-1,2.4535507E-1,5.540063E-1,6.8953514E-1,3.913807E-1,6.5167546E-2,0E0,1.8777408E-1,4.7892582E-1,7.4960923E-1,4.162934E-1,5.750467E-2,0E0,5.9024644E-1,0E0,7.890657E-1,1.3877485E0,3.8236707E-1,3.9871E-1,3.6439658E-3,0E0,0E0,0E0,9.6796965E-3,1.3914299E-1,1.5304089E-1,1.4985813E-2,4.530485E-1,0E0,3.3803463E-1,3.105893E-1,1.6635895E-2,1.7824553E-2,0E0,0E0,0E0,0E0,0E0,0E0,0E0,0E0,0E0,0E0,0E0,0E0,0E0,0E0,0E0,0E0,0E0,0E0,0E0,0E0,0E0,0E0,0E0,0E0,0E0,0E0,0E0,0E0,0E0,0E0,0E0,0E0,0E0,0E0,0E0,0E0,0E0,0E0,0E0,0E0,0E0,0E0],"parents":[2147483647,0,0,1,1,2,2,3,3,4,4,5,5,6,6,7,7,9,9,10,10,11,11,12,12,13,13,14,14,15,15,16,16,17,17,18,18,19,19,20,20,21,21,22,22,23,23,24,24,25,25,26,26,27,27,28,28,29,29,31,31,32,32,33,33,34,34,35,35,37,37,39,39,40,40,41,41,42,42,43,43,47,47,48,48,49,49,50,50,51,51,53,53,54,54,55,55,56,56],"right_children":[2,4,6,8,10,12,14,16,-1,18,20,22,24,26,28,30,32,34,36,38,40,42,44,46,48,50,52,54,56,58,-1,60,62,64,66,68,-1,70,-1,72,74,76,78,80,-1,-1,-1,82,84,86,88,90,-1,92,94,96,98,-1,-1,-1,-1,-1,-1,-1,-1,-1,-1,-1,-1,-1,-1,-1,-1,-1,-1,-1,-1,-1,-1,-1,-1,-1,-1,-1,-1,-1,-1,-1,-1,-1,-1,-1,-1,-1,-1,-1,-1,-1,-1],"split_conditions":[4.6909958E-1,1.8035023E-7,2.6506666E-2,1.1223404E-1,7.67303E-1,3.181818E-1,3.2423102E-4,2.748227E-2,-3.3889856E-2,2.9388191E-3,1.27551025E-2,8.12555E-1,7.94882E-1,3.6704308E-1,1.10169E-1,3.0495745E-1,2.1021022E-2,6.830401E-2,5.02082E-1,2.7272728E-1,1.7857144E-2,5.2208837E-2,4.007092E-2,2.85714E-1,6.25E-2,5.851064E-2,3.2059846E-3,1.2603581E-1,8.6597127E-1,4.274646E-3,5.374539E-3,1.2931035E-2,5.8295965E-2,1.4592137E-3,1.1745643E-1,7.1428573E-1,-1.5952066E-2,2.8014185E-2,1.7340219E-2,2.9642484E-1,9.8752E-2,5.3203316E-6,3.3333334E-1,2.1631205E-2,-2.8186297E-2,-1.8399376E-2,8.182943E-3,3.3333334E-1,1.6528925E-2,4.0684985E-3,3.549401E-2,2.1428572E-1,1.9851372E-2,2.5E-1,2.9642484E-1,3.3333334E-1,2.5886524E-2,-2.9872239E-2,-2.4153073E-3,-5.486812E-3,1.6485622E-2,-2.2492332E-2,3.114429E-3,-3.2830913E-2,9.356865E-3,1.3903256E-2,-1.781766E-2,1.0928347E-2,-4.665812E-3,-1.2818456E-3,-3.2417264E-2,2.8660024E-2,-1.5465948E-2,-5.6340615E-3,2.1811832E-2,-1.8452084E-2,6.8993024E-3,1.4104827E-2,-1.5406514E-2,1.245683E-3,-2.673022E-3,-4.074231E-3,2.1609103E-3,3.7712504E-3,2.8703172E-2,-5.9386822E-3,2.1635931E-2,1.0720036E-3,-7.93371E-3,-1.8886395E-2,6.9728508E-3,-2.0380942E-2,1.0661446E-2,2.8864387E-2,9.118437E-3,-2.0114303E-2,-1.0168704E-3,-4.6189764E-4,1.2180459E-2],"split_indices":[107,127,54,10,104,13,94,10,0,12,34,120,100,109,45,78,20,90,102,128,34,132,10,46,62,10,12,49,110,12,0,131,30,127,40,0,0,10,0,83,68,127,1,10,0,0,0,1,128,75,15,126,0,3,83,1,10,0,0,0,0,0,0,0,0,0,0,0,0,0,0,0,0,0,0,0,0,0,0,0,0,0,0,0,0,0,0,0,0,0,0,0,0,0,0,0,0,0,0],"split_type":[0,0,0,0,0,0,0,0,0,0,0,0,0,0,0,0,0,0,0,0,0,0,0,0,0,0,0,0,0,0,0,0,0,0,0,0,0,0,0,0,0,0,0,0,0,0,0,0,0,0,0,0,0,0,0,0,0,0,0,0,0,0,0,0,0,0,0,0,0,0,0,0,0,0,0,0,0,0,0,0,0,0,0,0,0,0,0,0,0,0,0,0,0,0,0,0,0,0,0],"sum_hessian":[1.1215853E2,6.3416073E1,4.8742455E1,1.7035793E1,4.638028E1,1.8816088E1,2.9926369E1,1.2762863E1,4.2729297E0,1.30978365E1,3.3282444E1,1.3325608E1,5.49048E0,1.0900164E1,1.9026205E1,3.1044722E0,9.658391E0,8.986865E0,4.1109705E0,6.5929494E0,2.6689493E1,1.0934477E1,2.3911314E0,1.2006526E0,4.2898273E0,3.9385762E0,6.961587E0,1.635561E1,2.6705956E0,2.9627037E0,1.4176825E-1,3.3786726E0,6.279719E0,6.7186155E0,2.26825E0,3.4736876E0,6.372831E-1,5.8755116E0,7.174377E-1,6.6462736E0,2.004322E1,5.1117396E0,5.822737E0,6.341352E-1,1.7569963E0,7.629097E-1,4.3774292E-1,5.8671904E-1,3.7031083E0,3.106986E0,8.3159006E-1,6.1029825E0,8.586045E-1,1.6294984E0,1.472611E1,1.0497967E0,1.6207988E0,2.5335484E0,4.2915535E-1,7.751502E-1,2.6035223E0,3.6179767E0,2.6617422E0,5.927023E0,7.915925E-1,1.503432E0,7.6481795E-1,3.3517456E0,1.2194198E-1,2.450466E0,3.4250455E0,6.107977E0,5.3829634E-1,1.4465838E1,5.577381E0,3.5357397E0,1.5760001E0,5.285255E0,5.37482E-1,2.700535E-1,3.6408168E-1,1.07028E-1,4.7969103E-1,1.0609906E0,2.642118E0,1.5162843E-1,2.9553576E0,3.6702558E-1,4.645645E-1,4.228672E0,1.8743109E0,7.825774E-1,8.4692097E-1,1.0861551E1,3.8645592E0,8.0933523E-1,2.4046148E-1,2.3525627E-1,1.3855426E0],"tree_param":{"num_deleted":"0","num_feature":"136","num_nodes":"99","size_leaf_vector":"1"}},{"base_weights":[5.9343055E-9,-1.01938896E-1,2.1446344E-1,-1.7503586E-1,9.910414E-2,4.088917E-2,3.1026635E-1,-4.6351632E-1,-6.8968594E-2,2.449397E-1,-2.3512529E-1,-1.2599188E-1,2.9473406E-1,6.792247E-2,4.3842483E-1,-6.3542306E-1,-3.30648E-2,-1.2650369E-1,3.12925E-1,-1.6093206E-1,3.9305717E-1,-4.118446E-1,2.1863885E-1,1.6100603E-1,-2.7926865E-1,4.0721512E-1,-1.507756E-2,1.781374E-1,-2.9646513E-1,1.17602274E-1,5.0036836E-1,-6.6644144E-1,4.7888085E-3,-2.238079E-2,1.963494E-1,-5.2059185E-2,-6.040984E-1,4.265903E-1,-2.2216551E-1,-3.2641616E-1,1.5010457E-1,5.0818545E-1,-2.0685213E-2,-5.775491E-1,1.305863E-1,1.5448804E-2,-8.063727E-2,-7.295944E-3,2.176479E-1,-4.754822E-1,-6.533923E-2,-1.3458875E-2,4.682547E-1,4.4969794E-1,-1.4338114E-2,-2.1536186E-2,9.233762E-3,2.7151337E-1,-1.4664044E-2,5.6945634E-1,1.6506857E-1,4.323081E-3,-3.4877826E-2,-1.029493E-2,1.4212954E-2,-5.446739E-3,1.945575E-2,1.1253109E-3,-3.2257296E-2,2.4319656E-2,2.3413065E-3,7.689816E-4,-1.3482004E-2,2.6974184E-3,-2.2111673E-2,-9.400029E-3,1.739292E-2,-1.2516973E-2,2.8162891E-2,-1.321758E-4,-3.2676905E-2,1.4088586E-2,-9.538191E-3,-1.5619841E-4,-4.8509487E-3,1.1348791E-2,7.137979E-4,-2.8427554E-2,3.3478604E-3,4.7353036E-3,-1.8252233E-2,2.1748412E-3,-4.051897E-3,5.823351E-3,2.6953403E-2,2.6053587E-2,1.3426201E-3,-1.0339228E-2,7.900531E-3,1.751365E-2,2.7220713E-3,-1.2142704E-3,2.9480709E-2,-2.7809986E-3,1.2381715E-2],"categories":[],"categories_nodes":[],"categories_segments":[],"categories_sizes":[],"default_left":[0,0,0,0,0,0,0,0,0,0,0,0,0,0,0,0,0,0,0,0,0,0,0,0,0,0,0,0,0,0,0,0,0,0,0,0,0,0,0,0,0,0,0,0,0,0,0,0,0,0,0,0,0,0,0,0,0,0,0,0,0,0,0,0,0,0,0,0,0,0,0,0,0,0,0,0,0,0,0,0,0,0,0,0,0,0,0,0,0,0,0,0,0,0,0,0,0,0,0,0,0,0,0,0,0],"id":12,"left_children":[1,3,5,7,9,11,13,15,17,19,21,23,25,27,29,31,33,35,37,39,41,43,45,47,49,51,-1,53,55,57,59,61,-1,-1,63,65,67,69,71,73,75,77,-1,79,81,-1,83,-1,85,87,89,91,93,95,97,-1,-1,99,-1,101,103,-1,-1,-1,-1,-1,-1,-1,-1,-1,-1,-1,-1,-1,-1,-1,-1,-1,-1,-1,-1,-1,-1,-1,-1,-1,-1,-1,-1,-1,-1,-1,-1,-1,-1,-1,-1,-1,-1,-1,-1,-1,-1,-1,-1],"loss_changes":[2.4879088E0,1.1509035E0,5.9699845E-1,1.7099825E0,1.0912257E0,6.383023E-1,6.9925237E-1,1.0985518E0,9.799971E-1,9.802611E-1,6.475379E-1,4.5243648E-1,5.204203E-1,4.2641714E-1,2.426312E-1,3.0780363E-1,5.988591E-1,1.3163484E0,4.5311618E-1,2.9543385E-1,1.2752061E0,5.563285E-1,9.525877E-2,9.8847836E-2,2.377359E-1,1.4529693E-1,0E0,4.124213E-1,2.4334118E-1,3.1755278E-1,1.9343233E-1,3.0499983E-1,0E0,0E0,2.0541278E-1,8.9276725E-1,1.4357877E-1,9.536499E-2,2.3203582E-2,1.7540517E-1,2.2236824E-1,5.7891107E-1,0E0,1.8537211E-1,1.5420218E-1,0E0,1.4699539E-3,0E0,3.7013143E-3,1.986528E-1,2.3712887E-1,9.906423E-3,5.5671334E-2,8.417046E-2,2.1557799E-1,0E0,0E0,3.6601633E-2,0E0,1.3256693E-1,7.805887E-2,0E0,0E0,0E0,0E0,0E0,0E0,0E0,0E0,0E0,0E0,0E0,0E0,0E0,0E0,0E0,0E0,0E0,0E0,0E0,0E0,0E0,0E0,0E0,0E0,0E0,0E0,0E0,0E0,0E0,0E0,0E0,0E0,0E0,0E0,0E0,0E0,0E0,0E0,0E0,0E0,0E0,0E0,0E0,0E0],"parents":[2147483647,0,0,1,1,2,2,3,3,4,4,5,5,6,6,7,7,8,8,9,9,10,10,11,11,12,12,13,13,14,14,15,15,16,16,17,17,18,18,19,19,20,20,21,21,22,22,23,23,24,24,25,25,27,27,28,28,29,29,30,30,31,31,34,34,35,35,36,36,37,37,38,38,39,39,40,40,41,41,43,43,44,44,46,46,48,48,49,49,50,50,51,51,52,52,53,53,54,54,57,57,59,59,60,60],"right_children":[2,4,6,8,10,12,14,16,18,20,22,24,26,28,30,32,34,36,38,40,42,44,46,48,50,52,-1,54,56,58,60,62,-1,-1,64,66,68,70,72,74,76,78,-1,80,82,-1,84,-1,86,88,90,92,94,96,98,-1,-1,100,-1,102,104,-1,-1,-1,-1,-1,-1,-1,-1,-1,-1,-1,-1,-1,-1,-1,-1,-1,-1,-1,-1,-1,-1,-1,-1,-1,-1,-1,-1,-1,-1,-1,-1,-1,-1,-1,-1,-1,-1,-1,-1,-1,-1,-1,-1],"split_conditions":[5.3322554E-1,7.3252475E-1,2.6506666E-2,2.2127445E-1,4.442E-2,4.043168E-2,2.5102824E-1,1.7340219E-6,3.1709933E-1,1.3214515E-2,3.2059846E-3,9.0175114E-8,6.5622026E-1,2.586207E-2,2.4265692E-2,1.9827685E-1,2.60029E-1,1.8297872E-1,3.5714287E-2,6.6730217E-3,2.1052632E-2,6.663508E-1,7.5E-1,2.22222E-1,7.491187E-1,7.925532E-2,-1.507756E-2,3.663737E-2,6E-1,2.0011818E-1,9.195466E-2,6.103702E-5,4.7888085E-3,-2.238079E-2,6.729944E-1,1.1639803E-3,2.3471786E-1,1.02908E-1,2.5E-1,7.857143E-2,3.3510637E-2,8.032128E-3,-2.0685213E-2,1.81818E-1,2.6595745E-2,1.5448804E-2,7.0921984E-3,-7.295944E-3,3.3333334E-1,5.3203316E-6,5.405E-3,5.714286E-1,1.53846E-1,1.6029923E-3,2.5383287E-4,-2.1536186E-2,9.233762E-3,2.030663E-4,-1.4664044E-2,8.66333E-1,3.687943E-2,4.323081E-3,-3.4877826E-2,-1.029493E-2,1.4212954E-2,-5.446739E-3,1.945575E-2,1.1253109E-3,-3.2257296E-2,2.4319656E-2,2.3413065E-3,7.689816E-4,-1.3482004E-2,2.6974184E-3,-2.2111673E-2,-9.400029E-3,1.739292E-2,-1.2516973E-2,2.8162891E-2,-1.321758E-4,-3.2676905E-2,1.4088586E-2,-9.538191E-3,-1.5619841E-4,-4.8509487E-3,1.1348791E-2,7.137979E-4,-2.8427554E-2,3.3478604E-3,4.7353036E-3,-1.8252233E-2,2.1748412E-3,-4.051897E-3,5.823351E-3,2.6953403E-2,2.6053587E-2,1.3426201E-3,-1.0339228E-2,7.900531E-3,1.751365E-2,2.7220713E-3,-1.2142704E-3,2.9480709E-2,-2.7809986E-3,1.2381715E-2],"split_indices":[107,123,54,130,55,129,17,134,74,130,12,127,111,131,80,71,107,10,36,135,11,129,3,57,115,10,0,74,46,15,54,130,0,0,110,127,130,55,3,126,10,132,0,47,10,0,10,0,1,127,50,0,57,12,65,0,0,65,0,102,10,0,0,0,0,0,0,0,0,0,0,0,0,0,0,0,0,0,0,0,0,0,0,0,0,0,0,0,0,0,0,0,0,0,0,0,0,0,0,0,0,0,0,0,0],"split_type":[0,0,0,0,0,0,0,0,0,0,0,0,0,0,0,0,0,0,0,0,0,0,0,0,0,0,0,0,0,0,0,0,0,0,0,0,0,0,0,0,0,0,0,0,0,0,0,0,0,0,0,0,0,0,0,0,0,0,0,0,0,0,0,0,0,0,0,0,0,0,0,0,0,0,0,0,0,0,0,0,0,0,0,0,0,0,0,0,0,0,0,0,0,0,0,0,0,0,0,0,0,0,0,0,0],"sum_hessian":[1.11799736E2,7.613559E1,3.5664143E1,5.592959E1,2.0206001E1,1.3191246E1,2.2472897E1,1.4129722E1,4.179987E1,1.4253758E1,5.9522433E0,8.262822E0,4.9284244E0,8.302708E0,1.4170188E1,9.756966E0,4.372756E0,3.690813E1,4.8917365E0,3.7878284E0,1.046593E1,4.3503666E0,1.6018767E0,2.8590548E0,5.403767E0,4.413044E0,5.153803E-1,6.7670393E0,1.5356686E0,2.7622557E0,1.1407932E1,9.444866E0,3.120988E-1,1.2189646E0,3.1537917E0,3.2890385E1,4.017747E0,4.2019234E0,6.898132E-1,2.4401329E0,1.3476957E0,9.482788E0,9.831421E-1,3.282783E0,1.0675833E0,1.2055632E0,3.9631364E-1,1.9986759E-1,2.6591873E0,2.1808786E0,3.2228887E0,6.5796554E-1,3.7550783E0,2.2525556E0,4.5144835E0,1.2825644E0,2.5310418E-1,2.2562802E0,5.059755E-1,8.879895E0,2.528037E0,3.0424172E-1,9.140625E0,3.2491562E-1,2.828876E0,2.9801495E1,3.0888903E0,2.747832E-1,3.7429638E0,3.387677E0,8.142466E-1,2.2750543E-1,4.6230775E-1,6.9425845E-1,1.7458744E0,5.155558E-1,8.3213985E-1,4.0188473E-1,9.080903E0,5.04057E-1,2.778726E0,8.097728E-1,2.5781053E-1,2.768834E-1,1.1943025E-1,2.4315963E0,2.2759107E-1,1.8204055E0,3.60473E-1,2.5468512E0,6.760377E-1,5.504241E-1,1.0754146E-1,1.0723826E0,2.6826959E0,1.7284973E0,5.240582E-1,2.0384855E0,2.4759982E0,1.2053282E0,1.0509518E0,2.8485364E-1,8.595041E0,7.77153E-1,1.750884E0],"tree_param":{"num_deleted":"0","num_feature":"136","num_nodes":"105","size_leaf_vector":"1"}},{"base_weights":[-1.435783E-9,-1.3523711E-1,1.3920544E-1,-3.1709644E-1,-2.9929373E-3,1.7262052E-1,-4.6669856E-1,1.6305067E-1,-3.91713E-1,2.2628613E-1,-1.817538E-1,-6.252171E-2,2.4137595E-1,-2.8725851E-2,8.472099E-3,-1.1366883E-2,2.6908284E-1,-4.766367E-1,1.356928E-1,-3.3517438E-1,3.1439155E-1,-3.8736787E-1,1.125858E-1,-5.4290175E-1,1.2585698E-1,5.167006E-1,1.559108E-1,3.233153E-1,-5.8777505E-3,-5.863897E-1,-6.378166E-2,3.7367788E-1,-2.7434412E-1,-2.257288E-2,5.059123E-3,5.151981E-1,-5.010863E-3,-5.0324464E-1,8.271804E-2,-1.9279847E-2,2.1565452E-1,-2.9922796E-2,1.843259E-3,3.4909216E-1,-3.597612E-1,-9.801792E-2,5.678474E-1,1.9171424E-1,-4.1089007E-1,1.792334E-2,-3.7732408E-3,-3.1074703E-2,1.5642587E-3,4.3078717E-3,-1.8815061E-2,2.040373E-2,-8.55944E-5,-1.5889468E-2,-1.3354208E-4,-6.730083E-3,2.7337048E-2,-2.0646723E-2,1.36686135E-2,-2.7378216E-2,6.720728E-3,1.5288398E-2,-1.601812E-2,-1.1633794E-2,1.7336385E-2,-1.7194375E-3,2.5261154E-2,-2.1587662E-2,7.245996E-4,-1.1070929E-2,5.497285E-3,-1.3508536E-3,3.0434389E-2,1.3439621E-2,-1.8699078E-3,-2.2968387E-3,-2.2039032E-2],"categories":[],"categories_nodes":[],"categories_segments":[],"categories_sizes":[],"default_left":[0,0,0,0,0,0,0,0,0,0,0,0,0,0,0,0,0,0,0,0,0,0,0,0,0,0,0,0,0,0,0,0,0,0,0,0,0,0,0,0,0,0,0,0,0,0,0,0,0,0,0,0,0,0,0,0,0,0,0,0,0,0,0,0,0,0,0,0,0,0,0,0,0,0,0,0,0,0,0,0,0],"id":13,"left_children":[1,3,5,7,9,11,13,15,17,19,21,23,25,-1,-1,-1,27,29,31,33,35,37,39,41,43,45,47,49,-1,51,53,55,57,-1,-1,59,61,63,65,-1,67,-1,-1,69,71,73,75,77,79,-1,-1,-1,-1,-1,-1,-1,-1,-1,-1,-1,-1,-1,-1,-1,-1,-1,-1,-1,-1,-1,-1,-1,-1,-1,-1,-1,-1,-1,-1,-1,-1],"loss_changes":[2.1367307E0,1.3836194E0,1.2129321E0,9.319196E-1,1.4486663E0,8.838639E-1,3.163659E-1,2.2529581E-1,1.0170782E0,8.716538E-1,1.2450237E0,1.2403865E0,9.02658E-1,0E0,0E0,0E0,1.1298999E-1,8.0252934E-1,4.6625608E-1,1.7684954E-1,8.9444613E-1,6.905179E-1,5.4214716E-1,1.4563096E-1,1.2221643E0,3.5327578E-1,7.5492156E-1,7.475042E-2,0E0,3.3431768E-1,2.674144E-1,3.6619455E-2,2.211453E-2,0E0,0E0,2.4878383E-1,8.348932E-1,3.4766817E-1,3.8696784E-1,0E0,5.536066E-1,0E0,0E0,4.6266913E-1,1.0535538E-1,6.488864E-2,2.3232651E-1,5.7552624E-1,4.8173666E-3,0E0,0E0,0E0,0E0,0E0,0E0,0E0,0E0,0E0,0E0,0E0,0E0,0E0,0E0,0E0,0E0,0E0,0E0,0E0,0E0,0E0,0E0,0E0,0E0,0E0,0E0,0E0,0E0,0E0,0E0,0E0,0E0],"parents":[2147483647,0,0,1,1,2,2,3,3,4,4,5,5,6,6,7,7,8,8,9,9,10,10,11,11,12,12,16,16,17,17,18,18,19,19,20,20,21,21,22,22,23,23,24,24,25,25,26,26,27,27,29,29,30,30,31,31,32,32,35,35,36,36,37,37,38,38,40,40,43,43,44,44,45,45,46,46,47,47,48,48],"right_children":[2,4,6,8,10,12,14,16,18,20,22,24,26,-1,-1,-1,28,30,32,34,36,38,40,42,44,46,48,50,-1,52,54,56,58,-1,-1,60,62,64,66,-1,68,-1,-1,70,72,74,76,78,80,-1,-1,-1,-1,-1,-1,-1,-1,-1,-1,-1,-1,-1,-1,-1,-1,-1,-1,-1,-1,-1,-1,-1,-1,-1,-1,-1,-1,-1,-1,-1,-1],"split_conditions":[6.25E-2,8.264462E-3,2.2916667E-1,5.6312464E-2,1.8701577E-3,8.66333E-1,1.17117114E-1,2.5E-1,3.4731498E-3,4.754E-3,2.9388191E-3,4.4412968E-1,6.422762E-1,-2.8725851E-2,8.472099E-3,-1.1366883E-2,3.75E-1,2.6585457E-1,2.0011818E-1,1.1570248E-1,2.9279279E-2,2.7272728E-1,7.4074E-2,1.875E-1,4.1608475E-2,4.310345E-3,5E-1,3.0445E-2,-5.8777505E-3,7.114816E-5,4.1667E-2,3.3364793E-6,7.5E-1,-2.257288E-2,5.059123E-3,3.5799295E-1,3.4285715E-1,5E-1,3.2231405E-1,-1.9279847E-2,4.0265885E-1,-2.9922796E-2,1.843259E-3,1.6528925E-2,9.9273E-1,4.3085106E-2,3.687943E-2,8.8120565E-2,1.0686615E-3,1.792334E-2,-3.7732408E-3,-3.1074703E-2,1.5642587E-3,4.3078717E-3,-1.8815061E-2,2.040373E-2,-8.55944E-5,-1.5889468E-2,-1.3354208E-4,-6.730083E-3,2.7337048E-2,-2.0646723E-2,1.36686135E-2,-2.7378216E-2,6.720728E-3,1.5288398E-2,-1.601812E-2,-1.1633794E-2,1.7336385E-2,-1.7194375E-3,2.5261154E-2,-2.1587662E-2,7.245996E-4,-1.1070929E-2,5.497285E-3,-1.3508536E-3,3.0434389E-2,1.3439621E-2,-1.8699078E-3,-2.2968387E-3,-2.2039032E-2],"split_indices":[25,128,75,117,12,102,20,125,12,55,12,105,117,0,0,0,125,83,15,128,35,128,57,25,79,131,125,55,0,127,45,127,3,0,0,110,126,13,128,0,115,0,0,128,100,10,10,10,12,0,0,0,0,0,0,0,0,0,0,0,0,0,0,0,0,0,0,0,0,0,0,0,0,0,0,0,0,0,0,0,0],"split_type":[0,0,0,0,0,0,0,0,0,0,0,0,0,0,0,0,0,0,0,0,0,0,0,0,0,0,0,0,0,0,0,0,0,0,0,0,0,0,0,0,0,0,0,0,0,0,0,0,0,0,0,0,0,0,0,0,0,0,0,0,0,0,0,0,0,0,0,0,0,0,0,0,0,0,0,0,0,0,0,0,0],"sum_hessian":[1.11500465E2,5.657082E1,5.492965E1,2.3228998E1,3.334182E1,5.2736385E1,2.193264E0,2.9649277E0,2.026407E1,1.4490463E1,1.8851358E1,1.1951874E1,4.078451E1,1.9582365E0,2.3502749E-1,3.8892883E-1,2.5759988E0,1.7536566E1,2.727503E0,1.5850885E0,1.2905375E1,1.0912356E1,7.939002E0,2.8365314E0,9.115342E0,8.465922E0,3.231859E1,2.4027503E0,1.7324868E-1,1.3521654E1,4.014912E0,1.7819395E0,9.4556355E-1,1.2242389E0,3.608497E-1,7.5473747E0,5.358E0,8.6978E0,2.2145565E0,8.910325E-1,7.0479693E0,2.559081E0,2.7745035E-1,6.4373E0,2.678042E0,5.7989633E-1,7.8860264E0,3.102084E1,1.2977502E0,2.301013E0,1.0173722E-1,1.2788653E1,7.3300153E-1,3.202666E0,8.1224597E-1,1.5526063E0,2.2933322E-1,6.68854E-1,2.767096E-1,1.9814834E-1,7.349226E0,1.977287E0,3.3807127E0,8.264666E0,4.3313468E-1,1.5810715E0,6.3348484E-1,1.4190404E0,5.628929E0,2.0881748E0,4.3491254E0,2.1171443E0,5.6089747E-1,3.233373E-1,2.5655907E-1,5.283772E-1,7.357649E0,2.3082289E1,7.9385514E0,2.9028648E-1,1.0074638E0],"tree_param":{"num_deleted":"0","num_feature":"136","num_nodes":"81","size_leaf_vector":"1"}},{"base_weights":[-5.3119082E-9,-1.17494E-1,1.6461992E-1,-3.0691618E-2,-3.2945654E-1,2.3671311E-1,-5.2822556E-2,-2.9391012E-1,6.2006354E-2,-4.891323E-1,2.1966653E-1,2.6501545E-1,-3.1158823E-1,-1.9873363E-1,3.9630485E-1,-5.309824E-1,-6.849351E-2,3.6252442E-1,-4.4457912E-2,-5.6822383E-1,1.4563444E-1,-1.2072201E-2,3.133183E-1,1.4966567E-1,4.3706408E-1,7.91433E-3,-2.2163969E-2,-4.1123793E-1,1.17600314E-1,-8.122466E-3,2.4458157E-2,-3.155891E-2,9.780848E-3,-3.3366647E-1,2.487716E-1,4.7548783E-1,-1.8592143E-2,-4.368734E-1,7.67721E-2,-3.3938654E-2,-2.0798744E-1,1.145302E-2,-4.4230375E-2,1.775155E-2,-5.680164E-3,-2.0658627E-1,2.339126E-1,-9.487051E-3,4.6560988E-1,-2.872718E-2,4.2494785E-2,-1.7713158E-1,2.0125605E-1,5.618436E-3,-7.1176426E-3,-2.2429686E-2,3.9153E-3,-8.864723E-3,1.6532563E-2,2.7261993E-2,-9.741692E-3,-2.9527871E-2,3.8161378E-3,-2.5010237E-3,1.3792202E-2,2.816625E-3,-2.3925835E-2,3.688057E-4,-2.903019E-3,-1.8953867E-2,1.1304454E-2,1.5082947E-2,-8.2560405E-3,6.563958E-3,2.7550867E-2,-2.8802012E-3,4.177769E-3,-1.4128746E-2,5.487921E-3,-7.2788224E-3,1.2800832E-2],"categories":[],"categories_nodes":[],"categories_segments":[],"categories_sizes":[],"default_left":[0,0,0,0,0,0,0,0,0,0,0,0,0,0,0,0,0,0,0,0,0,0,0,0,0,0,0,0,0,0,0,0,0,0,0,0,0,0,0,0,0,0,0,0,0,0,0,0,0,0,0,0,0,0,0,0,0,0,0,0,0,0,0,0,0,0,0,0,0,0,0,0,0,0,0,0,0,0,0,0,0],"id":14,"left_children":[1,3,5,7,9,11,13,15,17,19,21,23,25,27,29,31,33,35,37,39,41,-1,43,45,47,-1,-1,49,51,-1,-1,-1,53,55,57,59,-1,61,63,-1,65,-1,67,-1,-1,69,71,-1,73,-1,75,77,79,-1,-1,-1,-1,-1,-1,-1,-1,-1,-1,-1,-1,-1,-1,-1,-1,-1,-1,-1,-1,-1,-1,-1,-1,-1,-1,-1,-1],"loss_changes":[2.1903167E0,1.2056756E0,7.518344E-1,1.1890172E0,1.7818E0,6.350541E-1,9.019093E-1,6.407962E-1,1.1779044E0,8.4103966E-1,2.9121947E-1,6.171782E-1,2.0673807E-1,7.3045546E-1,2.5660372E-1,3.327824E-1,7.2605705E-1,9.738785E-1,1.3514831E0,4.018016E-1,4.9246166E-2,0E0,1.2197265E-1,7.1194124E-1,3.2602906E-1,0E0,0E0,4.906255E-1,1.5535256E-1,0E0,0E0,0E0,4.6071514E-2,2.5248247E-1,2.0001018E-1,5.1610553E-1,0E0,5.7256365E-1,5.694944E-1,0E0,3.5898966E-1,0E0,1.5644867E-3,0E0,0E0,4.4094232E-1,5.4589665E-1,0E0,2.987206E-1,0E0,1.5484399E-2,7.957432E-2,1.1798377E-1,0E0,0E0,0E0,0E0,0E0,0E0,0E0,0E0,0E0,0E0,0E0,0E0,0E0,0E0,0E0,0E0,0E0,0E0,0E0,0E0,0E0,0E0,0E0,0E0,0E0,0E0,0E0,0E0],"parents":[2147483647,0,0,1,1,2,2,3,3,4,4,5,5,6,6,7,7,8,8,9,9,10,10,11,11,12,12,13,13,14,14,15,15,16,16,17,17,18,18,19,19,20,20,22,22,23,23,24,24,27,27,28,28,32,32,33,33,34,34,35,35,37,37,38,38,40,40,42,42,45,45,46,46,48,48,50,50,51,51,52,52],"right_children":[2,4,6,8,10,12,14,16,18,20,22,24,26,28,30,32,34,36,38,40,42,-1,44,46,48,-1,-1,50,52,-1,-1,-1,54,56,58,60,-1,62,64,-1,66,-1,68,-1,-1,70,72,-1,74,-1,76,78,80,-1,-1,-1,-1,-1,-1,-1,-1,-1,-1,-1,-1,-1,-1,-1,-1,-1,-1,-1,-1,-1,-1,-1,-1,-1,-1,-1,-1],"split_conditions":[4.767826E-1,1.21808514E-1,3.888889E-1,1.27551025E-2,4.3843845E-1,9.701196E-1,5.655385E-1,1.724138E-2,3.2129E-2,2.857143E-1,2E-1,8.515826E-1,3.311833E-1,5.3846157E-1,4.6109334E-2,2.9388191E-3,8.264462E-3,1.752084E-4,6.065416E-2,3.4771292E-5,3.33333E-1,-1.2072201E-2,3.6363637E-1,1.6203243E-3,2.72727E-1,7.91433E-3,-2.2163969E-2,1.25E-1,2.9268293E-2,-8.122466E-3,2.4458157E-2,-3.155891E-2,3.5714287E-1,2.9252807E-4,1.4634146E-2,4.28571E-1,-1.8592143E-2,5.9125334E-1,1.9838526E-6,-3.3938654E-2,8.810933E-2,1.145302E-2,2.5E-1,1.775155E-2,-5.680164E-3,7.438017E-2,8.361565E-1,-9.487051E-3,3.0335825E-2,-2.872718E-2,6.0283687E-2,3.3333334E-1,7.51152E-1,5.618436E-3,-7.1176426E-3,-2.2429686E-2,3.9153E-3,-8.864723E-3,1.6532563E-2,2.7261993E-2,-9.741692E-3,-2.9527871E-2,3.8161378E-3,-2.5010237E-3,1.3792202E-2,2.816625E-3,-2.3925835E-2,3.688057E-4,-2.903019E-3,-1.8953867E-2,1.1304454E-2,1.5082947E-2,-8.2560405E-3,6.563958E-3,2.7550867E-2,-2.8802012E-3,4.177769E-3,-1.4128746E-2,5.487921E-3,-7.2788224E-3,1.2800832E-2],"split_indices":[107,10,58,34,20,124,130,131,45,31,126,114,105,58,64,12,128,44,85,92,6,0,13,129,47,0,0,25,24,0,0,0,126,127,39,6,0,116,127,0,89,0,3,0,0,128,110,0,84,0,10,1,104,0,0,0,0,0,0,0,0,0,0,0,0,0,0,0,0,0,0,0,0,0,0,0,0,0,0,0,0],"split_type":[0,0,0,0,0,0,0,0,0,0,0,0,0,0,0,0,0,0,0,0,0,0,0,0,0,0,0,0,0,0,0,0,0,0,0,0,0,0,0,0,0,0,0,0,0,0,0,0,0,0,0,0,0,0,0,0,0,0,0,0,0,0,0,0,0,0,0,0,0,0,0,0,0,0,0,0,0,0,0,0,0],"sum_hessian":[1.1124235E2,6.50795E1,4.616285E1,4.6983665E1,1.8095837E1,3.4601933E1,1.1560917E1,1.1671497E1,3.531217E1,1.4103907E1,3.9919302E0,3.339481E1,1.2071195E0,9.146834E0,2.4140825E0,5.027978E0,6.64352E0,8.6082945E0,2.670387E1,1.2634488E1,1.4694186E0,4.074884E-1,3.584442E0,2.1110924E1,1.2283888E1,2.2004475E-1,9.870748E-1,5.291883E0,3.8549511E0,2.372217E-1,2.1768608E0,4.100934E0,9.2704374E-1,3.5906918E0,3.052828E0,7.7661877E0,8.42107E-1,5.6881003E0,2.1015772E1,8.991068E0,3.6434197E0,8.774366E-1,5.919821E-1,3.4187984E0,1.6564335E-1,3.7598085E0,1.7351116E1,2.8909373E-1,1.1994794E1,3.6955392E0,1.5963438E0,6.052337E-1,3.2497175E0,7.09793E-1,2.1725075E-1,2.7379878E0,8.5270405E-1,3.0426425E-1,2.7485638E0,7.203236E0,5.6295145E-1,4.2612605E0,1.4268398E0,1.3296022E1,7.719749E0,2.2433398E0,1.4000801E0,2.2374374E-1,3.6823836E-1,2.7767146E0,9.8309386E-1,1.5041462E1,2.309654E0,2.9569185E0,9.037875E0,3.4714934E-1,1.2491944E0,4.5356986E-1,1.5166385E-1,2.169871E-1,3.0327303E0],"tree_param":{"num_deleted":"0","num_feature":"136","num_nodes":"81","size_leaf_vector":"1"}},{"base_weights":[-8.1583726E-11,-9.008167E-2,2.0948239E-1,-1.6411139E-1,1.0954794E-1,-6.653779E-2,2.774214E-1,-3.4458265E-2,-3.2380086E-1,-3.055488E-1,2.2553389E-1,-3.227977E-1,1.313221E-1,1.4158125E-1,4.7507033E-1,-4.5523936E-1,6.4168595E-2,-3.718249E-1,1.742066E-1,9.741773E-2,-4.6937725E-1,-1.76094E-2,2.7141836E-1,-4.3281734E-1,2.8558045E-3,2.0429234E-1,-1.0943309E-2,1.7779297E-1,-2.8227103E-1,5.754323E-3,5.2137256E-1,-5.256991E-1,1.0844754E-2,-4.0139222E-1,1.5390968E-1,-4.2961228E-1,8.981862E-2,-9.478738E-3,1.434113E-2,-2.7641517E-3,1.4931767E-1,-5.042117E-1,-1.6300431E-4,4.3388048E-1,1.2696441E-2,-2.5047673E-2,2.0386632E-4,-1.1827594E-1,2.6642883E-1,9.51924E-2,4.8501956E-1,-1.5950978E-2,-3.0300504E-4,5.6132853E-1,3.4722127E-3,-3.0788017E-2,6.994381E-4,-7.0362487E-3,5.995187E-3,1.0043715E-2,-3.0343851E-2,-2.6082578E-3,1.4339796E-2,-2.3422424E-2,1.0963612E-2,1.3707779E-2,-1.4989622E-2,8.1720855E-3,1.0212775E-3,-4.4000056E-3,-2.7193574E-2,2.4287498E-2,-1.2472192E-2,-1.2362218E-2,4.7483514E-3,2.282219E-5,-7.0425803E-3,1.4378835E-2,7.017332E-4,1.848053E-2,-1.1567412E-3,2.7278174E-2,1.4964596E-3,-6.5030187E-4,2.913914E-2],"categories":[],"categories_nodes":[],"categories_segments":[],"categories_sizes":[],"default_left":[0,0,0,0,0,0,0,0,0,0,0,0,0,0,0,0,0,0,0,0,0,0,0,0,0,0,0,0,0,0,0,0,0,0,0,0,0,0,0,0,0,0,0,0,0,0,0,0,0,0,0,0,0,0,0,0,0,0,0,0,0,0,0,0,0,0,0,0,0,0,0,0,0,0,0,0,0,0,0,0,0,0,0,0,0],"id":15,"left_children":[1,3,5,7,9,11,13,15,17,19,21,23,25,27,29,31,33,35,37,39,41,-1,43,45,-1,47,-1,49,51,-1,53,55,57,59,61,63,65,-1,-1,-1,67,69,-1,71,73,-1,-1,75,77,79,81,-1,-1,83,-1,-1,-1,-1,-1,-1,-1,-1,-1,-1,-1,-1,-1,-1,-1,-1,-1,-1,-1,-1,-1,-1,-1,-1,-1,-1,-1,-1,-1,-1,-1],"loss_changes":[2.1326525E0,1.18593E0,6.5575767E-1,1.1907556E0,1.12709E0,4.236418E-1,6.701491E-1,1.4052796E0,6.840527E-1,3.906491E-1,5.662237E-1,1.7374328E-1,1.7130175E-1,3.2189086E-1,1.1939502E-1,2.1652472E-1,1.220683E0,6.771114E-1,1.755697E-1,2.6786154E-2,6.1460078E-2,0E0,7.0956945E-1,8.78126E-2,0E0,1.2404941E-1,0E0,3.832777E-1,1.6132459E-2,0E0,1.2810397E-1,2.8064895E-1,4.7004927E-2,7.1097404E-1,6.7159796E-1,6.4314365E-1,3.3283406E-1,0E0,0E0,0E0,3.3052638E-4,1.1723697E-2,0E0,4.9049664E-1,1.8584567E-1,0E0,0E0,3.9194897E-3,1.826778E-2,4.8201603E-1,7.574147E-2,0E0,0E0,1.1059451E-1,0E0,0E0,0E0,0E0,0E0,0E0,0E0,0E0,0E0,0E0,0E0,0E0,0E0,0E0,0E0,0E0,0E0,0E0,0E0,0E0,0E0,0E0,0E0,0E0,0E0,0E0,0E0,0E0,0E0,0E0,0E0],"parents":[2147483647,0,0,1,1,2,2,3,3,4,4,5,5,6,6,7,7,8,8,9,9,10,10,11,11,12,12,13,13,14,14,15,15,16,16,17,17,18,18,19,19,20,20,22,22,23,23,25,25,27,27,28,28,30,30,31,31,32,32,33,33,34,34,35,35,36,36,40,40,41,41,43,43,44,44,47,47,48,48,49,49,50,50,53,53],"right_children":[2,4,6,8,10,12,14,16,18,20,22,24,26,28,30,32,34,36,38,40,42,-1,44,46,-1,48,-1,50,52,-1,54,56,58,60,62,64,66,-1,-1,-1,68,70,-1,72,74,-1,-1,76,78,80,82,-1,-1,84,-1,-1,-1,-1,-1,-1,-1,-1,-1,-1,-1,-1,-1,-1,-1,-1,-1,-1,-1,-1,-1,-1,-1,-1,-1,-1,-1,-1,-1,-1,-1],"split_conditions":[5.418209E-1,2.9388191E-3,3.03E-3,1.8701577E-3,7.6923E-2,2.1052632E-2,4.5718503E-1,1.459E-2,6.046974E-1,1.0452959E-2,8.105971E-2,6.363636E-1,8.493333E-3,1.01010665E-1,2.3041475E-3,4.090909E-1,2.4457725E-3,2.7272728E-1,9.234234E-2,3.349559E-1,3.7234E-2,-1.76094E-2,8.989362E-2,5E-1,2.8558045E-3,7.925532E-2,-1.0943309E-2,6.332533E-2,2.2727273E-1,5.754323E-3,1.4929079E-1,4.5538432E-5,7.14286E-1,2.6716536E-4,9.26448E-1,5.0714284E-1,3.2231405E-1,-9.478738E-3,1.434113E-2,-2.7641517E-3,1.4285715E-1,2E-1,-1.6300431E-4,4.8323882E-1,2.1813105E-1,-2.5047673E-2,2.0386632E-4,5.714286E-1,6.573766E-5,3.2958996E-1,3.750001E-2,-1.5950978E-2,-3.0300504E-4,1.25950305E-2,3.4722127E-3,-3.0788017E-2,6.994381E-4,-7.0362487E-3,5.995187E-3,1.0043715E-2,-3.0343851E-2,-2.6082578E-3,1.4339796E-2,-2.3422424E-2,1.0963612E-2,1.3707779E-2,-1.4989622E-2,8.1720855E-3,1.0212775E-3,-4.4000056E-3,-2.7193574E-2,2.4287498E-2,-1.2472192E-2,-1.2362218E-2,4.7483514E-3,2.282219E-5,-7.0425803E-3,1.4378835E-2,7.017332E-4,1.848053E-2,-1.1567412E-3,2.7278174E-2,1.4964596E-3,-6.5030187E-4,2.913914E-2],"split_indices":[107,12,50,12,57,11,105,45,108,39,117,58,54,54,130,13,129,128,35,130,50,0,10,13,0,10,0,54,13,0,10,127,5,12,100,126,128,0,0,0,0,2,0,129,130,0,0,0,127,109,43,0,0,87,0,0,0,0,0,0,0,0,0,0,0,0,0,0,0,0,0,0,0,0,0,0,0,0,0,0,0,0,0,0,0],"split_type":[0,0,0,0,0,0,0,0,0,0,0,0,0,0,0,0,0,0,0,0,0,0,0,0,0,0,0,0,0,0,0,0,0,0,0,0,0,0,0,0,0,0,0,0,0,0,0,0,0,0,0,0,0,0,0,0,0,0,0,0,0,0,0,0,0,0,0,0,0,0,0,0,0,0,0,0,0,0,0,0,0,0,0,0,0],"sum_hessian":[1.1101502E2,7.8030365E1,3.2984657E1,5.705155E1,2.0978811E1,6.5192223E0,2.6465435E1,3.2158E1,2.4893549E1,4.224737E0,1.6754076E1,2.5653028E0,3.9539192E0,1.670248E1,9.762955E0,5.4196906E0,2.6738312E1,2.2935226E1,1.9583229E0,1.3383023E0,2.886435E0,7.4157137E-1,1.6012505E1,1.8812563E0,6.840466E-1,3.6168766E0,3.3704257E-1,1.5922662E1,7.7981794E-1,1.5098603E0,8.253094E0,4.5968595E0,8.228312E-1,3.75989E0,2.2978422E1,2.0445316E1,2.4899087E0,3.013865E-1,1.6569364E0,3.2294473E-1,1.0153575E0,2.6096778E0,2.767572E-1,9.420176E0,6.5923285E0,1.5006058E0,3.8065046E-1,4.3825966E-1,3.178617E0,1.3581107E1,2.341555E0,5.5146325E-1,2.2835475E-1,7.360281E0,8.928129E-1,3.8186584E0,7.782009E-1,2.228118E-1,6.000194E-1,9.6219075E-1,2.7976992E0,9.246598E0,1.3731824E1,1.9553122E1,8.921962E-1,1.8913759E0,5.985329E-1,6.735042E-1,3.418533E-1,5.070707E-1,2.102607E0,9.0243E0,3.958754E-1,1.1027714E0,5.4895573E0,2.2654912E-1,2.1171056E-1,2.8042555E0,3.7436134E-1,3.4519343E0,1.0129172E1,1.8911585E0,4.5039654E-1,2.7922225E-1,7.081059E0],"tree_param":{"num_deleted":"0","num_feature":"136","num_nodes":"85","size_leaf_vector":"1"}},{"base_weights":[-6.097937E-10,-1.1307921E-1,1.5903577E-1,-3.195292E-1,-2.7554803E-2,1.2979206E-2,2.4289012E-1,-1.8924518E-1,-3.1693578E-2,-2.567866E-1,6.4689495E-2,7.485561E-2,-3.631049E-1,2.8705242E-1,-2.1150231E-1,-4.664399E-1,-7.891686E-2,-3.8743514E-1,5.0753254E-2,-3.1881607E-1,1.6331378E-1,-1.5328778E-1,1.8737283E-1,-2.3199769E-2,2.9163502E-2,6.8182476E-2,3.982398E-1,-3.571305E-1,1.2804465E-1,-5.155617E-1,5.324706E-3,2.2411934E-1,-2.2726427E-1,-5.0306344E-1,1.010861E-3,1.6753139E-1,-1.4826237E-2,-5.502941E-1,-2.0059286E-2,4.3708655E-1,6.09588E-2,-3.4146008E-1,2.1050549E-1,-1.2906085E-1,2.8071472E-1,1.6615145E-3,5.69482E-5,1.8307684E-1,-2.3672579E-2,4.7746167E-1,-1.2704198E-1,-2.4528282E-2,8.619299E-3,1.40866805E-2,-8.116816E-3,-2.7715731E-2,-3.1042795E-3,-3.6046987E-3,1.5231191E-2,-1.646041E-2,9.357839E-3,-3.0379007E-2,7.896879E-3,1.1537626E-2,-1.6514508E-2,9.742095E-3,-4.3337676E-3,-2.9426634E-2,-6.269407E-5,-2.1536397E-2,1.389338E-2,2.6408432E-2,-1.3974239E-2,-5.173279E-3,1.7119603E-2,-3.006138E-3,-2.5611697E-2,1.635643E-2,-2.4249812E-3,-1.5651405E-2,6.323674E-3,-1.8445406E-3,1.9835852E-2,-8.085976E-3,1.3596083E-2,-5.531691E-3,2.4518913E-2,-1.7061241E-2,6.198497E-3],"categories":[],"categories_nodes":[],"categories_segments":[],"categories_sizes":[],"default_left":[0,0,0,0,0,0,0,0,0,0,0,0,0,0,0,0,0,0,0,0,0,0,0,0,0,0,0,0,0,0,0,0,0,0,0,0,0,0,0,0,0,0,0,0,0,0,0,0,0,0,0,0,0,0,0,0,0,0,0,0,0,0,0,0,0,0,0,0,0,0,0,0,0,0,0,0,0,0,0,0,0,0,0,0,0,0,0,0,0],"id":16,"left_children":[1,3,5,7,9,11,13,15,-1,17,19,21,23,25,27,29,31,33,35,37,39,41,43,-1,45,47,49,51,53,55,-1,57,59,61,63,65,-1,67,69,71,73,75,77,79,81,-1,-1,83,-1,85,87,-1,-1,-1,-1,-1,-1,-1,-1,-1,-1,-1,-1,-1,-1,-1,-1,-1,-1,-1,-1,-1,-1,-1,-1,-1,-1,-1,-1,-1,-1,-1,-1,-1,-1,-1,-1,-1,-1],"loss_changes":[2.0290873E0,1.1555102E0,5.710963E-1,6.672298E-1,1.0256913E0,4.4971585E-1,6.5729916E-1,4.2237765E-1,0E0,5.7793266E-1,1.3693211E0,4.5025325E-1,1.2182182E-1,6.425741E-1,2.044183E-1,1.6947877E-1,5.8785796E-1,4.4370985E-1,2.5353858E-1,5.050629E-1,7.6817036E-1,4.808193E-1,3.743439E-1,0E0,1.3318018E-4,7.3869926E-1,8.114953E-1,2.619055E-1,1.2157526E-1,3.448713E-2,0E0,1.2757233E-1,4.213485E-1,6.214253E-1,3.2445765E-1,4.744097E-2,0E0,8.6748004E-2,6.4527506E-1,6.4080775E-1,1.0445514E0,1.7669123E-1,9.60675E-2,1.9437519E-1,3.519228E-1,0E0,0E0,3.308578E-1,0E0,1.749456E-1,2.1189128E-1,0E0,0E0,0E0,0E0,0E0,0E0,0E0,0E0,0E0,0E0,0E0,0E0,0E0,0E0,0E0,0E0,0E0,0E0,0E0,0E0,0E0,0E0,0E0,0E0,0E0,0E0,0E0,0E0,0E0,0E0,0E0,0E0,0E0,0E0,0E0,0E0,0E0,0E0],"parents":[2147483647,0,0,1,1,2,2,3,3,4,4,5,5,6,6,7,7,9,9,10,10,11,11,12,12,13,13,14,14,15,15,16,16,17,17,18,18,19,19,20,20,21,21,22,22,24,24,25,25,26,26,27,27,28,28,29,29,31,31,32,32,33,33,34,34,35,35,37,37,38,38,39,39,40,40,41,41,42,42,43,43,44,44,47,47,49,49,50,50],"right_children":[2,4,6,8,10,12,14,16,-1,18,20,22,24,26,28,30,32,34,36,38,40,42,44,-1,46,48,50,52,54,56,-1,58,60,62,64,66,-1,68,70,72,74,76,78,80,82,-1,-1,84,-1,86,88,-1,-1,-1,-1,-1,-1,-1,-1,-1,-1,-1,-1,-1,-1,-1,-1,-1,-1,-1,-1,-1,-1,-1,-1,-1,-1,-1,-1,-1,-1,-1,-1,-1,-1,-1,-1,-1,-1],"split_conditions":[4.767826E-1,1.8035023E-7,2.6506666E-2,1.1223404E-1,7.67303E-1,7.4074E-2,9.701196E-1,2.748227E-2,-3.1693578E-2,2.9388191E-3,1.27551025E-2,7.1920924E-2,7.646288E-1,5.3553566E-2,1.0526316E-2,3.0495745E-1,2.1021022E-2,6.830401E-2,5.02082E-1,1.724138E-2,1.7857144E-2,1.8306608E-1,6.208782E-5,-2.3199769E-2,2.5E-1,4.8355525E-4,3.156129E-6,4.869456E-6,1.9148936E-2,4.274646E-3,5.324706E-3,1.2931035E-2,4.1428572E-1,1.4592137E-3,1.1745643E-1,7.1428573E-1,-1.4826237E-2,7.5E-1,5.5591445E-2,2.9642484E-1,3.4012753E-1,4.54545E-1,7.83699E-1,7.438017E-2,6.6667E-2,1.6615145E-3,5.69482E-5,1.3268316E-2,-2.3672579E-2,5.7291416E-3,3.37902E-5,-2.4528282E-2,8.619299E-3,1.40866805E-2,-8.116816E-3,-2.7715731E-2,-3.1042795E-3,-3.6046987E-3,1.5231191E-2,-1.646041E-2,9.357839E-3,-3.0379007E-2,7.896879E-3,1.1537626E-2,-1.6514508E-2,9.742095E-3,-4.3337676E-3,-2.9426634E-2,-6.269407E-5,-2.1536397E-2,1.389338E-2,2.6408432E-2,-1.3974239E-2,-5.173279E-3,1.7119603E-2,-3.006138E-3,-2.5611697E-2,1.635643E-2,-2.4249812E-3,-1.5651405E-2,6.323674E-3,-1.8445406E-3,1.9835852E-2,-8.085976E-3,1.3596083E-2,-5.531691E-3,2.4518913E-2,-1.7061241E-2,6.198497E-3],"split_indices":[107,127,54,10,104,61,124,10,0,12,34,14,111,85,11,78,20,90,102,131,34,129,90,0,3,94,127,127,10,12,0,131,126,127,40,0,0,3,49,83,107,47,100,128,62,0,0,129,0,82,44,0,0,0,0,0,0,0,0,0,0,0,0,0,0,0,0,0,0,0,0,0,0,0,0,0,0,0,0,0,0,0,0,0,0,0,0,0,0],"split_type":[0,0,0,0,0,0,0,0,0,0,0,0,0,0,0,0,0,0,0,0,0,0,0,0,0,0,0,0,0,0,0,0,0,0,0,0,0,0,0,0,0,0,0,0,0,0,0,0,0,0,0,0,0,0,0,0,0,0,0,0,0,0,0,0,0,0,0,0,0,0,0,0,0,0,0,0,0,0,0,0,0,0,0,0,0,0,0,0,0],"sum_hessian":[1.1082963E2,6.494252E1,4.588711E1,1.8221344E1,4.6721172E1,1.7157373E1,2.8729738E1,1.4014751E1,4.2065926E0,1.2894331E1,3.3826843E1,1.5421125E1,1.736248E0,2.652049E1,2.209248E0,3.0710752E0,1.0943676E1,8.867477E0,4.0268536E0,6.4628983E0,2.7363943E1,4.973782E0,1.0447344E1,1.2356025E0,5.006455E-1,9.477487E0,1.7043003E1,1.5098876E0,6.993605E-1,2.920792E0,1.502831E-1,3.4287777E0,7.514899E0,6.606007E0,2.26147E0,3.400848E0,6.260058E-1,3.1670823E0,3.2958157E0,6.5565596E0,2.0807384E1,3.3186157E0,1.6551663E0,2.2926104E0,8.154734E0,2.749842E-1,2.2566131E-1,8.365041E0,1.1124463E0,1.4888577E1,2.1544259E0,1.2647396E0,2.4514787E-1,4.767906E-1,2.2256991E-1,2.485979E0,4.34813E-1,7.550544E-1,2.6737232E0,6.1962857E0,1.3186127E0,5.7738686E0,8.321385E-1,1.5146366E0,7.4683356E-1,3.2817998E0,1.1904819E-1,2.8936224E0,2.7345985E-1,1.1983013E0,2.0975144E0,6.0504236E0,5.061359E-1,1.3533149E1,7.2742352E0,1.7642326E0,1.5543832E0,9.5992017E-1,6.952461E-1,1.2021503E0,1.0904602E0,2.3640707E0,5.790663E0,1.5457845E0,6.819256E0,1.5738896E-1,1.4731188E1,9.6856993E-1,1.185856E0],"tree_param":{"num_deleted":"0","num_feature":"136","num_nodes":"89","size_leaf_vector":"1"}},{"base_weights":[-5.475765E-10,-1.3407807E-1,1.3613051E-1,-1.8145503E-1,3.4769508E-1,1.662201E-1,-4.4262615E-1,-2.5120187E-1,1.334826E-1,-2.8874448E-2,5.189135E-1,7.24769E-2,3.194452E-1,-2.6783055E-2,7.1786935E-3,-3.494501E-1,-2.7423224E-3,-1.4056481E-1,4.980842E-1,1.9296959E-1,-1.49997715E-2,-1.5761174E-4,2.7660906E-2,1.7133513E-1,-1.223587E-1,9.537849E-2,4.572038E-1,-4.16992E-1,2.155659E-2,1.3934447E-1,-4.22551E-1,-3.29088E-1,1.8497267E-1,2.625366E-2,-1.5985615E-4,1.15993675E-2,3.114191E-4,-3.4562582E-1,2.3412026E-1,-3.3311167E-1,3.1636637E-1,3.2503888E-1,-9.9401034E-2,4.8806316E-1,-5.3946406E-2,-2.3598425E-2,-2.0197162E-4,1.2071121E-2,-2.1113034E-2,1.0159258E-2,-1.6007913E-2,-2.4759915E-2,2.9311394E-3,-2.3834107E-2,1.7132041E-3,-1.0365936E-2,1.5682807E-2,2.8973175E-3,-2.3268111E-2,-1.7160705E-3,1.6016869E-2,-2.4207728E-2,-1.6621046E-3,-7.178051E-3,2.8674884E-2,-1.449091E-3,2.0017503E-2,9.608551E-3,-1.0491685E-2,2.697861E-2,2.302579E-3,-1.136608E-2,8.763706E-3],"categories":[],"categories_nodes":[],"categories_segments":[],"categories_sizes":[],"default_left":[0,0,0,0,0,0,0,0,0,0,0,0,0,0,0,0,0,0,0,0,0,0,0,0,0,0,0,0,0,0,0,0,0,0,0,0,0,0,0,0,0,0,0,0,0,0,0,0,0,0,0,0,0,0,0,0,0,0,0,0,0,0,0,0,0,0,0,0,0,0,0,0,0],"id":17,"left_children":[1,3,5,7,9,11,13,15,17,19,21,23,25,-1,-1,27,29,31,33,35,-1,-1,-1,37,39,41,43,45,47,49,51,53,55,-1,-1,-1,-1,57,59,61,63,65,67,69,71,-1,-1,-1,-1,-1,-1,-1,-1,-1,-1,-1,-1,-1,-1,-1,-1,-1,-1,-1,-1,-1,-1,-1,-1,-1,-1,-1,-1],"loss_changes":[2.0553508E0,1.3579987E0,1.0466418E0,1.182562E0,3.6459458E-1,7.502279E-1,2.4239838E-1,1.0529134E0,1.0829078E0,2.1680477E-1,6.944525E-2,6.8929625E-1,5.781727E-1,0E0,0E0,7.8406334E-1,8.487502E-1,4.6391088E-1,6.35072E-2,1.3576873E-2,0E0,0E0,0E0,8.415755E-1,1.2392552E0,4.3190986E-1,2.189393E-1,5.932684E-1,6.595693E-1,3.773348E-1,1.547482E-1,2.586605E-1,2.1892375E-1,0E0,0E0,0E0,0E0,1.691227E-1,5.084498E-1,3.8116384E-1,6.1358577E-1,1.2714478E-1,2.2061825E-1,2.3959923E-1,1.032582E-1,0E0,0E0,0E0,0E0,0E0,0E0,0E0,0E0,0E0,0E0,0E0,0E0,0E0,0E0,0E0,0E0,0E0,0E0,0E0,0E0,0E0,0E0,0E0,0E0,0E0,0E0,0E0,0E0],"parents":[2147483647,0,0,1,1,2,2,3,3,4,4,5,5,6,6,7,7,8,8,9,9,10,10,11,11,12,12,15,15,16,16,17,17,18,18,19,19,23,23,24,24,25,25,26,26,27,27,28,28,29,29,30,30,31,31,32,32,37,37,38,38,39,39,40,40,41,41,42,42,43,43,44,44],"right_children":[2,4,6,8,10,12,14,16,18,20,22,24,26,-1,-1,28,30,32,34,36,-1,-1,-1,38,40,42,44,46,48,50,52,54,56,-1,-1,-1,-1,58,60,62,64,66,68,70,72,-1,-1,-1,-1,-1,-1,-1,-1,-1,-1,-1,-1,-1,-1,-1,-1,-1,-1,-1,-1,-1,-1,-1,-1,-1,-1,-1,-1],"split_conditions":[6.25E-2,1.1639803E-3,2.2916667E-1,9.142933E-2,2.36E-2,1.5236401E-2,1.17117114E-1,8.142942E-2,